[array([[-7.48971477e-02,  1.84575930e-01, -1.21592404e-02,
         1.46326020e-01, -2.81926896e-02, -1.46732386e-02,
        -2.34849919e-02,  4.36757177e-01,  1.94812924e-01,
        -8.74374341e-03, -7.97862649e-01,  5.33781992e-03,
        -1.88596249e-01,  1.27761699e-02, -3.84582639e-01,
        -3.66873145e-01, -3.49666387e-01,  6.78369775e-02,
        -1.60586596e-01,  1.79459170e-01, -1.79930463e-01,
        -1.08745031e-01,  2.48695016e-01, -2.77280837e-01,
        -3.83170754e-01,  2.54722070e-02, -1.73404086e-02,
        -2.57614851e-02,  1.74557760e-01,  1.10511020e-01,
         5.55164590e-02, -4.82836701e-02, -1.15130488e-02,
        -1.43554702e-01, -3.36516529e-01,  1.47519976e-01,
        -6.61825910e-02,  2.77490467e-01,  2.09552363e-01,
        -2.54905224e-01,  8.01519770e-03, -5.25505207e-02,
        -1.86924357e-02, -5.91389053e-02,  4.19142283e-02,
         2.62079060e-01, -1.69160336e-01,  4.56897676e-01,
         1.60213009e-01, -2.36513112e-02,  6.15569651e-01,
        -5.59095025e-01, -3.41768973e-02,  1.16093799e-01,
        -4.35169749e-02, -3.27112287e-01, -6.15285374e-02,
         3.56085718e-01],
       [ 1.16889752e-01,  3.66441727e-01,  8.00967868e-03,
         9.46230907e-03, -9.36297514e-03,  3.56419414e-01,
         1.23795009e+00, -5.88217378e-01,  1.69998601e-01,
        -2.91207954e-02,  8.21132958e-01, -2.77437679e-02,
        -1.10963263e-01, -4.32425737e-03, -1.17021717e-01,
         1.20277965e+00,  4.53195982e-02, -3.74636859e-01,
        -5.01624830e-02,  6.97515905e-02,  2.91904688e-01,
         4.60702747e-01, -5.80433980e-02,  4.98220474e-01,
         1.53284431e+00,  3.18165362e-01,  7.55793869e-01,
        -2.94535514e-02,  2.70730913e-01,  1.09699368e+00,
         4.94175553e-01, -3.24429572e-01, -5.44101186e-02,
        -4.52940762e-01,  7.74288058e-01, -3.12613457e-01,
         2.77371585e-01,  2.06661969e-01, -3.56344461e-01,
         1.83313563e-01, -5.68987012e-01,  3.01412940e-01,
        -1.09646097e-02, -1.83824766e-02,  1.38443913e-02,
         4.36384231e-01,  1.50422335e-01, -1.34326741e-01,
         6.99583709e-01, -5.52959293e-02, -9.41852666e-03,
         9.75658000e-02, -7.76198924e-01,  4.98534441e-01,
        -2.82249123e-01,  1.19671834e+00, -1.54117914e-02,
        -7.10566521e-01],
       [ 7.50098191e-03, -2.41415650e-01, -3.67023386e-02,
         2.54331857e-01, -5.08812964e-02, -1.91601008e-01,
        -3.58867109e-01,  2.51151204e-01, -1.45224571e-01,
        -3.75399627e-02, -1.90559462e-01, -1.47542702e-02,
        -3.30486625e-01, -2.42769606e-02, -5.73430769e-02,
        -5.08702159e-01,  3.47494073e-02,  1.49056971e-01,
        -1.86865672e-01, -3.85985523e-02, -6.34039864e-02,
        -1.46752194e-01, -9.17319432e-02,  3.80530395e-02,
        -5.30189872e-01, -8.65837839e-03, -2.67485324e-02,
        -4.56163064e-02, -1.02484241e-01, -3.41352612e-01,
        -3.62053096e-01, -7.33656809e-02,  2.02591438e-02,
        -1.93276361e-01,  3.31635699e-02,  9.02362764e-02,
        -1.24579653e-01, -1.49154127e-01,  1.93642065e-01,
        -8.35461468e-02,  2.99146473e-01,  1.38237640e-01,
        -1.63267907e-02,  3.42874788e-02,  1.22039460e-01,
        -1.07415676e-01, -2.03824192e-01, -3.27082872e-01,
        -8.77550989e-02,  1.93090420e-02, -4.43737656e-01,
         3.65238458e-01,  8.64399746e-02, -2.74223953e-01,
         3.30818325e-01, -4.69260186e-01, -8.39406624e-03,
         3.34234953e-01],
       [ 1.25277210e-02,  1.29822060e-01, -5.97605519e-02,
         8.47730488e-02, -3.07960212e-02,  1.13359511e-01,
         5.03187850e-02, -9.90159251e-03, -1.00928182e-02,
        -3.27812470e-02,  1.45814791e-01, -8.56516697e-03,
        -7.78569952e-02, -3.79302725e-02, -7.06916526e-02,
        -1.53175406e-02,  1.26078539e-03, -1.05892755e-01,
         2.38740221e-02,  1.79209530e-01,  4.25328501e-02,
         1.74365208e-01,  1.68020148e-02, -2.90596932e-02,
         1.22028314e-01,  1.34192640e-02,  5.40138222e-02,
         1.59500353e-02,  6.04181960e-02, -1.65232792e-01,
         1.07047901e-01, -6.35895133e-02, -2.31051613e-02,
         6.12085871e-03,  1.42006993e-01, -8.77019763e-02,
        -8.46637934e-02,  3.14209573e-02, -1.27302725e-02,
         5.89259341e-03,  1.27961099e-01,  1.10148691e-01,
        -5.74364513e-02, -1.21194320e-02, -2.28182878e-02,
         8.07010829e-02, -4.87869084e-02, -2.74136484e-01,
        -7.31619224e-02,  1.36111202e-02, -1.13102309e-01,
         9.92238149e-02, -5.50918616e-02,  1.57549381e-02,
         4.76841927e-02,  9.39383507e-02,  2.57209688e-02,
        -1.87529270e-02],
       [ 3.93567793e-02, -2.21939370e-01, -3.05266567e-02,
         2.89496869e-01,  1.10846600e-02, -6.45198971e-02,
        -1.70797169e-01,  3.04525141e-02, -1.78587586e-01,
        -7.30394572e-03,  7.14324936e-02, -3.72016504e-02,
        -2.56283045e-01, -4.81993072e-02, -1.34126574e-01,
        -5.04123211e-01, -2.48513389e-02,  1.91071257e-01,
        -1.99987680e-01, -2.11028121e-02, -8.22924525e-02,
        -2.68924177e-01, -5.76317310e-02, -5.98235801e-02,
        -2.76485056e-01, -1.08417526e-01, -7.57271657e-04,
        -4.87443581e-02, -5.28467037e-02, -7.37503469e-02,
        -2.41462007e-01, -1.97753161e-02,  1.09528629e-02,
        -2.29091793e-01,  1.11936204e-01,  8.69163945e-02,
         6.99254498e-02, -2.31885329e-01,  2.02992320e-01,
        -1.83524132e-01,  1.16460264e-01, -4.32601534e-02,
         2.87664048e-02, -3.12281717e-02,  3.36700156e-02,
        -9.49230492e-02, -9.17155370e-02, -3.16240072e-01,
        -3.08735445e-02, -3.56377587e-02, -5.10735691e-01,
         3.74623507e-01,  1.27942234e-01, -4.19899262e-02,
         2.79025465e-01, -2.24659085e-01, -4.07962017e-02,
         9.49160289e-03],
       [-9.56322700e-02, -1.86449683e+00,  8.19986686e-03,
        -6.91379160e-02,  2.90581491e-02, -2.16486096e+00,
        -1.26868260e+00,  2.08100840e-01, -1.29162415e-03,
         2.16688756e-02, -6.29952550e-01, -5.28670847e-02,
        -1.03703928e+00, -1.14261024e-02, -1.75327837e-01,
         3.87100160e-01,  7.34287798e-01,  1.96409225e-02,
        -6.07349694e-01, -1.62219685e-02,  7.44144857e-01,
        -1.01634681e+00, -7.76748061e-01,  2.19915643e-01,
        -6.90722764e-01, -5.75024188e-01,  8.99317086e-01,
         9.82182100e-03, -5.24822950e-01,  4.07852858e-01,
        -2.12023878e+00, -1.70000470e+00, -4.20779549e-02,
         1.10592462e-01,  6.90164447e-01,  7.84392834e-01,
         7.44580925e-01,  6.17253743e-02, -1.98626786e-01,
         8.03805351e-01,  4.62270856e-01, -8.32237840e-01,
         3.65812182e-02,  3.46062966e-02,  1.40834704e-01,
         6.37327909e-01, -1.86924374e+00,  3.04387063e-02,
         5.97859383e-01, -5.15142344e-02, -1.31576455e+00,
        -3.59250128e-01, -2.61201292e-01,  1.81768537e-01,
        -9.54360068e-01,  8.43003094e-01, -3.82572822e-02,
         1.53016567e-01],
       [ 4.10131842e-01,  4.43265177e-02, -2.03311052e-02,
         4.83515561e-01, -3.80335934e-02, -1.37884796e+00,
        -1.75165057e-01, -5.24071515e-01, -6.51244938e-01,
        -2.57352665e-02,  1.07008469e+00, -4.39447984e-02,
        -1.49474287e+00,  1.65113844e-02, -1.33283794e+00,
        -7.61595070e-01, -1.47830915e+00, -2.56115228e-01,
         2.40836993e-01, -1.81679976e+00, -4.85601753e-01,
         2.69111758e-03, -5.15386403e-01, -8.23439896e-01,
        -1.19311564e-01, -3.14803332e-01, -1.53769624e+00,
         3.36617939e-02, -1.62883639e-01,  5.14013529e-01,
        -5.53652048e-01,  1.52115151e-01,  3.09964409e-03,
         4.97066438e-01, -1.42073524e+00,  1.84063590e+00,
        -2.29713798e+00, -1.92899549e+00,  1.57604301e+00,
        -4.48635846e-01, -1.81550705e+00,  5.96753538e-01,
         2.67852470e-02,  3.38096507e-02, -1.24274218e+00,
         1.56248045e+00, -6.99857771e-02, -9.22533214e-01,
        -1.63442528e+00, -2.49586478e-02,  9.14791286e-01,
         1.32852602e+00,  2.95917660e-01,  1.27745378e+00,
        -7.45265558e-02,  1.32487845e+00, -4.37245704e-02,
         1.88250974e-01],
       [ 1.36200726e-01, -8.75911675e-03,  2.33562328e-02,
         1.13543880e+00,  3.25209610e-02, -6.56138599e-01,
        -6.65656149e-01, -4.35688257e-01,  4.42182481e-01,
         3.21872160e-02, -5.02935529e-01, -1.85450483e-02,
         3.94299477e-01, -1.26128085e-02,  1.64544082e+00,
         3.48295152e-01,  4.27576751e-01, -1.61211777e+00,
        -7.31000125e-01,  4.96461570e-01, -1.56733882e+00,
        -7.01159537e-02, -4.96007025e-01,  6.34326935e-01,
        -1.23220634e+00, -1.34078085e+00, -1.19394791e+00,
        -1.88128948e-02, -2.09296656e+00, -5.34094989e-01,
        -5.08211732e-01,  1.36070251e-01, -6.52140975e-02,
        -4.80508178e-01, -6.02823216e-03,  1.42413330e+00,
        -1.35269523e-01,  1.07404447e+00, -9.23811376e-01,
         3.96916211e-01,  3.57525110e-01,  9.81107175e-01,
         4.21465039e-02,  1.11844745e-02,  8.51062462e-02,
         3.51596236e-01, -1.72954500e+00,  5.46262205e-01,
        -2.76139408e-01,  2.87117213e-02,  8.72109890e-01,
        -1.73829329e+00, -2.09116626e+00, -3.68984073e-01,
        -2.29164314e+00, -9.19151604e-01,  3.86886075e-02,
         8.33481848e-01],
       [ 9.43100080e-02, -2.18257523e+00,  2.29373686e-02,
         5.74043989e-01, -1.45289795e-02, -1.45905852e+00,
        -4.15814906e-01, -2.60746932e+00, -8.39104950e-01,
        -2.86169872e-02, -2.23394737e-01,  3.69317681e-02,
         4.98819768e-01,  4.33426611e-02,  4.21546847e-01,
        -7.06095109e-03, -1.40466124e-01, -1.49508074e-01,
        -3.82549095e+00,  2.77256310e-01,  2.91784525e-01,
        -1.62511671e+00, -1.25447977e+00, -1.73430979e+00,
         2.17622876e+00, -3.32424402e+00, -3.09331901e-02,
        -4.06117663e-02, -1.34372985e+00,  1.30296901e-01,
         7.91748986e-02,  8.69254887e-01,  3.69537733e-02,
         7.32462049e-01, -1.35398731e-01,  1.06958710e-01,
         8.36491704e-01,  1.20878713e-02, -5.63992560e-01,
        -1.70254469e-01, -1.22004855e+00, -7.48850226e-01,
        -4.49634492e-02,  2.06482057e-02, -1.64889470e-01,
        -3.93123007e+00, -5.87017536e-01,  9.86404479e-01,
        -8.65523040e-01, -4.33085263e-02,  7.80295432e-01,
         9.39618945e-01, -4.58761930e-01,  1.01779747e+00,
        -3.33017731e+00,  3.49818110e-01, -3.46341915e-02,
        -2.58157277e+00],
       [-1.21558271e-02,  2.73190498e-01, -3.73019055e-02,
         6.97900653e-02, -4.53932546e-02,  1.97798330e-02,
         2.67448217e-01,  4.02648523e-02,  3.16326972e-03,
         1.52605912e-02,  9.44859460e-02, -1.84309818e-02,
        -1.03410445e-01, -2.82533411e-02,  4.06312868e-02,
        -8.45657140e-02,  2.61434972e-01, -1.27735734e-01,
         4.64711338e-01, -1.60809774e-02,  1.65620986e-02,
         3.79036069e-01,  8.64737630e-02, -5.85727692e-02,
         1.15399227e-01,  2.83413053e-01,  4.56398837e-02,
         8.00696760e-03,  1.46166593e-01,  2.38020737e-02,
         2.97179461e-01,  1.99291274e-01,  1.01279421e-03,
         2.61317074e-01,  1.92021906e-01,  5.59535809e-02,
        -7.79511109e-02,  6.94944710e-02,  6.92774653e-02,
         1.50758982e-01,  1.46717742e-01,  1.97826698e-01,
         8.92821141e-03, -4.38374653e-02,  1.28691792e-01,
         2.21428901e-01, -1.08743750e-01, -2.50806689e-01,
         5.25097325e-02, -2.51292456e-02, -2.28472084e-01,
        -5.72482124e-02,  5.62597327e-02, -1.52879924e-01,
         4.68639553e-01, -2.87830792e-02,  2.98196916e-02,
         9.40235183e-02],
       [-6.25885129e-02,  1.42432213e-01, -5.84011264e-02,
         1.18757911e-01, -4.54605967e-02,  2.84786373e-01,
        -1.45561509e-02,  1.47779390e-01,  1.75902978e-01,
        -2.05814503e-02, -3.68947238e-02,  3.42075229e-02,
         6.26911372e-02, -3.92118208e-02, -1.05604589e-01,
         3.33128065e-01,  1.69547945e-02,  2.13017344e-01,
        -6.08103096e-01, -6.39454603e-01,  3.59819122e-02,
        -2.85371751e-01, -5.42973638e-01, -1.08532920e-01,
        -2.89668143e-02,  1.00986801e-01,  1.84037820e-01,
        -2.23239791e-02, -3.19507718e-01, -5.47695279e-01,
        -3.04875642e-01, -1.70128234e-03, -6.77478546e-03,
        -7.32183099e-01, -1.36471063e-01,  2.18244910e-01,
         2.13785186e-01,  4.45908785e-01,  3.86356115e-01,
        -2.76759267e-01, -4.11849678e-01,  4.56141502e-01,
        -3.05392034e-03,  1.48558822e-02,  7.71414191e-02,
         3.85943651e-01,  9.40398276e-02,  4.85395528e-02,
        -3.82700004e-02,  2.41829213e-02,  1.05942851e-02,
         8.42901990e-02, -4.46702749e-01,  1.55631257e-02,
         3.48566413e-01,  2.60576069e-01,  2.99378764e-02,
        -3.44058186e-01],
       [ 6.10664375e-02, -1.24166347e-01, -1.03213713e-02,
        -1.79803148e-01, -4.91494313e-02, -2.11436301e-02,
         3.17574069e-02, -5.39414167e-01,  2.52677896e-03,
         8.78308527e-03, -5.05684853e-01, -4.22241539e-03,
         1.03424907e-01, -1.01795420e-02,  1.27259701e-01,
        -1.10984296e-01,  4.31924388e-02, -7.34504700e-01,
         2.95959234e-01, -1.77575927e-02, -1.13792997e-02,
        -5.43803275e-01,  2.10677341e-01, -4.19688106e-01,
        -3.31406631e-02, -6.17469966e-01, -3.47424531e-03,
         9.85972956e-03,  4.99219030e-01, -1.71403274e-01,
         2.10090712e-01,  2.99268633e-01,  3.87866758e-02,
        -1.97093308e-01, -2.42114082e-01, -1.93568662e-01,
        -2.39137903e-01, -2.94508070e-01, -2.94405609e-01,
         1.98816240e-01, -7.61328161e-01,  9.52031165e-02,
         2.44853143e-02, -5.05946763e-02, -5.76749384e-01,
         1.31239265e-01, -3.63142490e-01, -4.50758100e-01,
        -2.76312679e-01,  9.06729139e-03,  2.20110297e-01,
         4.15490597e-01, -3.02957684e-01, -9.26283538e-01,
        -7.82134831e-02, -5.37815273e-01, -8.15005042e-03,
         1.71153218e-01],
       [ 1.86581910e-01,  8.58806521e-02,  5.95172914e-03,
         5.93264580e-01,  1.11800320e-02,  9.20011941e-03,
        -2.42373228e-01, -5.29298559e-02, -7.96813726e-01,
         1.62670470e-03, -5.11839949e-02,  1.93660390e-02,
        -2.08214641e-01,  8.30255821e-03, -1.29657972e+00,
         2.85394758e-01, -7.60812402e-01,  4.99051064e-01,
         2.60456175e-01, -5.76197267e-01,  4.50882316e-01,
         3.65975797e-01,  1.29796239e-02, -2.64974475e-01,
         4.19238508e-01,  2.01468870e-01,  4.96764898e-01,
        -3.11770290e-03, -4.56928730e-01,  4.89688292e-02,
         1.26245171e-01,  2.16516614e-01, -3.97337899e-02,
         3.42141569e-01, -1.58750698e-01, -4.73445915e-02,
         2.69009341e-02,  5.49819432e-02, -4.47767526e-01,
        -7.32532367e-02, -2.19854668e-01,  2.93112427e-01,
        -3.63953039e-03, -1.44023355e-02, -1.48652643e-02,
        -1.62122145e-01,  2.46456675e-02, -5.16919494e-01,
        -5.90646923e-01,  1.53839188e-02,  2.10200459e-01,
         4.40763295e-01, -6.64532185e-01, -6.32599235e-01,
        -3.24658602e-01, -3.24563682e-01,  1.48918834e-02,
         1.41941115e-01],
       [-9.86914523e-03, -2.85160970e-02,  2.28489935e-02,
         9.09986272e-02,  3.73370089e-02,  6.91533908e-02,
        -1.65471315e-01,  4.61518884e-01,  3.73554319e-01,
        -5.06750792e-02, -1.06875256e-01,  1.51409246e-02,
         2.82843947e-01, -1.80910006e-02,  3.09593379e-01,
         3.07450801e-01, -6.31976068e-01,  3.09416801e-01,
         3.27824682e-01, -2.97207326e-01,  1.33031145e-01,
         8.54290947e-02, -9.77698714e-02, -4.18432653e-01,
         3.05904567e-01,  7.92019218e-02, -1.60493180e-01,
         5.37847355e-03, -2.28272341e-02, -2.61908501e-01,
         3.22784670e-02, -1.55604765e-01,  1.35956192e-02,
         1.29178017e-01,  2.23047271e-01, -3.61982286e-02,
        -2.35309720e-01, -1.71006978e-01,  1.62675485e-01,
        -1.54020220e-01, -7.66885579e-01,  3.98099899e-01,
         3.91999260e-02, -3.12879086e-02,  7.45828152e-02,
         2.97146469e-01,  1.77284986e-01, -1.33286285e+00,
        -1.12277496e+00, -3.03418804e-02,  4.52361614e-01,
        -2.66674571e-02,  7.95247406e-02, -2.28143826e-01,
         3.30977827e-01,  1.72381699e-01,  1.60462353e-02,
         2.53859550e-01],
       [ 7.80593082e-02, -6.22538328e-01,  5.48286363e-03,
         1.10774711e-01,  3.04554198e-02,  1.13168940e-01,
         2.05058515e-01,  3.25309247e-01,  3.76537964e-02,
         3.76087874e-02,  3.94364387e-01,  8.42634588e-03,
         4.45545226e-01,  6.67063147e-03,  4.28100437e-01,
        -1.37237862e-01, -2.52153635e-01, -1.26131862e-01,
        -1.26771489e-03, -2.02041551e-01,  3.90935957e-01,
        -1.32840291e-01, -3.41058105e-01,  5.50101638e-01,
         5.21685958e-01,  4.08007279e-02,  3.69971901e-01,
        -2.78458744e-03,  4.00035121e-02,  4.45715904e-01,
        -5.61036527e-01, -5.69366217e-01,  1.55531531e-02,
         1.03306912e-01,  1.40165418e-01,  2.73113757e-01,
        -1.27219746e-03, -9.29620802e-01,  2.44263634e-01,
         8.39413404e-01, -4.69343305e-01, -7.32070684e-01,
         2.17549093e-02, -3.46772298e-02, -6.30446821e-02,
        -1.16211846e-01, -7.65632391e-01,  2.36464124e-02,
         2.98377782e-01,  1.31554613e-02,  5.38351655e-01,
        -2.44006678e-01,  5.75665906e-02,  1.63081259e-01,
        -6.35284722e-01,  7.89413095e-01,  1.44161256e-02,
         6.34433806e-01],
       [-2.25265455e-02,  3.32423955e-01, -3.51409279e-02,
        -4.03562635e-01,  1.11333840e-02, -2.51716703e-01,
        -2.96456993e-01, -3.39893401e-02, -9.90295634e-02,
        -2.89486647e-02,  1.12915792e-01, -3.53555754e-03,
         1.00751489e-01,  1.09098442e-02,  4.99300480e-01,
         3.16651374e-01, -1.59667861e-02, -1.61451995e-01,
        -2.75318027e-01,  2.26849243e-01,  4.25052196e-01,
         3.58047336e-01,  1.79942563e-01,  3.38554591e-01,
        -3.21174920e-01,  1.52826756e-01, -2.31866632e-02,
        -1.41220801e-02,  6.35977909e-02, -3.47397000e-01,
        -9.36000705e-01, -2.81804174e-01,  3.24585065e-02,
        -2.18079701e-01, -6.35857508e-02,  1.27793150e-02,
         1.35517400e-02, -1.76299483e-01,  2.70525277e-01,
        -1.52092978e-01,  9.65686440e-02, -1.63943604e-01,
        -3.55350599e-02, -4.80731018e-02, -2.54382230e-02,
        -4.99690622e-02, -5.62504113e-01,  2.91246116e-01,
        -5.69272693e-03, -2.82274634e-02, -4.29082289e-03,
         1.27374992e-01, -2.04911366e-01,  4.78981316e-01,
        -2.29719803e-01,  1.48515537e-01,  2.31141187e-02,
        -2.39697367e-01],
       [-7.86453933e-02,  1.08984999e-01,  3.25763747e-02,
        -8.65517020e-01, -2.75213607e-02, -2.44544968e-01,
        -3.87879834e-02, -6.05156422e-02, -2.82642961e-01,
        -3.33979027e-03,  1.29162610e-01, -2.44135857e-02,
        -6.82598293e-01, -4.76770662e-02,  8.82976577e-02,
         1.96458519e-01,  4.90274459e-01, -5.14511168e-02,
         3.70763570e-01,  2.28470191e-01, -4.05607820e-01,
        -1.73281744e-01, -7.08274171e-02,  9.38319881e-03,
        -2.47502312e-01, -5.32876812e-02,  2.54821211e-01,
        -2.97193602e-03,  4.72805016e-02,  1.95903510e-01,
         3.21453840e-01,  1.39596730e-01, -4.44053672e-02,
        -4.46034111e-02, -3.17028947e-02, -2.62742043e-01,
        -5.62737882e-01, -1.51769504e-01,  9.09485072e-02,
         3.04814130e-01,  1.89880468e-02, -1.58539727e-01,
        -1.34534808e-02, -4.75256555e-02,  6.14865273e-02,
         4.73295003e-02, -2.61481464e-01, -8.95383805e-02,
         6.31725043e-03, -2.82941032e-02,  1.14862554e-01,
         2.20246762e-02,  2.69762874e-01,  1.06875766e-02,
         1.74662068e-01, -2.99562007e-01, -6.53123111e-02,
        -3.76842976e-01],
       [ 7.23303705e-02, -3.29011589e-01, -5.06547876e-02,
         3.22538227e-01,  3.48647982e-02,  2.63129920e-01,
        -1.85053766e-01,  4.07126456e-01,  1.93976820e-01,
         3.18129547e-04,  3.99087369e-01, -4.35797386e-02,
        -6.15098774e-01, -2.26698276e-02, -2.47772366e-01,
        -2.79289246e-01,  2.44771749e-01, -9.52015400e-01,
        -1.93174839e-01,  4.03604150e-01,  4.24493581e-01,
        -3.13574553e-01, -7.05378354e-01,  5.07653296e-01,
        -5.43975413e-01, -8.58641744e-01,  4.77863938e-01,
         3.19304504e-02,  6.69269264e-02,  2.93505713e-02,
        -7.13473678e-01,  6.63129091e-01, -3.53038870e-02,
         5.33494987e-02, -1.65531397e+00,  2.36884028e-01,
         6.72665015e-02,  5.56987524e-02,  1.40790045e-01,
        -4.01823163e-01,  8.37247014e-01, -2.35215157e-01,
        -4.79659922e-02,  1.72239430e-02, -5.75301170e-01,
        -5.98801613e-01,  3.39130700e-01, -1.10096109e+00,
        -3.92857850e-01, -8.34047515e-03,  7.07717299e-01,
        -2.96311229e-01, -4.08188224e-01, -8.28265026e-02,
        -1.74971521e-01, -4.24769938e-01,  1.03120608e-02,
        -8.23655188e-01],
       [-3.94254327e-01, -2.14488101e+00, -1.06317981e-03,
        -9.48933303e-01,  8.25361116e-04,  4.11654353e-01,
         1.76377997e-01, -1.67519903e+00, -9.30212587e-02,
         1.40526844e-02, -2.85789800e+00,  2.76705883e-02,
        -8.62317502e-01,  2.21160911e-02, -8.67782161e-02,
         2.98156470e-01,  2.99947977e-01,  1.15710485e+00,
         8.30221236e-01, -2.71226019e-01, -2.65580440e+00,
        -3.95005643e-01, -9.96736765e-01,  3.20781827e-01,
         1.48454785e+00,  1.64349186e+00, -9.19286311e-01,
         4.64483015e-02, -9.80644524e-01, -1.84316546e-01,
         4.28724825e-01,  3.59542429e-01, -5.37930466e-02,
         6.56645358e-01, -2.57377803e-01, -2.24529338e+00,
        -5.65040767e-01, -1.01253581e+00, -2.57729268e+00,
         3.69783312e-01,  1.58803403e-01, -1.47362649e+00,
         2.47431491e-02,  4.47999686e-02, -1.39686489e+00,
         8.46963465e-01, -1.88005731e-01, -3.38000745e-01,
        -2.39312768e-01,  4.04789345e-03,  4.35191095e-02,
        -1.95147991e-01, -1.02984071e+00,  6.62047684e-01,
         1.35935640e+00,  2.68376082e-01,  3.93860005e-02,
         1.67745337e-01],
       [-5.59839368e-01, -3.12969851e+00, -3.55068333e-02,
        -5.21096647e-01,  3.12632173e-02,  6.99558198e-01,
         1.53174281e-01, -1.57911992e+00, -4.00383115e-01,
        -3.06746811e-02, -2.19049716e+00, -4.08439860e-02,
        -6.45259678e-01, -2.79102474e-03, -9.61814355e-03,
         1.73207149e-01, -2.40580723e-01,  1.89791337e-01,
         1.33662581e-01,  3.65858078e-01, -1.59950066e+00,
        -1.60018897e+00, -5.13477623e-01, -4.92319912e-01,
         4.78935480e-01,  5.04707135e-02, -7.01811910e-01,
         2.38665231e-02, -5.23732722e-01, -3.04842144e-01,
         1.18671857e-01, -8.27531278e-01, -2.23915763e-02,
        -1.50661126e-01, -5.76791286e-01, -1.85220039e+00,
         1.98311538e-01, -4.45520878e-01, -1.83178687e+00,
        -3.89089212e-02,  3.75048965e-01, -2.26259136e+00,
        -3.85459103e-02,  3.61957476e-02, -8.42662573e-01,
        -6.17528796e-01,  4.18708734e-02, -2.78816462e-01,
        -3.07709187e-01, -3.34912464e-02,  3.07313502e-01,
        -1.18787241e+00, -7.47612655e-01, -8.01836327e-02,
         1.78260416e-01,  2.23577321e-01, -3.07484306e-02,
        -6.61228299e-01],
       [ 1.71821043e-01,  2.78324336e-01, -3.25912498e-02,
         2.55002409e-01,  1.73790362e-02, -2.49353498e-02,
         8.94838572e-01,  2.95518190e-01,  5.13785183e-01,
         2.70684399e-02, -1.12977302e+00, -6.15705177e-03,
        -3.82957309e-01,  1.23127699e-02,  4.56611633e-01,
        -3.41672212e-01, -2.77852684e-01, -3.41777682e-01,
        -1.16940342e-01,  6.11593714e-03, -1.01133871e+00,
         5.52011371e-01,  1.46496883e-02,  6.63944483e-01,
         1.22757435e+00, -2.52188057e-01,  6.42819881e-01,
         2.77322419e-02, -1.18902460e-01,  1.02802061e-01,
         5.42315364e-01,  8.82821679e-01, -2.67226640e-02,
         7.28331923e-01,  2.82236654e-02,  4.95435387e-01,
        -5.30955851e-01, -4.04368490e-01,  7.11006485e-03,
        -5.65777779e-01,  4.72494721e-01, -1.76162586e-01,
         7.12293107e-03,  4.37758900e-02,  2.91938949e-02,
        -2.73207754e-01,  3.01866472e-01, -1.47498798e+00,
        -3.33720744e-01, -2.23382413e-02,  4.27209735e-01,
         5.28675139e-01, -5.08864343e-01,  4.18957949e-01,
        -1.15421212e+00, -2.91803002e-01, -3.26780453e-02,
         1.98940724e-01],
       [-1.67241186e-01,  3.35260540e-01, -1.61620360e-02,
        -3.88171643e-01, -4.73226001e-03,  2.26453498e-01,
         2.79928446e-01,  1.09545119e-01, -5.71766645e-02,
        -2.81228451e-03, -3.57031256e-01,  4.88198502e-03,
        -9.96120125e-02, -4.91956472e-02, -1.66362897e-01,
         9.32711065e-02,  2.46579070e-02,  3.24424505e-01,
         3.65127325e-01, -1.59364387e-01,  3.69353220e-02,
         1.56558916e-01, -1.43866032e-01,  1.07607834e-01,
         2.97682106e-01,  2.38801405e-01, -1.55904859e-01,
        -3.46647725e-02, -6.24950677e-02,  2.62039781e-01,
         3.56306940e-01,  1.73436016e-01, -2.97556426e-02,
         3.37757289e-01,  1.42380342e-01, -1.30756930e-01,
        -6.17457703e-02, -2.53858157e-02, -4.16825891e-01,
         1.54381916e-01,  1.01508886e-01,  1.42822012e-01,
         7.80137023e-03, -2.36102678e-02, -7.78722912e-02,
         4.74099725e-01,  8.99325907e-02,  4.26304340e-02,
        -1.60583064e-01, -4.65966732e-05, -1.79804325e-01,
         2.11983517e-01,  4.75551095e-03, -1.18626975e-01,
        -1.03960596e-01,  1.07443407e-01, -4.25814949e-02,
         2.07457855e-01],
       [-2.85868526e-01, -1.61868095e-01,  3.47994315e-03,
        -3.97377491e-01, -4.72045913e-02, -7.64998317e-01,
        -3.65402430e-01,  6.50922880e-02,  8.60416889e-02,
        -2.87088975e-02, -2.82906312e-02,  2.33813133e-02,
        -5.96906364e-01, -4.14873138e-02,  2.10221689e-02,
        -4.84321527e-02, -1.49948493e-01,  8.21863338e-02,
         4.61846963e-02, -1.14908658e-01,  7.05531478e-01,
        -5.30856907e-01, -3.05476576e-01,  5.16152263e-01,
        -4.60333705e-01, -1.13649689e-01,  3.35331917e-01,
         3.30964811e-02,  1.33476490e-02,  4.77791935e-01,
         1.30338237e-01,  8.10296237e-01, -5.63240387e-02,
        -2.67325073e-01,  5.37533224e-01, -4.46140528e-01,
         9.33669060e-02, -2.02123411e-02,  1.64779305e-01,
         6.68505847e-01, -3.57119322e-01,  9.99240726e-02,
         3.70233059e-02, -4.86708358e-02, -1.87543809e-01,
         5.63492715e-01, -2.97488958e-01, -2.47407481e-01,
        -3.00475389e-01, -4.09211479e-02, -5.01332164e-01,
        -8.83442387e-02, -5.78137487e-02,  2.10344955e-01,
        -1.99634805e-01, -2.77651191e-01, -3.99058461e-02,
        -3.87141444e-02],
       [-1.25653997e-01, -1.38384417e-01, -3.54842544e-02,
        -2.15774059e-01,  2.22174102e-03,  5.22067249e-01,
         6.39851034e-01, -2.19101101e-01,  3.06427270e-01,
        -3.38288466e-03,  2.98536066e-02,  9.94617771e-03,
         1.94672137e-01,  4.66524698e-02, -9.44773316e-01,
         3.97834539e-01,  2.57479042e-01,  3.47466648e-01,
         3.50483716e-01, -3.19702357e-01, -2.23505497e+00,
        -9.60431397e-02,  2.11892247e-01,  2.46254593e-01,
        -8.82411748e-02, -9.91764516e-02, -3.42940032e-01,
         1.49879567e-02,  2.59150326e-01,  2.19604477e-01,
         9.12439823e-03, -1.89528406e-01, -9.29364562e-03,
        -3.05060565e-01,  8.35443735e-01, -4.44931723e-02,
         3.30552794e-02, -3.22761863e-01,  3.93140875e-02,
         2.86957324e-01,  6.99533224e-01, -2.65331805e-01,
        -1.46718044e-02, -2.72641983e-02,  1.22429729e+00,
        -1.00973099e-01,  2.41275594e-01, -9.70907092e-01,
         2.14363374e-02, -7.65155852e-02,  3.27864110e-01,
        -1.74898699e-01, -9.19589773e-02,  5.55945575e-01,
         1.67758390e-01,  3.60143751e-01, -1.08716981e-02,
        -1.26396403e-01],
       [-8.68122101e-01, -2.43081236e+00, -6.25541955e-02,
        -1.11269033e+00,  2.71618962e-02, -1.57334161e+00,
        -1.85698390e+00, -9.21883464e-01,  1.89748675e-01,
        -1.53300064e-02, -1.55745780e+00,  2.35078968e-02,
         1.20806396e+00,  4.22242992e-02, -2.87255734e-01,
        -2.57409006e-01,  4.57612544e-01, -1.08206682e-01,
        -5.67553818e-01, -1.06358552e+00, -6.25292897e-01,
        -1.47745585e+00, -3.54731351e-01, -8.09263512e-02,
        -1.60907352e+00, -1.04409230e+00, -1.45618641e+00,
         3.32269408e-02, -2.11396027e+00, -1.18420169e-01,
        -6.85621984e-03,  5.64038277e-01, -5.16903168e-03,
        -1.06786704e+00, -8.22090030e-01, -1.24834681e+00,
         1.83600569e+00, -3.69520843e-01, -2.36893463e+00,
        -7.39803135e-01, -8.48289311e-01, -1.13056004e+00,
         1.61353163e-02, -2.57316381e-02, -9.71039891e-01,
        -2.19992208e+00, -1.14062738e+00, -4.58803698e-02,
         1.88439488e+00,  7.79355271e-03, -1.61111221e-01,
         1.78716362e-01, -2.21474171e+00, -9.78240445e-02,
        -3.05330217e-01, -5.16223967e-01,  2.97266468e-02,
        -5.52129626e-01],
       [-1.13966167e+00, -2.49946237e+00, -2.28748750e-02,
        -2.15257096e+00,  4.26397212e-02,  7.15000778e-02,
        -6.82554066e-01, -1.39647257e+00,  1.37167323e+00,
        -6.55822977e-02, -1.39278328e+00,  3.30295675e-02,
         1.24971461e+00,  4.44259495e-03,  9.26032662e-01,
         4.73214507e-01,  9.57901955e-01, -1.56906474e+00,
        -1.53885412e+00,  1.20954216e+00,  1.45053089e+00,
        -2.65213871e+00,  6.49676561e-01,  5.95288634e-01,
        -1.29136658e+00, -2.41963243e+00,  3.17041010e-01,
         5.95589727e-03, -1.73002529e+00, -9.39601183e-01,
        -1.05033362e+00, -5.46284616e-01,  4.01109867e-02,
        -1.86524534e+00,  3.05947345e-02, -2.04150724e+00,
         1.55040944e+00,  1.43321013e+00, -2.16890883e+00,
         2.41955996e-01,  4.62298423e-01, -2.37700677e+00,
         2.54078582e-02,  2.82995291e-02,  1.18986094e+00,
        -2.03344226e+00, -1.11558676e+00,  3.53566736e-01,
         1.27443480e+00, -6.62316978e-02,  3.82689774e-01,
        -1.71340525e+00, -1.92784357e+00,  8.92499208e-01,
        -1.71745968e+00,  1.16403472e+00, -5.68589121e-02,
        -1.98482466e+00],
       [-2.49560833e+00, -5.86159706e+00, -4.82682921e-02,
        -2.85911226e+00,  3.22862305e-02,  6.01337373e-01,
         2.03390326e-02, -4.63823462e+00,  1.21493411e+00,
         4.78713587e-02, -3.77554274e+00,  2.81583145e-02,
        -3.01123053e-01,  5.51829487e-03,  1.59759402e+00,
        -1.15782879e-02,  1.44922030e+00, -4.76522970e+00,
        -4.21435022e+00,  2.98594385e-01,  8.67589772e-01,
        -5.05185699e+00,  1.14321768e+00,  7.84079790e-01,
        -1.11070502e+00, -1.00087662e+01, -2.54583454e+00,
        -5.82890585e-03, -1.90686667e+00, -3.55758286e+00,
        -8.49146903e-01,  2.06957504e-01,  2.46449523e-02,
        -3.68979311e+00,  5.28146446e-01, -4.66458464e+00,
         1.60982060e+00,  6.68419063e-01, -6.71970558e+00,
         6.19365036e-01, -5.94286442e-01, -3.51535702e+00,
        -5.00615574e-02,  4.95767817e-02, -2.28295363e-02,
        -5.84633112e+00, -5.28116941e+00,  9.34296995e-02,
         4.53704536e-01, -5.39950207e-02, -1.89509392e+00,
        -3.40336061e+00, -1.31805897e+00, -4.05291706e-01,
        -2.59310579e+00,  9.62405503e-01,  5.24401069e-02,
        -4.46894503e+00],
       [-6.40237927e-01, -1.65783584e+00, -1.00098718e-02,
        -5.70552230e-01,  1.11885611e-02, -1.49692225e+00,
        -1.96019471e+00, -2.96338534e+00, -1.79142153e+00,
         1.41436392e-02, -9.88035321e-01,  2.28422927e-03,
         5.33619463e-01,  4.77588214e-02, -1.02408338e+00,
         9.15764809e-01, -1.12140298e+00, -2.74459767e+00,
        -5.22424459e-01, -6.56597853e-01, -9.24108446e-01,
        -1.09824336e+00,  3.58926281e-02,  5.20040512e-01,
        -3.52886081e-01, -4.53670788e+00, -1.95180404e+00,
        -1.59740336e-02, -2.54050112e+00, -1.38183391e+00,
         1.42129630e-01, -1.08698976e+00, -2.35078279e-02,
        -1.82549894e+00,  1.71409175e-01,  2.47553751e-01,
         1.61895290e-01, -8.12249124e-01, -3.11296320e+00,
         5.14889419e-01,  2.45944738e-01,  7.46444523e-01,
        -4.73669656e-02, -1.43936248e-02, -1.22714663e+00,
        -2.20489883e+00, -3.07219648e+00, -2.77066171e-01,
        -3.50411773e-01, -4.58898731e-02,  7.32584000e-02,
        -9.72632915e-02, -7.20609305e-03,  3.65807980e-01,
         8.07523310e-01, -6.13089383e-01, -2.61633489e-02,
        -7.37931609e-01],
       [-1.93221331e+00, -3.77589297e+00,  3.09266206e-02,
        -2.07709169e+00, -1.65518243e-02, -6.58520997e-01,
        -1.13038099e+00, -3.69079661e+00, -6.08124971e-01,
        -2.90509127e-02, -2.67670727e+00,  9.34225609e-05,
         3.04832131e-01, -4.79888208e-02,  6.53033376e-01,
         3.89118910e-01,  2.23321944e-01, -4.35551167e+00,
        -3.06073284e+00,  3.72472644e-01,  1.33378223e-01,
        -3.20022273e+00,  7.19450951e-01,  1.31690729e+00,
        -8.39006126e-01, -7.46256542e+00, -2.04470778e+00,
        -1.43578872e-02, -2.41554928e+00, -3.97033906e+00,
        -1.02885354e+00, -8.27933073e-01, -6.44781590e-02,
        -3.45630693e+00,  3.43621343e-01, -2.15736866e+00,
         6.54577851e-01,  3.59942675e-01, -5.87814760e+00,
         6.93092465e-01, -1.10417843e-01, -1.51629615e+00,
        -9.95671935e-03,  1.15070790e-02, -7.64041305e-01,
        -4.63863707e+00, -4.96684027e+00, -4.79702987e-02,
         4.08817768e-01, -8.46875645e-03, -3.61862481e-01,
        -8.65430772e-01, -6.14414275e-01,  3.91716659e-01,
        -9.85369027e-01,  3.46760392e-01, -4.55440804e-02,
        -3.28297925e+00],
       [ 1.39498990e-02,  1.32940575e-01, -1.97978672e-02,
        -2.26646606e-02, -3.13955322e-02,  8.06936994e-02,
         1.87849075e-01,  4.89775717e-01,  5.24211764e-01,
         3.89801078e-02,  1.71409443e-01,  3.34692709e-02,
        -1.25468317e-02,  3.51805128e-02,  7.96410888e-02,
        -5.95167994e-01,  3.42189401e-01, -1.54026166e-01,
         3.05879265e-01, -4.48807240e-01,  2.18397811e-01,
        -2.04638794e-01,  8.20736587e-02, -1.74928457e-01,
        -4.52724695e-01, -7.54269361e-02, -2.53366679e-01,
        -4.56648469e-02, -9.26172957e-02,  8.48756507e-02,
        -3.72063816e-02, -6.49717569e-01, -1.35312062e-02,
         2.00182453e-01, -1.07752666e-01,  9.47129354e-03,
        -3.06121320e-01, -1.31190866e-01, -3.53233308e-01,
        -2.35043943e-01, -4.49776560e-01,  1.92428112e-01,
        -3.51296226e-03, -1.61875412e-03,  1.22723490e-01,
        -1.00089826e-01,  3.16309214e-01,  1.21060550e-01,
        -2.59029806e-01,  2.29351912e-02, -5.26132703e-01,
         1.06453955e-01, -4.32184428e-01,  3.48858139e-03,
        -2.11541429e-01, -3.91233385e-01, -1.13296518e-02,
         1.90762412e-02],
       [-2.76978742e-02, -1.76811308e-01, -9.18650255e-03,
        -5.79271391e-02, -2.13350654e-02, -7.85263553e-02,
         1.08822115e-01, -3.91568094e-02, -1.90344229e-01,
         7.41300546e-03, -3.46715957e-01,  1.41491962e-03,
        -9.71715808e-01,  4.04671170e-02, -5.30731343e-02,
         3.26245070e-01,  5.28726764e-02,  1.24868035e-01,
        -7.61074647e-02,  2.23593116e-01, -5.20037003e-02,
         5.06743193e-01, -1.15812056e-01, -1.39419883e-01,
         1.82806998e-01, -6.41115233e-02, -2.56257117e-01,
        -1.16774812e-02, -1.05063617e+00,  6.51066378e-02,
        -2.13799477e-01,  4.08630311e-01, -3.35241072e-02,
         1.31058082e-01, -3.05798709e-01,  1.23001270e-01,
        -1.42984077e-01,  4.11196761e-02, -7.65305683e-02,
        -2.27950186e-01, -2.27587685e-01, -1.27195388e-01,
         4.04988825e-02, -2.59515997e-02, -7.90068954e-02,
         3.10091764e-01,  2.12210700e-01, -1.70548514e-01,
         1.84989050e-01,  3.30252796e-02,  3.47131461e-01,
        -1.28500804e-01, -2.64809668e-01, -1.75756991e-01,
         1.01904683e-01,  2.63996460e-02,  7.69091258e-03,
        -2.06412319e-02],
       [-8.68458152e-02, -1.30720079e-01,  1.46346455e-02,
        -7.82666504e-02, -1.69922654e-02,  1.08919919e-01,
         3.72030467e-01, -1.01019228e+00, -1.75924748e-01,
        -3.50913443e-02,  7.21034333e-02, -2.82947179e-02,
         3.19149345e-01, -9.92346555e-04, -4.67006229e-02,
        -1.11652792e-01, -5.81211857e-02,  2.01482885e-02,
        -5.51470108e-02, -8.27961415e-02,  6.65877983e-02,
        -8.75793174e-02, -1.11655094e-01, -8.48894790e-02,
         8.92502367e-02,  1.97630897e-01, -2.94316858e-01,
        -1.46361366e-02,  9.63942893e-03,  1.53605908e-01,
         5.02508879e-02, -3.40071738e-01, -2.95876395e-02,
         3.33177252e-03,  3.27781171e-01, -4.57316816e-01,
         3.57050844e-03, -6.34240406e-03,  1.53663516e-01,
        -2.03547671e-01, -2.92706728e-01,  2.15334632e-02,
        -4.71390262e-02, -4.47055362e-02, -1.28130555e-01,
        -2.04855472e-01, -2.38817841e-01, -8.31876516e-01,
        -1.23045719e+00, -2.59754900e-02, -6.89034939e-01,
        -3.37706953e-02,  3.23461294e-01, -8.23891982e-02,
         2.39960372e-01,  1.60515606e-01,  1.32631650e-03,
        -7.72904456e-02],
       [ 8.79674405e-02,  1.05803996e-01, -2.10443279e-03,
         3.91771317e-01,  2.71982234e-02,  2.42219239e-01,
        -2.21580923e-01, -4.71953340e-02, -2.26562191e-02,
        -3.70603353e-02,  4.23096977e-02, -4.50583212e-02,
        -1.16969004e-01,  3.52372639e-02,  6.56403452e-02,
         1.49458691e-01, -3.71961683e-01,  8.10071751e-02,
        -1.25859693e-01, -1.21658266e-01,  1.49167550e-03,
         3.34724523e-02, -5.96708246e-02,  2.50061303e-01,
         3.13804358e-01, -7.12841451e-02,  2.40542620e-01,
        -1.48018450e-03,  1.61582187e-01, -2.25465775e-01,
         8.62395763e-02,  2.82820165e-01,  3.09988600e-03,
        -1.87601820e-01, -4.72048707e-02,  7.41967037e-02,
         9.50561538e-02, -4.54981744e-01,  9.10893604e-02,
         1.58569306e-01,  2.08523944e-01, -5.38451076e-01,
        -2.26811897e-02,  9.67838615e-03, -1.29250437e-03,
        -1.13659851e-01, -6.75893784e-01,  3.17534119e-01,
         1.31011680e-01, -4.87216469e-03,  2.65688449e-01,
        -5.22301137e-01, -4.33941662e-01,  1.22970954e-01,
         1.36856318e-01, -7.86725804e-03,  4.18374687e-03,
         1.02156326e-01],
       [ 2.06594169e-02, -2.27796227e-01, -4.73879091e-02,
         1.44503862e-01, -3.89343617e-03,  2.31492389e-02,
        -4.53635126e-01, -1.89329479e-02, -7.73023069e-02,
         1.94939263e-02, -4.39260721e-01, -4.55548279e-02,
        -4.82616238e-02,  5.23281097e-03,  3.30615252e-01,
        -2.19659209e-01,  2.99315244e-01,  4.98699099e-02,
        -2.11653542e-02,  3.00199836e-01, -8.05581063e-02,
         6.70988560e-02, -5.03817856e-01, -4.88209069e-01,
         1.63063437e-01,  3.25877853e-02, -1.61981538e-01,
         2.42842771e-02, -6.62635207e-01, -4.76561375e-02,
         1.04433671e-01, -3.51185322e-01, -1.16306990e-02,
        -1.55729085e-01, -3.71479958e-01,  3.58135588e-02,
        -3.04159187e-02, -1.86870858e-01,  1.77855268e-01,
         2.47046635e-01, -5.19713201e-02,  1.44893765e-01,
        -3.97797711e-02, -6.57697767e-03, -9.22544301e-02,
         6.04797117e-02, -7.11328924e-01,  8.80292580e-02,
         4.45774347e-02, -2.35451832e-02, -1.30017996e-01,
         2.41339803e-01, -4.10682559e-02,  2.99678355e-01,
         6.88971952e-02, -1.63451135e-01,  5.38499467e-03,
        -2.29948819e-01],
       [-1.14607356e-01,  2.16767713e-01, -2.08770130e-02,
        -2.32330233e-01, -4.38756011e-02,  3.65103260e-02,
        -1.11771703e-01, -3.40377301e-01,  2.90216774e-01,
        -7.63572985e-03, -8.23994756e-01, -9.09695774e-03,
         1.62377387e-01,  1.56087764e-02,  4.14186120e-02,
         1.72896534e-01, -2.30938494e-01, -4.28910822e-01,
         7.25446567e-02,  2.78270066e-01, -1.12707652e-01,
        -3.42274249e-01,  3.35366607e-01,  3.23958278e-01,
         9.96841043e-02, -2.45287299e-01,  2.37241954e-01,
         1.26101114e-02, -1.56512499e-01,  2.72095203e-01,
        -1.41960546e-01, -1.98736727e-01, -4.90497835e-02,
        -3.56035829e-01,  7.00614080e-02, -1.30487278e-01,
         2.33521853e-02,  1.47951707e-01, -8.42723966e-01,
         4.18774337e-01,  4.31720883e-01, -5.53086326e-02,
         3.87903489e-02,  2.91626733e-02, -3.37122381e-01,
         1.50708124e-01, -5.37169576e-01,  2.42964134e-01,
         3.66644442e-01,  6.01018779e-03,  2.17296645e-01,
         2.44768001e-02, -3.97176087e-01, -1.21150948e-01,
        -1.71739250e-01, -1.55715838e-01,  4.22391556e-02,
         5.56254536e-02],
       [-4.36969809e-02, -8.66173506e-02,  2.57030781e-02,
        -3.46814185e-01, -4.97611165e-02, -2.32672155e-01,
        -7.19783232e-02, -4.08143014e-01, -2.47683480e-01,
         6.36437302e-03,  3.62773985e-01, -2.65120622e-02,
         7.17748255e-02, -1.90856699e-02,  1.23311430e-01,
        -1.47134736e-01, -5.11965826e-02, -6.25840724e-01,
        -2.58218143e-02,  3.57239135e-02, -2.43973862e-02,
        -4.01510932e-02, -3.87797922e-01,  1.03023343e-01,
        -7.16882527e-01, -3.68656904e-01,  2.49217838e-01,
         1.44003071e-02,  2.78963715e-01, -3.35712522e-01,
         1.73472941e-01, -1.07537605e-01, -3.50452773e-02,
        -1.70667320e-01, -1.25107265e+00,  1.95231847e-02,
        -2.62413681e-01,  9.09215733e-02, -1.19149819e-01,
        -1.14369214e-01, -2.12279066e-01, -4.19147193e-01,
        -2.99749132e-02,  1.90963726e-02,  4.33722921e-02,
        -1.02592039e+00,  3.16676795e-01, -4.03385460e-01,
        -3.22998464e-01,  2.07657330e-02, -3.02443326e-01,
         1.72761008e-02,  4.18016970e-01, -8.92651558e-01,
        -4.12011817e-02,  1.03976406e-01, -4.87078633e-03,
        -4.72991139e-01],
       [-1.06143005e-01,  1.02721013e-01,  4.34899665e-02,
        -3.84623915e-01, -4.03825268e-02, -2.70668358e-01,
        -1.22104459e-01, -5.08497596e-01,  6.29048496e-02,
         1.25984717e-02,  2.03175202e-01, -1.48415565e-04,
         8.10132325e-02,  8.49903747e-03,  8.42048898e-02,
         6.32574782e-02, -2.73493499e-01, -7.23270893e-01,
        -8.73854151e-04,  2.61955410e-01, -9.86919105e-02,
        -8.51862654e-02,  1.34006351e-01,  2.67440498e-01,
        -3.35084319e-01, -3.69109213e-01,  3.59347284e-01,
         9.31461900e-03,  1.40060782e-01, -3.47892544e-03,
         4.92437333e-02, -2.11167783e-01,  8.52734409e-03,
        -3.57580185e-01, -2.95720071e-01, -5.69001921e-02,
        -1.10788748e-01,  1.30860597e-01, -2.35166773e-01,
         1.68065876e-01,  2.52257884e-01, -2.73756713e-01,
        -3.12004220e-02,  1.63762812e-02, -4.17759046e-02,
        -2.74059847e-02,  1.00029364e-01,  5.85288703e-02,
         6.91545904e-02, -1.36036810e-03, -1.35498062e-01,
         2.70169675e-02,  2.78300285e-01, -4.67615992e-01,
        -1.06611185e-01, -1.00067459e-01, -3.22638080e-02,
        -9.16211307e-02],
       [ 5.70059940e-02,  2.96740085e-01, -3.20516601e-02,
         3.10219377e-01, -1.14874858e-02, -2.10956126e-01,
         2.73855589e-02, -3.03602010e-01,  2.22840354e-01,
        -2.71319300e-02, -9.72770691e-01,  2.74611767e-02,
         2.47137219e-01, -4.70206626e-02, -3.79578024e-01,
        -1.10713387e+00,  5.40934578e-02, -1.44074306e-01,
         1.35715231e-01,  3.62875499e-02,  1.66063026e-01,
         3.14996064e-01, -6.52643800e-01, -2.11573943e-01,
         5.91130555e-01, -1.17285527e-01,  3.86631370e-01,
        -1.10732391e-03,  2.93088347e-01, -7.42520332e-01,
        -9.05319303e-02, -3.78605366e-01,  4.22334224e-02,
         2.86647201e-01,  4.27762792e-02,  2.17093930e-01,
         2.63993964e-02,  1.94244217e-02, -7.53379613e-02,
        -9.01417196e-01, -3.88557971e-01, -3.75352710e-01,
        -2.05520038e-02, -2.15901099e-02, -8.14647786e-03,
        -2.56852712e-02, -3.48204672e-01,  7.99952626e-01,
         6.90693557e-02, -5.76709025e-02,  3.82599026e-01,
         1.34419948e-01,  3.16301465e-01,  5.52518308e-01,
         2.04820000e-02,  1.78685546e-01,  1.52253294e-02,
        -2.89578050e-01],
       [-2.26942748e-02, -1.46625072e-01, -3.84010226e-02,
        -2.17116177e-01, -1.51445447e-02,  4.58699584e-01,
        -1.89504512e-02, -4.22243148e-01, -5.04866123e-01,
        -2.40533855e-02,  1.89892933e-01,  2.00614464e-02,
        -4.81912494e-02, -2.17555407e-02, -5.84136248e-01,
         4.16119963e-01,  5.22355616e-01,  6.15979917e-02,
        -4.44312394e-01, -3.26154947e-01, -1.72904104e-01,
        -1.35909975e-01, -1.91743955e-01,  1.21920206e-01,
         4.77030985e-02, -1.40521288e-01, -2.50337899e-01,
         4.01662253e-02, -2.06509900e+00,  2.53846228e-01,
         1.02353491e-01, -7.74768591e-02, -3.00843082e-02,
         5.97508959e-02,  2.09519252e-01, -1.45569891e-01,
        -1.04580939e+00, -1.05210376e+00, -1.19152121e-01,
         3.60747039e-01, -4.60983114e-03, -2.56927274e-02,
        -1.15763601e-02, -1.21554814e-03, -3.61321568e-01,
        -1.33093372e-01, -1.65140137e-01,  3.64346802e-01,
        -5.98559201e-01, -4.61003557e-02, -3.07578087e-01,
        -5.59897065e-01,  1.12697922e-01, -1.16485512e+00,
        -1.05501316e-01, -6.12445772e-01, -4.22671884e-02,
        -1.13413103e-01],
       [-6.07944429e-02, -9.65104550e-02, -3.73429134e-02,
        -6.15702450e-01,  5.83797647e-03, -4.34698641e-01,
         1.25044063e-01, -1.34073853e-01,  1.49363101e-01,
         2.63740290e-02, -4.00250107e-02, -3.94469462e-02,
        -6.51820540e-01, -3.55555043e-02, -1.30054150e-02,
         9.07765999e-02, -4.68719661e-01, -2.68906236e-01,
        -1.04798591e-02, -1.00519463e-01,  1.52456030e-01,
        -4.45202440e-02, -5.07924497e-01, -7.19972074e-01,
         2.33240470e-01,  1.80558607e-01, -1.45240098e-01,
         4.84293438e-02,  1.22843854e-01,  2.57215023e-01,
         3.19234520e-01,  6.32465243e-01, -6.88932911e-02,
        -3.14196914e-01, -5.40886939e-01,  1.11211434e-01,
         6.16371095e-01, -1.84306130e-01,  1.74247578e-01,
        -3.43437612e-01, -4.64451849e-01,  2.30989888e-01,
         1.00867245e-02,  1.59679707e-02, -2.56973654e-01,
         4.11257520e-02,  2.31166497e-01, -3.14019084e-01,
        -7.42549360e-01,  1.76625811e-02,  1.54949844e-01,
        -2.83150494e-01, -3.49593550e-01, -1.09470434e-01,
         2.35245973e-01,  2.19566345e-01,  1.15327714e-02,
         1.29994214e-01],
       [ 3.55065502e-02,  1.40314862e-01,  1.10834045e-02,
         1.56801090e-01,  3.79184783e-02,  5.49375974e-02,
         1.38219312e-01, -5.75918019e-01,  3.03662211e-01,
         4.19733524e-02,  2.90056825e-01, -4.83254567e-02,
         1.90335006e-01, -3.93794067e-02,  4.38839525e-01,
        -2.22076401e-01,  6.16617858e-01,  3.03513199e-01,
         3.53135243e-02,  3.98085229e-02,  5.65454289e-02,
        -5.83482720e-02, -3.52574140e-01,  4.10602510e-01,
        -6.05432868e-01, -9.29279719e-03, -1.64224684e-01,
        -4.08012159e-02, -1.74216628e-01, -2.50673164e-02,
        -4.12061691e-01, -1.60709321e+00, -3.96197028e-02,
        -1.39605030e-01, -3.45410883e-01, -2.77247697e-01,
        -2.87832886e-01, -1.48503199e-01,  3.60635333e-02,
        -1.56670988e-01,  2.43650347e-01,  1.49935201e-01,
        -9.19111725e-03,  2.36742981e-02, -2.27735993e-02,
        -2.53972322e-01,  3.39383274e-01, -5.81787944e-01,
         3.64363134e-01, -2.35344917e-02, -2.25372434e-01,
         3.47401768e-01, -1.57358557e-01, -3.96787137e-01,
        -2.52795517e-01, -3.30155909e-01, -3.80034335e-02,
        -2.44941086e-01],
       [-8.53955820e-02, -1.56642050e-01, -2.64669880e-02,
        -1.04787596e-01,  2.93754786e-02,  8.64197984e-02,
        -5.66016063e-02,  6.15978658e-01, -3.13005000e-01,
        -9.13206954e-03,  1.24929115e-01, -2.73332987e-02,
        -3.57400566e-01,  6.77965954e-03,  4.70060930e-02,
        -1.45750478e-01, -3.33750725e-01, -2.57947177e-01,
         2.04982340e-01,  2.50673294e-01, -1.06464431e-01,
         7.99797326e-02,  3.48031014e-01, -4.91960254e-03,
        -6.97919786e-01,  1.15325144e-02, -6.65649027e-02,
        -4.43819426e-02, -3.78387243e-01, -1.27474144e-01,
         5.97777851e-02, -1.59607396e-01, -4.48212121e-03,
        -4.30367030e-02,  1.82512283e-01, -8.54171440e-02,
        -3.41752797e-01,  4.70046937e-01, -1.16257379e-02,
         7.18476832e-01, -2.98364777e-02, -1.95107218e-02,
         4.14854735e-02,  1.39422258e-02,  1.90354332e-01,
         2.63359129e-01, -4.81259704e-01, -1.73385933e-01,
         2.87581831e-01, -1.44528309e-02, -2.12871328e-01,
        -2.40396336e-01, -2.28000209e-01,  1.15372753e-03,
         6.99411482e-02, -1.68631464e-01, -1.61176268e-02,
         3.04638237e-01],
       [-1.62754104e-01, -3.30720365e-01, -3.49047817e-02,
        -1.40614994e-03,  1.64350867e-02, -2.06068292e-01,
        -3.82300138e-01, -1.99175194e-01, -1.65754706e-02,
        -5.66040538e-02, -2.80340195e-01, -2.70761568e-02,
         3.76358889e-02, -2.85570864e-02,  4.95609678e-02,
        -1.92950249e-01, -3.10352836e-02, -1.48860678e-01,
        -1.94347531e-01,  1.49526730e-01, -8.93398598e-02,
         6.80011809e-02,  1.23762833e-02, -3.33016110e-03,
        -2.21031755e-01,  4.27201092e-02, -7.56618902e-02,
        -4.60534357e-02, -6.47174239e-01, -8.81797634e-03,
         1.11431286e-01, -3.45456302e-01,  2.39924435e-02,
         1.18326768e-01, -8.67694467e-02,  8.11151862e-02,
        -2.07377151e-01,  3.51181090e-01, -1.94778785e-01,
        -2.93614399e-02, -1.58059612e-01, -1.77521735e-01,
        -9.90204141e-03, -5.88661730e-02, -1.83617622e-01,
        -1.37345165e-01,  1.64967224e-01, -1.86162055e-01,
         3.06831390e-01, -4.78398390e-02, -4.78274338e-02,
        -2.34755963e-01, -3.37286532e-01, -1.03101790e-01,
        -2.13200375e-01, -5.56712002e-02, -5.30215651e-02,
        -1.91760417e-02],
       [-5.31414477e-03,  1.58001930e-01, -4.82025221e-02,
         6.74901903e-02,  1.16889570e-02, -2.07279414e-01,
        -1.07696421e-01,  7.09852949e-02, -1.03497677e-01,
         3.12178023e-02,  8.04081112e-02, -4.72316854e-02,
        -1.30408600e-01, -1.79056302e-02, -6.78908080e-02,
        -2.15491503e-01, -2.93983400e-01,  4.23209742e-02,
        -2.56579608e-01, -2.33579755e-01, -1.68582380e-01,
         3.13211977e-03, -2.51758426e-01, -2.10951492e-02,
        -1.29351273e-01, -3.98434699e-02, -3.51552695e-01,
         5.26423380e-03,  1.36544853e-01, -1.14219323e-01,
        -1.84606984e-01,  9.86726256e-04,  1.38216009e-02,
        -1.67982448e-02, -2.16261700e-01,  1.67717710e-01,
        -3.87512922e-01, -1.23017699e-01,  1.08460739e-01,
        -1.83149725e-01, -2.83055037e-01, -3.47250365e-02,
        -4.06565778e-02, -4.65289615e-02, -2.92070121e-01,
        -1.04808100e-01,  1.28971830e-01, -9.79922339e-02,
         2.31930371e-02,  2.43754452e-03,  6.71015382e-02,
         2.18382686e-01, -9.16842930e-03, -8.52379277e-02,
        -3.33900601e-01,  3.62176411e-02, -2.40905490e-02,
         2.14908183e-01],
       [ 1.85255092e-02,  3.17750797e-02,  2.86646280e-02,
        -1.43683240e-01, -4.56257239e-02, -9.82527062e-02,
        -5.73962212e-01, -7.86989480e-02,  8.13533515e-02,
        -9.25655290e-03, -2.03302115e-01, -2.80715548e-03,
         1.18661784e-01,  3.03433202e-02, -5.77682033e-02,
        -1.63979232e-01, -7.50567317e-01, -5.60867824e-02,
        -7.75913417e-01, -2.25832756e-03,  9.04730111e-02,
        -8.78057480e-02, -3.34070295e-01,  2.52778202e-01,
         1.86833665e-01,  3.36803347e-01,  4.46864158e-01,
        -2.96765566e-02, -3.59904975e-01,  4.63940799e-01,
         1.47850856e-01,  1.50972530e-01, -5.03675416e-02,
        -3.41750681e-01, -5.19632518e-01,  3.46422106e-01,
        -3.14347833e-01, -6.93091527e-02,  4.60042506e-01,
        -3.83300722e-01, -1.72876105e-01, -1.74634025e-01,
        -1.64007340e-02, -9.91878286e-03, -5.18493503e-02,
         2.87490398e-01,  1.30080730e-02, -3.86355102e-01,
         7.04837665e-02, -6.12805262e-02, -9.39213559e-02,
         4.50868867e-02,  1.56637311e-01,  1.92797869e-01,
        -4.28776890e-01, -4.68608923e-02,  3.64050157e-02,
         1.08564556e-01],
       [-7.05193132e-02, -5.30636966e-01,  3.76833715e-02,
         2.67220871e-03,  6.53719297e-03,  6.53269589e-01,
        -7.23197937e-01, -1.41885662e+00, -5.58372140e-01,
         3.95796970e-02,  3.05776536e-01,  2.89930254e-02,
         6.65899932e-01, -3.91093269e-02,  4.78472710e-02,
         2.45005012e-01, -4.25165854e-02,  2.70110339e-01,
        -1.50609598e-01,  2.54931509e-01, -3.28454047e-01,
        -8.81491303e-02,  1.37226567e-01, -1.34510500e-03,
         7.39204586e-01, -7.24047720e-02,  1.86075509e-01,
         1.90200843e-02, -1.08317602e+00,  9.98799264e-01,
         8.15159738e-01, -4.19097066e-01,  3.29134054e-02,
         2.55104274e-01, -2.64880210e-01, -3.09840143e-01,
         4.35908288e-01,  5.55263877e-01, -6.79889023e-01,
        -5.70263982e-01, -3.34669381e-01, -7.42994964e-01,
         1.44885406e-02, -2.85447408e-02, -4.05316919e-01,
        -2.44843766e-01,  6.79646909e-01, -2.25940093e-01,
        -7.16003701e-02, -3.08211111e-02,  2.46682968e-02,
         5.65619674e-03,  2.35674173e-01,  4.05719101e-01,
        -4.87769008e-01,  1.68481767e-01,  9.48645931e-04,
        -6.65864706e-01],
       [-1.49856182e-02,  1.31328389e-01, -3.83776799e-03,
         5.09418584e-02, -5.19269221e-02, -2.11234361e-01,
         1.39085263e-01,  1.27371922e-01, -4.02547121e-02,
        -2.90664453e-02, -1.43846832e-02, -3.89048196e-02,
        -2.35783160e-01, -4.18664105e-02, -1.50581822e-01,
        -3.08359433e-02, -2.57216662e-01, -4.89679053e-02,
         1.08879386e-03,  1.49544105e-01,  2.99328864e-02,
         7.57410750e-02, -1.25140548e-01, -3.70381325e-02,
         8.23930353e-02, -2.41809823e-02,  1.12474449e-01,
         1.16190314e-02,  2.48700529e-01, -3.95653039e-01,
        -1.72858372e-01,  1.10544682e-01, -6.84428215e-02,
        -1.67364329e-02,  1.12201236e-01,  1.66988820e-02,
        -2.83853292e-01, -2.27844447e-01,  2.76473314e-02,
        -4.20432091e-02,  4.06662188e-02,  1.78054899e-01,
        -1.47017306e-02,  3.11736669e-02,  7.45403916e-02,
         2.74479911e-02, -1.69126347e-01, -2.91182637e-01,
        -2.16276851e-02,  1.06635038e-02, -5.67947999e-02,
         1.47527486e-01,  4.40524966e-02,  1.35910898e-01,
        -3.30498107e-02,  6.69701695e-02,  2.03506034e-02,
         9.65963975e-02],
       [ 6.53437674e-02,  1.31658539e-01,  2.77974103e-02,
         2.26336852e-01, -4.75417003e-02,  5.47878742e-01,
        -1.09128878e-01, -4.30493951e-01,  7.01283477e-03,
         1.56824999e-02,  3.68058383e-01,  3.60996500e-02,
         4.64188755e-01,  3.46324109e-02,  7.78596848e-02,
         7.46598607e-03,  4.85035717e-01, -3.10885787e-01,
         1.27144650e-01, -2.18475983e-02,  1.59269851e-02,
         3.08188915e-01,  3.94618928e-01, -8.22433904e-02,
         2.17829034e-01,  1.53310314e-01, -1.07765920e-01,
        -3.35959084e-02, -5.11435568e-01,  3.29760402e-01,
         5.79047322e-01, -2.73292601e-01,  4.73826490e-02,
         1.16948865e-01,  1.45650521e-01, -6.80488199e-02,
         3.40807527e-01,  4.01337713e-01, -8.60278979e-02,
         2.03569420e-02,  1.76797822e-01, -8.57223645e-02,
        -1.00428592e-02, -3.86125259e-02, -2.03724876e-01,
        -2.11710669e-02,  1.56473234e-01, -2.09806994e-01,
         1.75476260e-02,  1.35980342e-02, -3.52025747e-01,
        -2.40644082e-01, -4.50555421e-02, -2.32807457e-01,
         1.28571272e-01,  2.12297812e-01, -1.19452067e-02,
        -2.05246568e-01],
       [ 2.49186456e-02, -1.14910126e-01, -5.31681813e-02,
         1.95999742e-01,  1.31484577e-02, -7.79928043e-02,
         1.05436012e-01, -3.09131891e-01, -2.49870360e-01,
        -4.72764522e-02,  1.33682057e-01,  2.29421444e-02,
         1.13410354e-01,  2.68438794e-02,  1.92421433e-02,
        -1.20624855e-01,  1.29402667e-01,  9.27547365e-02,
         2.31197271e-02, -1.66062146e-01, -4.81898636e-02,
        -1.64860472e-01,  1.46306619e-01, -1.48134045e-02,
         6.39536753e-02, -2.78536007e-02, -2.82032788e-01,
        -4.73402403e-02, -1.10001802e-01,  2.02528946e-02,
         2.71550059e-01, -1.00495189e-01, -2.95117740e-02,
         3.19064468e-01,  1.18425578e-01, -1.24513693e-01,
        -1.27898470e-01,  1.31839797e-01,  8.69667456e-02,
        -2.51662195e-01,  7.41172507e-02, -2.16726571e-01,
        -6.75994949e-03,  5.09882206e-03,  2.51397993e-02,
        -2.58943081e-01,  7.12198317e-02, -2.96136141e-01,
        -3.80631140e-03, -1.59516763e-02, -2.99519077e-02,
         2.89881557e-01,  9.37624052e-02, -2.04963788e-01,
        -3.81788105e-01,  2.16513455e-01, -2.44681407e-02,
         1.33900493e-01],
       [-1.47971530e-02, -1.98908776e-01, -2.68241148e-02,
        -3.13450336e-01,  1.74395014e-02, -5.94913065e-01,
         3.48042190e-01,  1.41028881e-01, -1.29576373e+00,
        -1.71334837e-02,  1.35868087e-01, -2.30094977e-02,
        -8.34697127e-01,  4.39603962e-02,  5.60925677e-02,
        -3.61329049e-01,  1.48217842e-01, -2.88004596e-02,
        -3.30657274e-01,  6.33391738e-01, -9.30450678e-01,
        -3.77859056e-01,  5.42466462e-01,  4.25341129e-01,
        -4.31488544e-01,  4.36700471e-02, -1.17955029e+00,
        -3.97905596e-02,  5.29693544e-01, -5.46819687e-01,
         2.03612540e-02, -6.71890497e-01,  3.10506616e-02,
         1.20677777e-01, -1.71461001e-01, -3.00620645e-01,
        -2.96388775e-01,  8.56608927e-01, -1.39448330e-01,
        -3.36023420e-01, -4.50798273e-02, -7.26541996e-01,
         9.69658047e-03,  3.35318968e-02,  1.88381910e-01,
        -1.74681097e-01,  5.15577614e-01, -3.47501427e-01,
         3.50576669e-01,  1.41502516e-02, -3.17964256e-01,
        -2.84629792e-01,  1.09450817e-02, -1.58598733e+00,
        -5.63814640e-01, -1.45132351e+00, -2.76003182e-02,
         8.70985389e-02],
       [-2.95641776e-02,  1.06074754e-02, -3.47263855e-03,
        -9.15214270e-02, -4.56543118e-02, -9.90884826e-02,
        -5.48766181e-02, -5.77666685e-02, -3.68891895e-01,
         1.06549561e-02, -3.59436274e-02, -5.35618588e-02,
         2.36084476e-01, -4.73169088e-02, -4.01907638e-02,
        -5.46423905e-02, -1.63645059e-01, -2.84262657e-01,
         6.48995936e-02,  4.54919226e-02, -2.46194191e-02,
        -7.38415420e-02,  8.70046206e-03,  1.18920185e-01,
        -2.39788726e-01, -1.89762581e-02, -1.04859613e-01,
         1.14769340e-02,  2.44089380e-01,  1.69576243e-01,
        -6.41265437e-02,  2.75613755e-01,  2.38381140e-02,
        -1.90159138e-02, -1.14097245e-01,  9.16248932e-02,
        -9.42574292e-02, -2.69004162e-02,  1.28577039e-01,
        -2.92655647e-01, -2.70792127e-01, -7.62465149e-02,
        -5.33302240e-02, -3.82978171e-02,  1.28219783e-01,
        -1.02811679e-01,  6.86192065e-02, -2.80147970e-01,
        -1.15951300e-01, -5.90943769e-02, -4.16891724e-02,
        -2.08584547e-01,  4.23826545e-01, -1.80989364e-03,
        -8.82904381e-02,  1.19480230e-01,  2.35079955e-02,
         4.82286103e-02],
       [-6.45621866e-02, -8.76028761e-02, -4.34295014e-02,
        -6.80249184e-02, -1.97930466e-02,  8.93977955e-02,
         7.83243701e-02,  1.83425788e-02, -8.71255398e-02,
        -1.35764359e-02,  1.26334935e-01, -4.11951393e-02,
        -4.24945243e-02, -1.78752765e-02, -8.02023560e-02,
        -1.02472760e-01, -2.87044570e-02, -3.85821089e-02,
        -1.20499030e-01,  1.04025654e-01, -1.85510591e-01,
        -3.49569581e-02, -7.28083029e-02,  6.04248643e-02,
         1.31442308e-01, -1.59058094e-01,  1.55446500e-01,
        -7.33752176e-03,  1.97961524e-01, -5.87250246e-03,
        -1.39896527e-01, -2.85496153e-02, -2.95137595e-02,
        -5.31677492e-02,  1.31252902e-02,  1.20155185e-01,
         1.13564178e-01, -7.77265206e-02, -1.59169257e-01,
         1.95114091e-01, -2.65891910e-01, -4.23544273e-02,
        -1.88369937e-02, -5.37682436e-02, -1.36557028e-01,
        -1.71488598e-01, -7.13216215e-02,  2.70087868e-02,
        -1.13313340e-01,  2.11010072e-02, -2.31158845e-02,
        -1.79320592e-02,  1.94941357e-01, -4.96655777e-02,
        -1.14938460e-01,  7.33606368e-02, -5.51669411e-02,
        -2.04719622e-02],
       [-1.39483035e-01,  3.79485078e-03,  2.43698657e-02,
        -1.74229145e-01,  1.81705889e-03, -3.51552933e-01,
         3.02612364e-01, -4.90636490e-02,  5.71151227e-02,
        -2.64029354e-02, -3.85758583e-03, -3.48982997e-02,
        -4.93550181e-01,  1.60921700e-02, -2.32084006e-01,
        -8.22087467e-01,  1.10099331e-01,  2.16216996e-01,
         3.61102931e-02,  2.49712303e-01, -1.43626127e-02,
        -2.99884640e-02, -1.15784585e+00,  2.22230449e-01,
        -1.15952529e-02, -1.32401753e-02, -2.71760356e-02,
         1.00385770e-02,  8.11970234e-02, -2.40784600e-01,
        -5.78017533e-01, -2.54834563e-01, -4.64314632e-02,
        -4.89811897e-02,  3.39697033e-01,  1.40769660e-01,
         2.38162413e-01, -7.08542168e-01,  5.05267195e-02,
         3.87852686e-03,  8.92110690e-02,  2.49641940e-01,
        -4.66626026e-02, -4.01582010e-02, -2.04397470e-01,
        -3.34705114e-02, -2.84078270e-01,  4.56672162e-02,
        -5.50194263e-01, -6.31753579e-02, -6.56154901e-02,
        -1.46000624e-01, -1.52592868e-01, -2.12362818e-02,
        -5.28401099e-02, -1.29384786e-01,  2.74013598e-02,
        -2.46848434e-01],
       [ 2.44926289e-02, -3.84193026e-02,  1.38563961e-02,
         4.78164554e-02, -9.92014818e-03,  6.07615896e-02,
         2.20327124e-01, -1.01769738e-01, -1.12937823e-01,
        -5.93485795e-02,  1.31361112e-01, -2.08183955e-02,
         1.90855622e-01, -4.95107658e-02, -8.31144527e-02,
         1.58394545e-01,  5.36328256e-02, -6.40866980e-02,
         5.05743846e-02,  1.08392335e-01,  2.97208410e-02,
         3.05405762e-02, -7.86343813e-02, -8.10178965e-02,
         1.46695629e-01,  1.48913544e-02,  1.23156406e-01,
        -3.97745743e-02,  6.76459745e-02,  1.37314778e-02,
         3.18673849e-02,  1.00584954e-01, -3.57413292e-02,
        -2.12595835e-01, -1.45995738e-02,  1.05810069e-01,
         1.64085589e-02,  5.61596677e-02, -1.40265018e-01,
         2.05142200e-01, -1.17366716e-01, -1.42020538e-01,
        -1.78149168e-03, -2.10969988e-03, -1.93632662e-01,
        -6.82944283e-02, -7.48812109e-02,  5.73753640e-02,
         3.23957577e-02, -6.55823052e-02, -8.64711851e-02,
        -6.32596388e-02,  2.63042189e-02, -9.63756666e-02,
         9.06357020e-02,  1.25237867e-01, -5.61521500e-02,
        -1.62362441e-01],
       [-7.12689161e-02, -1.43416464e-01,  1.23466300e-02,
        -2.13942334e-01, -2.07810048e-02,  1.64697319e-01,
        -6.53554738e-01,  1.35151073e-02, -6.79676235e-02,
        -3.74439061e-02,  2.12610915e-01, -5.02535626e-02,
         1.38673201e-01,  1.60076469e-03,  2.64228404e-01,
         1.73398852e-01, -1.09488852e-01, -1.33827955e-01,
         2.57257861e-03, -4.46696617e-02, -1.83067784e-01,
         2.95096457e-01,  7.38264024e-02,  1.20565958e-01,
        -1.83871940e-01,  2.47382894e-02, -1.18968291e-02,
        -3.79676223e-02, -2.72688091e-01,  1.95647329e-01,
         7.74237588e-02, -2.10928455e-01, -2.78639309e-02,
         7.05656782e-02, -1.40139326e-01,  4.37231883e-02,
         1.26368687e-01, -4.55337800e-02, -8.49840939e-02,
         8.29020515e-02, -2.80437786e-02, -2.20925748e-01,
        -3.75253186e-02, -4.58530374e-02,  2.35180333e-01,
        -2.02339683e-02, -5.14061689e-01, -3.84806818e-03,
         3.81021015e-02, -4.62262565e-03, -2.68359315e-02,
         6.51812106e-02,  2.37713143e-01,  1.77636310e-01,
         2.06299484e-01, -2.21214555e-02, -3.71751264e-02,
        -3.99709553e-01],
       [-1.86131403e-01, -9.93368030e-02, -1.05444174e-02,
        -2.97470272e-01, -4.15766053e-02, -2.73230553e-01,
         3.19945216e-01, -1.83689207e-01,  6.01446331e-02,
         2.67642420e-02,  1.50058702e-01, -3.14595513e-02,
        -1.56218908e-03, -1.65176615e-02,  6.57744780e-02,
         1.91075027e-01, -7.05577135e-02, -2.91731030e-01,
         2.62488484e-01,  5.24109244e-01,  2.03106120e-01,
         5.12787141e-02,  1.68781057e-01, -1.24777611e-02,
        -2.16830254e-01, -1.25520080e-01, -1.94002822e-01,
        -3.17148343e-02,  8.66845483e-04,  1.64541110e-01,
         2.25802734e-01, -1.78403184e-01,  2.68149143e-03,
         3.01548034e-01, -2.58826643e-01, -4.37438369e-01,
         2.11310714e-01,  1.79837331e-01, -2.20561340e-01,
        -3.99927981e-02,  2.09956616e-01, -6.74106460e-03,
        -1.94513910e-02, -2.21571047e-02, -2.07058769e-02,
        -2.51195282e-01, -8.82431865e-02,  1.61085233e-01,
         1.19206481e-01, -3.75200398e-02,  2.72300959e-01,
        -8.42270851e-02,  1.46482438e-01, -1.62864983e-01,
        -3.34601492e-01, -4.91093136e-02,  3.30144800e-02,
        -9.51042920e-02],
       [-2.99311671e-02,  5.61408326e-03,  1.91540383e-02,
        -1.23773923e-03,  2.98702270e-02,  1.16882108e-01,
        -1.85191974e-01, -1.74269795e-01,  4.97473627e-01,
         2.07284160e-04, -2.37505645e-01,  9.98204108e-04,
        -2.75598586e-01,  2.38708518e-02,  3.95530500e-02,
        -2.46717900e-01, -5.58102071e-01,  2.15173662e-01,
         4.36020941e-02, -4.77976829e-01,  6.58566132e-02,
         4.20143129e-03,  1.87404856e-01, -1.21871591e-01,
        -1.48719043e-01,  7.61361495e-02,  2.76593685e-01,
        -4.85828407e-02, -1.53664008e-01,  3.21157038e-01,
        -4.81825545e-02, -1.99285865e-01,  7.63403159e-03,
         3.28302264e-01, -4.60227162e-01, -4.35950577e-01,
         3.39803696e-01, -5.03127761e-02, -8.64793658e-02,
        -8.34787712e-02, -1.53723657e-01, -2.25663036e-01,
        -2.38186419e-02,  3.68660279e-02,  3.17300588e-01,
        -1.05203696e-01,  2.48706430e-01, -4.91693139e-01,
        -2.92404771e-01, -2.56688315e-02, -8.99183080e-02,
        -1.77283108e-01, -5.82670152e-01,  5.42279370e-02,
         3.10596898e-02, -8.19662735e-02, -2.37086304e-02,
         2.64271587e-01],
       [ 1.23682991e-02, -2.22268682e-02, -2.80958526e-02,
        -2.41139811e-02,  2.16844231e-02,  9.89136472e-02,
         5.36119223e-01, -1.37902766e-01, -8.20886314e-01,
        -1.20465942e-02, -1.12070844e-01,  1.66072771e-02,
         2.83932816e-02, -4.99617942e-02,  5.79396605e-01,
         6.86437562e-02,  4.07034844e-01, -4.87366728e-02,
        -2.91434433e-02,  3.17945957e-01,  1.38218343e-01,
        -1.99127346e-01,  2.19923124e-01,  3.26832533e-01,
         2.69990295e-01,  2.52289206e-01,  8.76005664e-02,
         1.08725801e-02, -9.81030464e-02, -3.77469242e-01,
        -5.56998909e-01, -5.81216663e-02, -3.66514586e-02,
         1.16901755e-01, -4.76510704e-01,  2.27354690e-01,
         2.44316101e-01, -8.21569264e-01, -5.84505260e-01,
         4.96343344e-01, -6.11613572e-01, -4.88969237e-01,
         3.44253927e-02,  5.25861047e-03,  1.29380777e-01,
        -2.40145266e-01, -2.37457573e-01,  2.04433069e-01,
         5.89125395e-01,  8.65750015e-03, -4.86293525e-01,
         2.86098927e-01,  3.14587176e-01, -3.23225781e-02,
        -1.70483381e-01,  6.52226731e-02, -1.09599950e-02,
         4.33110297e-01]], dtype=float32), array([-0.02450954, -0.01423815, -0.02377226,  0.03657588, -0.00598413,
        0.00724051, -0.01239711, -0.02856677,  0.06545994, -0.01802464,
        0.01929419, -0.00671341, -0.09205871,  0.        ,  0.06176   ,
       -0.03648562,  0.07263338, -0.05288499,  0.00120445,  0.05595109,
        0.0053098 ,  0.11216505, -0.03491797, -0.14211081, -0.02431065,
       -0.03900905, -0.11001227,  0.        , -0.09126487, -0.01048969,
       -0.03077898, -0.11139713, -0.00989399, -0.03050839, -0.13926668,
       -0.07735657, -0.1376664 , -0.13186075, -0.05177224,  0.00211105,
       -0.12788393, -0.05095665, -0.00958229, -0.01264701, -0.10963097,
       -0.06136005,  0.03267403, -0.04037949,  0.05401472, -0.02530129,
       -0.00741628, -0.0774731 , -0.0544119 , -0.06798971,  0.06038081,
       -0.13001062, -0.01807913, -0.04684363], dtype=float32), array([[ 2.24172464e-03, -2.46466547e-02, -2.41144616e-02,
         3.87721471e-02, -1.05369002e-01,  3.20158750e-02,
         4.31425571e-02, -1.88519701e-01, -4.78008986e-02,
        -4.52235714e-03,  3.42944637e-02,  5.21493331e-02,
         2.52398774e-02,  4.21575382e-02, -1.72298532e-02,
        -5.66487163e-02,  5.71787357e-02,  8.99644569e-02,
         1.91020332e-02, -6.30318224e-02, -2.19697338e-02,
        -2.15045542e-01, -1.20962774e-04,  1.09385764e-02,
         8.92892946e-03,  2.28185784e-02,  1.11288741e-01,
        -3.03978920e-02,  8.89628902e-02,  2.22626310e-02],
       [-2.17283502e-01, -4.82933968e-01,  4.88208950e-01,
         4.17748354e-02, -4.94209826e-01,  5.21804571e-01,
         4.27397996e-01, -5.65310657e-01, -4.10187133e-02,
        -2.24256013e-02, -4.90034878e-01,  1.91064216e-02,
        -7.55263686e-01, -8.00769746e-01,  4.16500479e-01,
         1.76692642e-02,  2.99764544e-01,  5.25687575e-01,
        -5.62150300e-01, -6.63828611e-01, -7.54707634e-01,
         2.01765582e-01, -8.50682259e-01, -4.83084798e-01,
        -1.88632950e-01,  3.26845914e-01,  8.39659050e-02,
        -7.74026990e-01,  4.92129803e-01, -8.42279196e-01],
       [ 2.72820164e-02,  8.74879118e-03, -2.46994421e-02,
         1.50246732e-02,  4.92943684e-03,  3.85325477e-02,
         3.87878455e-02, -2.15010392e-03, -1.30042927e-02,
         2.41286643e-02,  1.21321343e-03, -3.35075259e-02,
        -3.91275510e-02, -4.70005050e-02,  4.83892970e-02,
         3.72252911e-02,  3.42586674e-02, -4.36900444e-02,
         3.39594260e-02,  4.15189005e-02,  4.12601121e-02,
        -4.22578454e-02,  1.95745509e-02, -1.83217402e-03,
        -3.17303352e-02, -4.55665551e-02, -4.21341620e-02,
        -1.11205019e-02, -7.74926564e-04, -6.53982104e-04],
       [-7.81989098e-01,  2.10496843e-01,  2.17324093e-01,
         2.08928939e-02, -4.18531090e-01,  5.29636778e-02,
         4.50814255e-02, -3.20540696e-01, -7.19052330e-02,
        -5.48921824e-02, -4.83805776e-01, -1.40792981e-01,
        -5.51815689e-01, -7.81505108e-02,  7.92193636e-02,
        -5.64374030e-02,  1.23010583e-01, -1.78189378e-03,
        -6.42417431e-01, -2.40538210e-01, -5.72675645e-01,
        -1.07443368e+00, -4.14469123e-01, -1.69557706e-01,
         2.55266935e-01,  1.64485574e-01, -4.71083261e-02,
         1.74549013e-01,  2.87369806e-02, -1.74653217e-01],
       [ 1.42784715e-02,  3.48398983e-02, -3.37556824e-02,
         6.10189512e-03, -2.16228124e-02, -5.04054651e-02,
         1.71076693e-03,  2.32712720e-02, -4.78817374e-02,
        -9.73128155e-03,  5.06603299e-03,  1.32754240e-05,
         1.65556595e-02,  1.37816872e-02, -1.60296820e-02,
         2.73876581e-02, -2.88383737e-02,  4.23367694e-02,
         8.09684303e-03,  1.89744048e-02,  3.25257182e-02,
        -3.55482921e-02, -3.77411116e-03, -1.95711479e-02,
         4.28369083e-02,  2.14110035e-02,  4.11533229e-02,
         2.34769727e-03, -4.79986751e-03,  2.34375503e-02],
       [ 5.27498424e-02,  4.92774606e-01,  2.89109379e-01,
        -2.44145766e-02,  3.66568655e-01,  4.81645137e-01,
         2.06206456e-01,  6.38042986e-01, -1.55186243e-02,
        -3.93618494e-02,  2.77910590e-01,  4.33948636e-01,
         3.74105982e-02,  7.85331964e-01,  8.89497697e-02,
        -7.81617314e-02,  1.26454964e-01,  3.36637378e-01,
        -2.79779315e-01, -1.13943599e-01,  2.41977330e-02,
         7.17428148e-01,  1.80398986e-01,  4.12854493e-01,
         1.88106045e-01,  7.98442215e-02,  1.82822838e-01,
         6.94424629e-01,  4.55549508e-01,  4.62922215e-01],
       [ 5.26706696e-01,  3.88429612e-01,  1.08195469e-01,
        -5.65601707e-01,  3.65263969e-01,  3.41233104e-01,
         3.89751285e-01,  1.72038317e-01, -3.25783193e-02,
        -6.04360327e-02,  3.57466191e-01,  3.85255218e-01,
         3.00644338e-01,  1.63367182e-01,  1.66117594e-01,
        -5.29775508e-02,  4.30504382e-01,  3.83361101e-01,
         5.59609592e-01,  1.46933749e-01,  3.72386992e-01,
         2.17134356e-01,  3.46432298e-01,  3.53617460e-01,
        -1.10224664e-01,  2.97298908e-01,  1.97476402e-01,
         6.83700666e-02,  4.65464860e-01,  2.63045169e-02],
       [ 8.05909812e-01,  4.09813017e-01,  8.19446862e-01,
        -4.17515278e-01, -7.28143990e-01,  3.68845910e-01,
         3.08531702e-01, -2.16185153e-01, -8.58144388e-02,
        -6.05265051e-02,  7.13851571e-01,  2.16683030e-01,
         7.05394506e-01,  3.33181262e-01,  1.24993026e-01,
         5.68530113e-02,  2.74705470e-01,  4.03467804e-01,
         6.62245214e-01,  4.60459799e-01,  3.17439079e-01,
        -3.63478839e-01,  3.91566813e-01, -7.94892490e-01,
        -1.42345324e-01,  2.78576583e-01,  3.86492848e-01,
         2.11222857e-01,  4.35695976e-01,  7.24104494e-02],
       [ 5.37655912e-02, -3.07568401e-01, -2.30974242e-01,
        -1.18961349e-01,  2.52773643e-01, -3.16174597e-01,
        -4.51361328e-01,  4.38985229e-02,  9.69328266e-03,
         1.18127670e-02, -2.19272867e-01, -2.37878457e-01,
        -7.28936344e-02, -9.84401926e-02, -1.39562941e+00,
        -7.26199597e-02, -5.30290961e-01, -5.13466835e-01,
         1.23105936e-01, -5.99670827e-01, -1.54381335e-01,
         3.01761776e-01, -3.70120525e-01,  1.69643432e-01,
        -1.40216187e-01, -3.75169128e-01,  1.67911649e-01,
        -2.78465509e-01, -1.88160479e-01, -1.04349256e-01],
       [-2.97628227e-03, -3.81250456e-02, -1.91780999e-02,
         4.39982153e-02, -5.07472940e-02,  1.28233864e-03,
        -4.36903834e-02,  1.70677844e-02,  3.10631935e-02,
        -2.66613793e-02, -6.09573610e-02,  1.95713323e-02,
        -1.86733942e-05,  1.73125900e-02, -1.41915213e-02,
        -1.86529756e-02,  2.96477471e-02, -2.07802965e-04,
        -5.66381365e-02, -1.35873770e-02, -3.90560590e-02,
         1.79877356e-02,  4.30371836e-02, -1.43137220e-02,
         4.25122902e-02, -1.58194769e-02,  2.22567306e-03,
         3.04833930e-02, -1.00218225e-02, -2.84895040e-02],
       [-1.16063511e+00, -4.80320424e-01,  1.87054768e-01,
        -4.16249067e-01, -2.31900617e-01, -3.84427607e-02,
         1.46966949e-02, -2.86274273e-02, -1.96852013e-02,
        -4.44861352e-02, -2.47376293e-01,  4.22943324e-01,
        -5.88526368e-01,  5.03394119e-02,  4.08060730e-01,
        -2.29376312e-02,  3.77824932e-01,  5.71517795e-02,
        -9.76196170e-01,  3.16561908e-01, -3.15999329e-01,
         1.95398331e-01, -4.71875928e-02, -6.05630755e-01,
        -8.28057677e-02,  3.56907606e-01, -3.46771002e-01,
        -6.85372576e-02,  6.10744059e-02, -3.95559430e-01],
       [ 3.48298401e-02, -2.81898025e-02,  3.28393020e-02,
        -4.52084057e-02, -8.45167786e-03,  5.56528904e-02,
        -3.83039825e-02, -2.53225453e-02, -2.53625587e-03,
         5.16144186e-03,  2.85629667e-02,  1.80319287e-02,
         2.81665884e-02,  3.22357155e-02, -4.15568054e-02,
         1.97645091e-02, -4.70198877e-02, -4.00447845e-02,
         4.48009856e-02,  1.06918328e-02,  3.33160609e-02,
        -4.45533171e-02, -4.32442278e-02, -3.29999067e-02,
         4.68833707e-02, -2.21393667e-02, -1.88193675e-02,
         3.24398093e-02,  6.91273902e-03, -3.77210788e-03],
       [ 6.76919818e-01,  1.03437066e+00, -4.79606867e-01,
        -2.32492283e-01,  1.23035991e+00, -4.61412907e-01,
        -4.20039475e-01,  1.04443960e-01, -1.14774862e-02,
        -4.22881991e-02,  5.44671059e-01, -5.02433181e-01,
         7.34551966e-01,  7.08526254e-01, -1.70301378e+00,
        -7.99115971e-02, -4.91254091e-01, -4.42667246e-01,
         7.31537223e-01, -3.06423277e-01,  4.76975411e-01,
         7.78321147e-01,  5.52744865e-01,  1.43186963e+00,
        -7.07922518e-01, -5.12935221e-01, -8.99323583e-01,
         5.21819472e-01, -5.35655916e-01,  3.38292629e-01],
       [-4.47494648e-02,  4.98909242e-02,  1.74933411e-02,
         2.15922631e-02,  1.00224130e-02,  2.78423689e-02,
        -3.41056958e-02,  3.66435908e-02,  1.51915476e-03,
         3.22333314e-02, -2.90170200e-02, -1.22168437e-02,
         7.45636225e-03, -2.20291857e-02,  3.05124559e-02,
        -9.72260162e-03, -1.61931291e-02, -4.70839627e-02,
         2.95942314e-02,  1.55945532e-02,  3.12688090e-02,
         3.47888954e-02, -3.58288176e-02, -2.45581158e-02,
        -2.94815544e-02,  2.22056769e-02,  2.52446570e-02,
        -2.81299353e-02,  3.83009054e-02,  7.65634701e-03],
       [ 2.11133525e-01,  1.20358735e-01, -2.03823996e+00,
        -5.56773126e-01,  2.48470917e-01, -8.04733217e-01,
        -4.38683361e-01,  3.23477268e-01, -6.15758039e-02,
        -6.24937154e-02,  1.37323380e-01,  1.46123186e-01,
         3.37141752e-01,  1.40137985e-01, -3.00406724e-01,
        -2.39096321e-02, -2.38250762e-01, -7.22576797e-01,
         1.14707001e-01, -4.22031671e-01,  3.50126177e-01,
         7.07028747e-01,  3.83975446e-01,  1.51313514e-01,
        -8.03124607e-01, -3.25954050e-01, -1.62529683e+00,
         2.12403223e-01, -6.81016803e-01,  1.80084988e-01],
       [ 3.29308420e-01,  5.04288793e-01, -1.04705310e+00,
        -3.80262017e-01,  5.91701388e-01, -5.70347644e-02,
        -5.70675842e-02,  7.47309685e-01, -2.59037092e-02,
        -4.24524993e-02,  1.90071583e-01,  1.39397457e-01,
         4.17513311e-01,  3.97051424e-01, -7.49159038e-01,
        -3.40420790e-02, -6.39940947e-02, -1.19030111e-01,
         3.28398764e-01, -9.80996061e-03,  2.76360035e-01,
         1.07031083e+00,  2.72895962e-01,  5.57158828e-01,
        -7.11688459e-01, -2.90138394e-01, -1.14542708e-01,
         2.06676617e-01, -3.32026593e-02,  3.30958068e-02],
       [ 1.68534651e-01,  1.53563976e-01, -8.75461102e-01,
        -3.58929813e-01,  4.80355233e-01,  4.20960724e-01,
         3.91531318e-01, -4.69817340e-01, -6.28165379e-02,
        -1.62799936e-02, -3.80625464e-02,  4.48669970e-01,
         1.18393213e-01, -1.20854937e-01,  8.08908403e-01,
        -4.08659279e-02,  3.99375826e-01,  4.53852266e-01,
         2.07850158e-01, -1.45205021e-01, -6.47540241e-02,
         4.82789904e-01, -1.55331358e-01,  5.23681223e-01,
        -7.25050330e-01,  4.32445645e-01, -1.17198415e-01,
        -1.29520655e-01,  4.99006301e-01, -3.81852407e-03],
       [-1.87260464e-01, -2.16263339e-01, -2.03983989e-02,
         2.72601992e-01, -7.96474516e-01, -8.62842947e-02,
        -2.07452208e-01,  7.16602057e-02, -1.78370681e-02,
         4.72251792e-03, -3.08003813e-01,  1.71728194e-01,
        -3.07258815e-01, -1.73398212e-01, -6.13724347e-03,
        -2.36682035e-02, -3.00733656e-01, -1.95301116e-01,
        -2.39522923e-02,  4.42751916e-04, -9.54516381e-02,
        -5.42448401e-01, -4.27885830e-01, -6.38242781e-01,
        -5.08561909e-01, -1.92427754e-01,  1.83920443e-01,
        -1.34550005e-01, -2.57699907e-01,  9.83753707e-03],
       [ 3.85250822e-02,  4.03638542e-01,  2.56662279e-01,
        -4.80259806e-01, -2.76624203e-01,  4.54371870e-01,
         3.93275410e-01,  3.99764746e-01, -4.75923941e-02,
        -6.13285378e-02,  2.63666570e-01,  6.54743552e-01,
        -4.02009100e-01,  6.65187240e-02,  1.22283444e-01,
        -4.46118191e-02,  4.48590249e-01,  3.79820734e-01,
         1.48585677e-01, -8.01500678e-02, -4.04523373e-01,
         3.47141206e-01, -6.36027277e-01, -2.27633893e-01,
        -8.49214613e-01,  3.73039842e-01,  3.97352248e-01,
         1.53265879e-01,  5.77720881e-01, -6.91392645e-02],
       [ 4.96271923e-02,  2.49339074e-01, -1.08308852e+00,
        -4.35190886e-01, -2.01525271e-01, -8.25356096e-02,
        -3.37772742e-02,  7.57113397e-02, -5.70338704e-02,
         4.17659897e-03,  9.02906135e-02, -1.26833215e-01,
         6.28493130e-02,  2.88911071e-02,  2.25466013e-01,
        -5.14208302e-02,  1.09928772e-01, -1.06394395e-01,
         1.10693313e-01, -7.53113985e-01,  3.56345102e-02,
         1.59283549e-01,  1.42297953e-01, -1.27850875e-01,
         9.49427038e-02,  6.57000691e-02, -9.31324959e-01,
         1.07569247e-01, -1.72736179e-02,  2.00427771e-01],
       [ 2.77442724e-01,  2.39236876e-01, -8.30559373e-01,
        -1.13800675e-01,  4.31855083e-01, -6.55622363e-01,
        -4.77376580e-01,  1.40810147e-01,  2.37717051e-02,
         2.42587328e-02,  4.35786724e-01,  1.60071656e-01,
         3.37939084e-01,  5.43747731e-02, -4.53311838e-02,
        -4.82328273e-02, -1.92993999e-01, -5.29723048e-01,
        -8.01221356e-02,  1.80243850e-01,  2.50215411e-01,
        -2.35328838e-01,  9.35667455e-02,  4.06465292e-01,
         3.31955343e-01, -2.42494389e-01, -5.14588296e-01,
         1.51074845e-02, -8.32954109e-01,  2.53246903e-01],
       [-2.88168877e-01, -2.89977640e-01, -9.12677124e-02,
        -2.87002355e-01, -5.13980150e-01,  8.44185650e-02,
         1.29762692e-02, -6.49745286e-01,  9.40249022e-03,
        -3.97224687e-02, -4.66960520e-01, -1.27182022e-01,
        -3.32657278e-01,  2.18853399e-01, -1.64547905e-01,
        -5.34864236e-03, -1.35569423e-01,  5.55687398e-02,
         2.96244323e-01,  1.30254135e-01, -1.91124916e-01,
        -2.23058653e+00, -4.77550715e-01, -6.76603615e-01,
         7.14253843e-01, -1.64494798e-01,  3.44630867e-01,
         7.47562572e-02,  7.29220882e-02,  2.21545785e-03],
       [-2.15171471e-01, -5.23280025e-01, -6.82678223e-02,
        -2.01212704e-01,  2.60217398e-01,  7.29276121e-01,
         8.21288586e-01,  2.13930815e-01, -4.47233394e-03,
        -1.04838740e-02, -1.30577788e-01,  9.08532739e-01,
         3.14364024e-03, -6.47410452e-02,  8.99554491e-01,
        -1.79676805e-02,  8.59273911e-01,  8.04780185e-01,
         1.83162764e-01,  2.92466372e-01, -1.42394513e-01,
        -4.62589592e-01,  1.98434796e-02,  8.81665871e-02,
        -9.21632573e-02,  6.90577924e-01, -4.27272886e-01,
        -1.12120278e-01,  8.57169688e-01,  6.06714115e-02],
       [-3.23392563e-02,  2.63323873e-01,  1.57538205e-01,
         6.60129339e-02,  2.30969265e-01,  1.85385004e-01,
         1.36643067e-01,  1.31014436e-01, -3.97357605e-02,
        -4.00920063e-02,  1.17483623e-01,  2.90432006e-01,
         7.81120434e-02, -1.23862317e-03,  2.87709892e-01,
        -1.03119105e-01,  2.03133181e-01,  1.20469429e-01,
        -8.96870643e-02,  3.41894835e-01,  7.35545829e-02,
         2.05311224e-01,  1.71819821e-01,  1.89027563e-01,
        -3.73100519e-01,  2.42161334e-01,  4.64511007e-01,
        -1.54894859e-01,  1.54095469e-02, -1.14523150e-01],
       [ 3.84762675e-01,  2.86269724e-01,  5.84311724e-01,
         2.38132879e-01,  5.67254364e-01,  3.93151373e-01,
         3.77682298e-01,  1.11762750e+00, -6.34162873e-02,
        -4.91441116e-02,  4.74319339e-01, -4.42937464e-02,
         3.63633424e-01,  5.24239361e-01,  3.00149322e-01,
        -2.93740910e-02,  3.60997140e-01,  3.67587358e-01,
         4.94215548e-01,  7.22480357e-01,  8.85455981e-02,
         8.27042609e-02,  2.60936648e-01,  3.21815312e-01,
         1.60721898e-01,  2.53938526e-01,  4.79426831e-02,
         3.84128064e-01,  3.88058335e-01,  1.45478442e-01],
       [-4.33303744e-01, -3.07922155e-01, -5.55376887e-01,
        -1.37595356e-01,  8.74049515e-02,  4.09119040e-01,
         3.50911260e-01, -3.43576491e-01, -2.43755914e-02,
        -4.93897237e-02, -5.80756962e-01,  6.89332902e-01,
        -2.38108858e-01,  6.26512766e-02,  6.42375946e-01,
        -2.88262498e-02,  3.85977805e-01,  5.16067505e-01,
        -2.64309734e-01, -1.97625026e-01, -5.59329510e-01,
        -1.81356204e+00, -1.71536565e-01,  1.85373630e-02,
         1.64746046e-01,  4.53281522e-01,  4.94611174e-01,
        -1.90386306e-02,  2.81578511e-01, -2.92123377e-01],
       [ 1.60579473e-01,  3.10660362e-01,  4.34345424e-01,
         1.07965015e-01,  3.95399481e-01,  2.24260569e-01,
         2.38223836e-01,  3.66570801e-01,  2.87575484e-03,
        -1.79825407e-02,  2.27376670e-01, -2.75499523e-01,
         3.18618454e-02,  2.61635967e-02,  4.44539577e-01,
        -7.38566071e-02,  2.38523901e-01,  1.11898400e-01,
        -1.05844205e-03, -7.66916335e-01,  2.82237947e-01,
         2.55683839e-01,  5.85661046e-02,  2.70775795e-01,
         3.27118874e-01,  2.45092958e-01, -6.28372431e-02,
         1.88294649e-01,  1.98107377e-01,  3.16554040e-01],
       [ 2.40814686e-03,  3.78280319e-02, -4.26985286e-02,
        -4.43797708e-02, -3.17972526e-02, -3.32827792e-02,
         4.68170531e-02, -1.08802207e-02, -3.00459154e-02,
        -1.74496770e-02,  4.80407812e-02,  4.09221761e-02,
        -3.54081504e-02, -2.97950990e-02, -4.28820625e-02,
        -2.12253258e-03,  1.02081783e-02,  4.13135327e-02,
         4.92221117e-03, -4.81693819e-03, -4.81030829e-02,
         3.40283997e-02,  4.15312760e-02,  5.90021536e-03,
        -1.94515828e-02,  2.41660811e-02,  4.46481444e-02,
         1.30892657e-02,  3.26523930e-03,  4.92712595e-02],
       [-1.52039433e+00, -1.16454470e+00,  7.85756886e-01,
        -7.95176178e-02, -8.17077518e-01,  4.27392364e-01,
         3.70599747e-01, -3.07795405e-01, -8.58457312e-02,
         1.82363065e-03, -6.55299306e-01,  2.21191034e-01,
        -9.20119226e-01, -2.71324992e-01,  6.88485578e-02,
        -2.62887422e-02,  2.49149814e-01,  5.04445791e-01,
        -1.46091342e+00,  1.68274835e-01, -3.41005981e-01,
        -2.69034058e-01, -3.19890469e-01, -9.72444177e-01,
        -2.44832858e-01,  2.31826171e-01,  5.63845694e-01,
        -2.79886991e-01,  4.68950719e-01, -1.73720092e-01],
       [ 3.37662518e-01, -2.45141715e-01, -1.82623282e-01,
         1.81064695e-01, -4.30104196e-01,  3.11913639e-01,
         1.94989339e-01, -1.06253695e+00,  2.13972572e-02,
         5.60388388e-03,  9.55056399e-02,  2.78041303e-01,
         3.21554691e-01,  6.66208193e-02, -1.74022168e-02,
         5.87328970e-02,  2.53063232e-01,  2.60811001e-01,
         4.16106343e-01, -6.61795855e-01,  3.53214681e-01,
        -1.33328211e+00,  1.82536393e-01, -4.77542996e-01,
        -2.09180117e-01,  1.80196717e-01,  3.98340464e-01,
         1.06765859e-01,  1.78492159e-01,  9.66336876e-02],
       [ 4.33508493e-02, -1.10983104e-01,  1.12609662e-01,
         1.02615580e-01, -8.72579440e-02,  1.05807953e-01,
         1.29777983e-01, -8.64099443e-01,  1.29145039e-02,
        -5.75205460e-02, -4.73132074e-01,  6.64581358e-02,
         4.00911957e-01, -2.75427520e-01, -1.19346846e-02,
         8.46424233e-03,  1.75380528e-01,  8.11838955e-02,
         2.35039443e-01,  5.26236236e-01,  2.92223319e-02,
        -4.15835947e-01,  3.81106853e-01, -1.05667636e-01,
         3.17069471e-01,  1.97764069e-01,  5.11882044e-02,
        -2.40973592e-01,  9.88018699e-03, -7.85049796e-01],
       [-2.99867779e-01, -6.90733254e-01, -3.79822969e-01,
         3.95930698e-03, -7.32251048e-01,  7.69611150e-02,
         2.26109698e-01, -1.45412028e+00, -5.60668334e-02,
         2.38021812e-03, -5.19519091e-01,  2.29110181e-01,
        -2.80948132e-01, -4.27053243e-01,  2.27751121e-01,
        -7.30050355e-02,  2.77894497e-01,  2.12170124e-01,
        -3.65707576e-01,  8.22870508e-02, -5.66077650e-01,
        -1.10131776e+00, -6.58499062e-01, -1.43099499e+00,
        -1.84030414e-01,  2.33699262e-01, -6.76504731e-01,
        -7.19176292e-01,  1.13353066e-01, -1.26957703e+00],
       [-2.31822785e-02, -5.03533892e-02, -1.72745169e-03,
         7.93855265e-03,  1.15101235e-02,  3.76306884e-02,
         3.50638814e-02, -4.10546660e-02,  6.59578340e-03,
        -2.90368014e-04,  2.09468380e-02, -3.35678197e-02,
         3.22482996e-02, -5.04608564e-02, -2.85024140e-02,
         3.39637441e-03, -2.42198445e-02,  1.44060692e-02,
        -2.85421759e-02,  2.76556835e-02, -5.12600616e-02,
        -4.77771759e-02, -2.50113532e-02, -4.75486889e-02,
        -4.28964496e-02, -5.27521828e-03,  4.14610058e-02,
         2.35625468e-02,  2.90533365e-03, -2.86943652e-02],
       [-1.85800999e-01,  2.97440756e-02,  5.74631870e-01,
         3.69095020e-02,  3.83097529e-01,  4.02921170e-01,
         3.72446686e-01, -1.15208723e-01, -5.13147563e-02,
        -2.15271413e-02, -4.94554825e-02,  7.36975148e-02,
        -2.36724451e-01, -3.66321594e-01,  6.44447267e-01,
        -5.34314197e-03,  3.16709638e-01,  3.70452017e-01,
        -2.37604097e-01,  3.30784827e-01, -1.96503475e-01,
        -7.63364553e-01, -6.48357928e-01,  1.86506599e-01,
        -1.60236597e-01,  3.62036645e-01,  5.53717673e-01,
         3.08006089e-02,  2.88479388e-01,  4.22611833e-01],
       [ 2.28817299e-01, -1.10678621e-01, -2.99792022e-01,
        -1.53234452e-01, -3.88749421e-01,  1.94477618e-01,
         2.85058588e-01, -1.54089063e-01, -6.83017895e-02,
        -6.39853105e-02,  2.57395506e-01,  2.15695009e-01,
         7.46183544e-02,  1.79407850e-01,  1.45973772e-01,
        -3.63971479e-02,  2.92505652e-01,  2.63633877e-01,
         1.24233067e-01, -1.69118643e-01,  9.33993533e-02,
        -8.69810998e-01, -8.26765969e-02, -5.25117517e-01,
         1.32627591e-01,  3.13859314e-01, -3.72015238e-01,
         1.29754588e-01,  1.85339376e-01,  3.38829875e-01],
       [-3.01972240e-01, -1.15223162e-01,  1.61405519e-01,
        -4.53921817e-02, -6.86531439e-02,  1.88012913e-01,
         1.60356075e-01,  3.94934475e-01, -2.29326449e-02,
        -4.07258719e-02, -1.68236438e-02,  1.95596173e-01,
        -2.52971888e-01, -3.24335217e-01,  4.26911116e-01,
        -3.69870663e-02,  1.46853685e-01,  1.92902282e-01,
        -8.03213835e-01, -1.83804646e-01,  4.26167957e-02,
        -6.96494520e-01,  1.45243883e-01, -1.26588875e-02,
        -5.02018966e-02,  1.22566909e-01,  3.60431761e-01,
        -2.84504771e-01,  2.69508392e-01, -3.23827535e-01],
       [-4.23759490e-01, -1.35415345e-01, -3.72758508e-01,
        -4.52642776e-02, -4.10260171e-01, -4.12549824e-01,
        -4.07339513e-01, -1.01701283e+00, -2.06018589e-03,
        -6.00153208e-02, -2.56606668e-01,  2.21142679e-01,
        -5.95994115e-01, -2.81226426e-01,  1.65742710e-01,
        -6.73539042e-02, -1.03171445e-01, -3.87153119e-01,
        -2.83365935e-01,  1.20846264e-01, -5.10142207e-01,
        -6.17894113e-01, -3.77669424e-01, -5.44741094e-01,
         4.27972674e-01, -3.98598701e-01, -5.83350480e-01,
        -4.98507529e-01, -3.07224572e-01, -6.36073589e-01],
       [ 2.18783140e-01, -4.88292933e-01, -7.41218686e-01,
         2.94586360e-01, -2.51648128e-01, -1.89984560e-01,
        -3.04662287e-01, -7.86716640e-02, -5.44824898e-02,
         3.49039002e-03, -1.50488690e-01, -1.98072106e-01,
         6.54579699e-02,  3.92285176e-02, -8.67221117e-01,
        -6.63849572e-03, -5.76480389e-01, -7.38582686e-02,
         2.78476685e-01, -6.07811689e-01,  1.69951349e-01,
         5.46717383e-02, -1.53956590e-02, -2.57545054e-01,
        -9.75699842e-01, -4.10438091e-01, -1.31476653e+00,
        -4.94574644e-02, -9.13896263e-02, -8.15026537e-02],
       [ 1.29075110e-01,  1.11988053e-01,  2.82164305e-01,
         6.01465479e-02,  4.14957196e-01,  5.17538726e-01,
         4.71844971e-01, -8.89422446e-02, -3.65335727e-03,
        -3.55221592e-02, -7.20195919e-02,  3.20455313e-01,
         4.30729054e-02, -5.51671922e-01,  6.15622640e-01,
        -5.75925522e-02,  4.36035275e-01,  5.99893928e-01,
        -1.26809090e-01,  2.53549172e-03, -9.05187875e-02,
        -3.11913133e-01, -3.61647964e-01,  6.36719227e-01,
        -2.24446028e-01,  4.24660116e-01,  1.02650177e+00,
        -1.39700398e-02,  5.27914643e-01,  5.46783507e-02],
       [ 1.39875174e-01,  5.12188017e-01, -2.67882288e-01,
        -7.31535792e-01,  3.10640752e-01,  2.81955838e-01,
         4.03430074e-01,  1.71711892e-01, -1.48704986e-03,
        -4.90988940e-02,  2.24811450e-01,  1.46179125e-01,
        -3.88422026e-03,  1.65973008e-01,  6.44422710e-01,
        -1.12707606e-02,  3.22953701e-01,  3.52798492e-01,
        -2.75150314e-02,  4.64379191e-02,  1.36399135e-01,
         2.83619687e-02, -4.76261787e-02,  3.97604495e-01,
        -2.27851987e-01,  4.20714796e-01, -1.75532341e-01,
         2.25391135e-01,  2.32018918e-01,  3.35051864e-01],
       [ 4.75428067e-02, -2.48985291e-01, -5.17844975e-01,
         3.17388117e-01, -1.58175617e-01, -1.01344347e+00,
        -7.74251282e-01,  1.31459504e-01,  3.39441653e-03,
        -5.01138009e-02,  1.53233349e-01, -1.58644569e+00,
         1.06324226e-01,  2.23447427e-01, -4.56534654e-01,
        -3.03406492e-02, -6.52382135e-01, -1.02374017e+00,
        -2.03420892e-01, -4.80952084e-01,  1.67194366e-01,
        -1.91498026e-01,  1.13280088e-01, -2.63199687e-01,
         4.19319905e-02, -5.04130781e-01, -6.10886276e-01,
         2.62393206e-01, -1.19903493e+00,  3.23556960e-01],
       [-4.59481239e-01, -1.63255155e-01, -4.27176803e-01,
         2.88651809e-02, -8.21528137e-01,  1.55398324e-01,
         8.90455544e-02, -2.08170965e-01, -9.74940788e-03,
         1.26838777e-02, -4.56190079e-01,  9.17728171e-02,
        -2.30934471e-01,  4.60561477e-02,  2.72129625e-01,
        -5.48365638e-02,  8.45300108e-02,  1.47034302e-01,
        -6.72506392e-02, -4.38583702e-01, -4.06224251e-01,
        -9.36203301e-01, -1.55359954e-01, -6.70861423e-01,
        -3.06218296e-01,  2.55063176e-01,  3.02109003e-01,
        -3.08540553e-01, -3.44961062e-02, -4.64426130e-01],
       [ 1.04064858e-02,  1.73655841e-02, -3.79176475e-02,
        -1.92291494e-02,  3.37692983e-02,  3.18098329e-02,
         2.60831602e-02,  1.08041465e-02,  9.06758767e-04,
        -4.06831008e-04, -1.44844772e-02, -4.30819169e-02,
        -2.54005603e-02,  7.14191049e-03,  1.97933950e-02,
        -1.24378279e-02,  3.81501950e-02, -8.47244076e-03,
         2.85011195e-02, -3.57706249e-02, -3.39545198e-02,
         2.07478981e-02,  3.22197154e-02,  3.76383215e-03,
        -2.42045056e-02,  2.28421707e-02, -4.21239212e-02,
         3.56867202e-02,  2.35257391e-02, -3.72523069e-02],
       [ 5.00728153e-02, -9.52783041e-03,  4.43153130e-03,
         5.19627333e-03,  5.12226410e-02, -2.53837779e-02,
         1.97357312e-02, -3.79850268e-02,  2.88215447e-02,
         1.09717902e-02, -3.88703421e-02,  2.00801715e-02,
         2.29043923e-02, -2.96525075e-03, -2.56738141e-02,
        -8.09160620e-03, -3.90899070e-02,  2.31930614e-02,
         5.01082353e-02, -1.12446453e-02,  2.78532170e-02,
        -1.19223325e-02, -1.12798205e-02, -3.42089087e-02,
         3.61599438e-02,  1.83624309e-02,  1.65796988e-02,
         2.96755116e-02, -1.30795539e-04, -2.77810637e-02],
       [ 6.65781274e-02, -3.71527612e-01, -6.24487877e-01,
        -3.11671719e-02, -2.11816758e-01, -1.70165718e-01,
        -9.25705284e-02, -2.89793402e-01, -5.49368039e-02,
        -3.87622714e-02,  1.63077876e-01, -2.64999896e-01,
         1.38130710e-01,  1.66524351e-01, -3.65839154e-01,
        -1.90177038e-02, -1.44195616e-01, -1.34494096e-01,
        -1.21114455e-01, -8.53972495e-01,  8.66702422e-02,
         4.50768992e-02,  3.00090194e-01, -1.72582954e-01,
        -1.12094879e+00, -1.95353985e-01, -8.62667501e-01,
         3.72667611e-01,  5.80998650e-03, -3.85188535e-02],
       [ 2.63918906e-01,  1.61278963e-01, -3.11964095e-01,
        -3.18607479e-01,  1.69627577e-01,  6.01697266e-01,
         5.26197374e-01,  6.55659258e-01, -4.17669024e-03,
        -5.86476251e-02,  4.06734169e-01,  5.61069191e-01,
         2.26395532e-01,  3.63834351e-01,  1.25769258e-01,
        -1.02238841e-02,  4.03450787e-01,  6.73502386e-01,
         2.05185995e-01, -5.16281605e-01,  1.64995655e-01,
         1.34090021e-01,  2.34219536e-01,  2.48101637e-01,
        -7.73899734e-01,  3.59472334e-01,  5.58072686e-01,
         2.12375537e-01,  6.13854885e-01,  1.41859993e-01],
       [-2.35151827e-01, -3.36193800e-01,  5.71076751e-01,
        -2.58718193e-01,  1.03902176e-01,  5.94011605e-01,
         6.03926837e-01, -2.65724361e-01, -1.30382013e-02,
        -1.96257085e-02, -4.30998027e-01,  2.13411123e-01,
        -8.45660329e-01, -6.58559918e-01, -2.51144230e-01,
        -6.81553781e-02,  7.77610779e-01,  5.36829889e-01,
        -5.30992150e-01,  7.22725153e-01, -3.52022648e-01,
        -6.47116661e-01, -6.33425534e-01,  4.85686027e-02,
         1.97099239e-01,  8.50417078e-01,  5.91259897e-01,
         2.69594073e-01,  4.55773532e-01,  3.64862055e-01],
       [-3.13786030e-01, -3.33374768e-01,  9.23806787e-01,
         2.13237837e-01, -3.74675542e-01,  8.09315383e-01,
         7.66083300e-01, -4.49612081e-01, -5.79921342e-02,
        -2.70018745e-02, -4.70280766e-01,  4.91426617e-01,
        -1.07972574e+00, -2.63230443e-01,  6.67487144e-01,
        -2.73087993e-02,  6.21411324e-01,  7.46546209e-01,
        -1.08077836e+00,  1.34647048e+00, -3.91616225e-01,
        -2.22442895e-01, -4.44747597e-01, -2.02774346e-01,
         6.59169316e-01,  8.01735818e-01,  1.88481495e-01,
        -2.56564409e-01,  7.09133863e-01, -2.60272533e-01],
       [-8.28001648e-02, -4.77001160e-01,  4.03337985e-01,
        -6.21689260e-01, -4.29072052e-01,  3.95332053e-02,
         1.63122505e-01, -2.59944916e-01, -1.43643217e-02,
        -4.06169295e-02,  2.87409145e-02,  3.85855287e-01,
        -6.21413216e-02, -4.44168597e-01,  4.31658983e-01,
        -3.16669606e-02,  3.96687239e-01,  4.93694171e-02,
        -1.93247288e-01, -1.49382532e-01, -5.16935885e-02,
         3.26125175e-02,  6.16984814e-02, -3.61898601e-01,
         3.98047209e-01,  2.77810395e-01, -1.66822124e+00,
        -6.09671354e-01, -2.55998280e-02, -4.27013874e-01],
       [ 2.94384398e-02,  3.25355493e-02,  8.71012639e-03,
        -4.76398952e-02,  2.65449136e-02, -3.32402661e-02,
        -1.07395612e-02, -5.20932069e-03, -2.50569563e-02,
         4.76501845e-02, -3.83891799e-02,  2.70447861e-02,
         3.77026349e-02,  2.02565896e-03, -7.98159279e-03,
        -4.45488058e-02,  1.69038493e-02,  3.60955112e-02,
         2.74084657e-02, -4.78016287e-02, -4.50752601e-02,
         3.12469937e-02, -2.91987695e-02,  5.17051816e-02,
         3.63066606e-02, -3.44145112e-02, -7.94209540e-03,
         1.76989194e-02,  1.22067528e-02,  4.76989802e-03],
       [ 1.00760353e+00,  9.97912586e-01, -2.44463086e-01,
        -2.30115876e-01,  4.13746893e-01, -4.46589738e-01,
        -3.01485866e-01,  4.21846986e-01,  4.02116962e-02,
         5.08705452e-02,  9.29013789e-01, -6.71375632e-01,
         8.79666388e-01,  7.80290604e-01, -6.22109652e-01,
        -2.87532285e-02, -5.28705537e-01, -1.86190575e-01,
         7.94196427e-01,  5.12502491e-01,  9.53390419e-01,
         7.39022672e-01,  1.08303285e+00,  4.54035252e-01,
        -2.31397510e-01, -4.58016694e-01,  6.42928720e-01,
         5.45419753e-01, -5.48013806e-01,  2.30038881e-01],
       [-5.57502210e-01, -1.25944924e+00,  2.65365005e-01,
         1.71086684e-01, -5.74284792e-01, -8.07285309e-03,
        -1.28249417e-03,  2.55886782e-02, -5.56258671e-03,
        -7.33075142e-02,  1.91981092e-01, -1.60942554e-01,
        -4.35235053e-01,  2.11266484e-02, -2.87319779e-01,
        -1.43109625e-02, -1.35911971e-01,  2.36827098e-02,
        -1.07016170e+00,  1.54086828e-01, -1.47785082e-01,
        -3.56283158e-01,  8.95049050e-02, -6.55402839e-01,
         1.81325018e-01, -8.80521312e-02,  1.41453445e-01,
        -3.32593545e-03,  5.76318279e-02,  2.97841966e-01],
       [-9.14414972e-02, -9.32798505e-01, -2.83498913e-01,
        -2.06552938e-01, -1.16269600e+00,  6.17858231e-01,
         5.23995340e-01,  2.72352342e-02, -2.33955011e-02,
        -5.54367229e-02, -1.94055408e-01,  3.95316958e-01,
         1.56677216e-01,  2.08375171e-01,  4.44243819e-01,
        -6.68738084e-03,  4.29363757e-01,  5.83381832e-01,
        -4.41566110e-02,  3.55679780e-01,  4.44189966e-01,
         1.86435744e-01,  4.40180689e-01, -1.21546113e+00,
        -6.34072304e-01,  4.39833611e-01, -4.05225307e-02,
         3.17818403e-01,  5.66409767e-01,  4.01958704e-01],
       [-1.11384630e-01,  2.08950564e-02, -2.20599651e-01,
         4.58611488e-01,  3.49877417e-01, -2.35925570e-01,
        -3.48465085e-01,  1.34792328e-01, -2.12577209e-02,
         1.84833668e-02,  4.26614396e-02, -3.87766868e-01,
         5.27420789e-02,  1.31645510e-02, -1.52885094e-01,
        -4.34845947e-02, -4.27996814e-01, -2.54847914e-01,
        -1.32870808e-01, -6.72468603e-01, -3.76830846e-02,
         3.73637527e-01,  1.05619334e-01,  2.62222618e-01,
         1.05793275e-01, -2.74603724e-01, -3.47171932e-01,
         1.74039319e-01, -2.86510915e-01, -3.06425635e-02],
       [ 1.17600851e-01, -1.49567091e+00,  9.92605761e-02,
        -1.93995565e-01, -7.99976349e-01,  1.78893745e-01,
         1.88683435e-01,  6.74232394e-02, -8.83225817e-03,
         8.68284050e-03, -8.04626942e-01,  8.01937729e-02,
         1.71272725e-01, -6.02528572e-01, -3.28150690e-02,
         3.25889587e-02,  1.03385389e-01,  1.16487637e-01,
         2.79429164e-02,  1.50442705e-01, -4.55516875e-02,
         2.98170924e-01,  1.68286040e-01, -6.87619388e-01,
         2.09453866e-01,  2.31913522e-01,  2.37914711e-01,
        -8.18632305e-01,  1.18763931e-01, -5.79136014e-01],
       [ 2.07937285e-01,  4.19445843e-01,  8.25106800e-01,
