[array([[-6.31766245e-02, -4.03185859e-02, -1.41598182e-02,
        -8.26986358e-02, -3.91565450e-02, -5.61047457e-02,
        -2.66193021e-02, -1.06926332e-03, -5.41744009e-02,
        -5.95566742e-02, -1.67855769e-01, -1.04822956e-01,
        -5.01402617e-02, -1.17350698e-01, -4.42113504e-02,
         3.36888358e-02, -6.50427490e-02,  4.32569385e-02,
        -7.43059888e-02, -1.01292908e-01, -1.38584077e-01,
        -9.94481668e-02, -1.18213043e-01, -1.11326436e-02,
        -8.98237973e-02, -1.45074800e-01, -1.53741362e-02,
         6.69230223e-02,  8.84863362e-03, -5.43951727e-02,
        -2.32096035e-02, -4.26412784e-02, -1.39847361e-02,
         2.60120966e-02,  2.39409897e-02, -3.45034041e-02,
        -9.53639224e-02, -3.65507975e-02, -3.15080732e-02,
        -5.36913425e-02, -1.77412406e-02, -8.79875049e-02,
         5.59590869e-02, -1.88588336e-01, -1.03534676e-01,
        -1.83489416e-02, -1.34380274e-02, -4.78888042e-02,
         3.35395671e-02, -1.10355234e-02, -5.66041730e-02,
        -2.15160046e-02, -1.96035672e-02,  2.21334007e-02,
         2.37831492e-02, -6.73837513e-02, -1.71962395e-01,
        -3.76028847e-03],
       [ 2.78178781e-01, -2.85339728e-02, -2.51853466e-02,
         5.26024282e-01,  1.08394928e-01,  7.31145293e-02,
        -9.64674205e-02, -2.85877548e-02, -1.99329376e-01,
         4.10322964e-01,  8.91100407e-01,  8.13630342e-01,
         2.66609453e-02,  4.99429435e-01,  1.35356814e-01,
        -3.67122978e-01,  3.72437090e-01, -9.66704190e-02,
         3.81107748e-01,  1.07488304e-01,  5.56374192e-01,
        -2.64919885e-02,  6.29605949e-01,  5.19522885e-03,
         4.82738197e-01,  6.70683205e-01,  5.79162594e-03,
         2.90581342e-02, -1.16426580e-01,  2.21477851e-01,
        -6.78859651e-04, -8.33453145e-03, -1.04112169e-02,
         1.41721830e-01,  1.85162321e-01,  3.13901789e-02,
        -1.77108180e-02,  5.74595258e-02,  1.39214480e-02,
        -2.54267380e-02,  3.34753424e-01,  3.41955245e-01,
        -8.53551924e-02,  3.40538114e-01,  3.40846568e-01,
         1.84084717e-02,  2.54375022e-02,  2.75729839e-02,
        -1.08542785e-01, -9.63690355e-02,  3.69171277e-02,
        -1.00188963e-02,  5.27986474e-02, -3.36969569e-02,
         9.49317142e-02,  1.53383821e-01,  5.13044357e-01,
         4.14179415e-02],
       [-7.35515803e-02, -5.74062206e-02, -1.47964992e-02,
        -2.36963689e-01, -9.31185707e-02, -8.58918950e-02,
         4.14972417e-02, -2.89565213e-02,  3.04114744e-02,
        -1.79087207e-01, -2.93080270e-01, -2.73361713e-01,
        -3.85561101e-02, -2.13135943e-01, -1.17319994e-01,
         1.16294496e-01, -6.95598051e-02,  2.55502202e-02,
        -1.73804015e-01, -1.09028086e-01, -2.80833513e-01,
        -6.98802844e-02, -2.59357244e-01, -5.26426546e-02,
        -1.67370662e-01, -2.40742594e-01,  7.18595013e-02,
         6.05539493e-02,  5.47414608e-02, -1.26040146e-01,
        -2.51935124e-02,  1.17720224e-01, -5.34340031e-02,
         7.82300439e-03,  4.30582315e-02, -3.58155593e-02,
         5.51470276e-03, -3.94979827e-02, -8.76990110e-02,
         1.00436449e-01, -1.13965437e-01, -1.69132352e-01,
         1.22746378e-02, -1.92441717e-01, -1.05295002e-01,
        -3.36714787e-03, -2.81059295e-02,  1.24732703e-02,
         3.37143727e-02,  3.66987474e-03,  1.63153559e-02,
        -1.33679621e-02, -2.88892165e-02,  6.60332944e-03,
         7.11749047e-02, -1.18841730e-01, -2.61754785e-02,
         1.34039065e-02],
       [-7.07921535e-02, -6.08873228e-03,  1.32047236e-02,
        -5.15555739e-02,  4.08774838e-02, -6.80712387e-02,
         4.61325794e-02,  2.64801085e-02,  1.86877325e-02,
        -8.98560211e-02, -8.47582966e-02, -8.20731595e-02,
         1.93102993e-02, -5.69239073e-02,  2.44456362e-02,
         2.08673030e-02,  2.31999252e-02,  1.63237117e-02,
        -1.07689351e-01,  4.48834989e-03,  1.18774232e-02,
         2.31169574e-02, -5.77878952e-02, -1.77132413e-02,
        -5.72719127e-02,  3.13230567e-02,  2.58249659e-02,
         8.41566399e-02,  1.30073344e-02, -7.74319377e-03,
        -3.53403799e-02,  7.11808130e-02,  9.02083516e-03,
        -1.34374341e-02,  1.82198100e-02, -5.45531921e-02,
        -5.06499298e-02,  4.82510589e-02,  2.79404540e-02,
        -1.37506882e-02, -1.26843313e-02, -5.37079796e-02,
        -1.33047451e-03, -1.13286190e-01, -8.90450403e-02,
        -5.26967272e-02,  6.04667049e-03, -1.69945583e-02,
        -1.95733998e-02,  2.96686944e-02, -1.74141098e-02,
        -4.74897400e-02, -2.75010942e-04, -5.43064103e-02,
         4.67483699e-02,  3.66808586e-02, -1.54826809e-02,
         3.90711837e-02],
       [-1.64242074e-01,  3.98322102e-03, -4.13478576e-02,
        -1.85481697e-01, -3.78770269e-02, -2.21091192e-02,
         8.28814879e-02,  3.25684668e-03,  1.06779626e-03,
        -1.21006444e-01, -2.57104963e-01, -2.85724789e-01,
        -4.88334410e-02, -1.17704242e-01, -1.29834533e-01,
        -1.50433825e-02, -1.62209287e-01,  2.64941627e-04,
        -9.71398875e-02, -2.92029921e-02, -1.56679541e-01,
        -3.07283532e-02, -1.45273417e-01, -3.92340161e-02,
        -2.16132194e-01, -1.34021416e-01,  5.38310222e-02,
        -4.42401506e-04,  7.77649060e-02, -1.12585314e-01,
        -1.29251704e-02,  7.35192150e-02, -4.79998328e-02,
        -6.41167387e-02,  9.63961557e-02, -4.61213104e-02,
        -4.49228883e-02, -8.90528411e-02, -7.23607987e-02,
         1.03186429e-01, -1.48685440e-01, -1.11239135e-01,
        -1.52209783e-02, -2.28553474e-01, -5.71834780e-02,
        -7.86002651e-02, -2.79765446e-02,  9.60051455e-03,
        -6.01133890e-02,  2.78204922e-02, -3.44294608e-02,
         4.62101772e-03, -8.82842988e-02, -4.62349318e-02,
         6.44794703e-02, -1.18685655e-01, -3.05183623e-02,
        -3.79818603e-02],
       [ 8.35604250e-01, -3.25931273e-02,  4.71945219e-02,
         7.75651336e-01, -5.97435772e-01,  2.78986186e-01,
        -8.75293985e-02,  3.29837166e-02, -4.85224396e-01,
         3.48212309e-02,  7.56998897e-01,  3.71569425e-01,
        -1.07410774e-02,  6.96735457e-02,  3.63177806e-01,
        -5.22950947e-01,  8.16705585e-01, -4.29128259e-01,
         5.75725809e-02, -3.77160072e-01,  2.64495194e-01,
        -4.38171029e-01,  2.34550163e-01, -3.20866257e-01,
         8.44184816e-01,  2.88962275e-01, -2.04253882e-01,
         4.58260685e-01, -3.24390501e-01,  5.74229717e-01,
        -2.16331016e-02, -3.65693271e-01, -1.92784909e-02,
        -5.96082993e-02, -1.66387871e-01,  4.24984507e-02,
        -5.26706576e-01,  1.41213268e-01, -6.58320963e-01,
         3.42906535e-01,  1.71991035e-01,  7.09820926e-01,
         5.48038967e-02,  6.65384412e-01, -7.43293464e-02,
         2.99968064e-01, -1.41265914e-02, -1.89755484e-02,
         1.20967008e-01,  9.66813862e-02, -4.86439168e-02,
        -1.21246576e-02,  5.33400953e-01, -2.32713223e-02,
        -7.56523907e-02,  1.35776177e-01,  4.82027948e-01,
        -4.57095169e-02],
       [-4.96194750e-01,  4.30264808e-02, -7.67042518e-01,
        -2.64042854e-01,  2.36409694e-01, -3.09882998e-01,
         7.41618946e-02,  1.91380288e-02, -1.03032276e-01,
         6.33386075e-01, -2.20760763e-01,  3.80859613e-01,
        -4.39797901e-02,  5.82931459e-01, -7.87669241e-01,
         2.57234395e-01, -4.69476193e-01,  1.96450546e-01,
         6.68144822e-01,  4.97043848e-01, -7.59656951e-02,
         1.95062190e-01, -2.12494314e-01,  4.16159689e-01,
        -1.96716845e-01, -2.05686510e-01,  4.34216112e-01,
        -7.33251750e-01,  1.46761611e-01, -7.61618316e-01,
        -3.31215486e-02,  3.41963381e-01, -1.24965934e-02,
         5.84615588e-01,  6.62433207e-01,  1.41239120e-02,
        -1.53835103e-01, -8.26182425e-01,  1.01323664e-01,
         6.19170189e-01, -7.65864253e-01, -3.86599869e-01,
        -8.96305799e-01, -4.99741614e-01,  2.93598980e-01,
        -5.30274332e-01,  2.31173672e-02,  3.26975025e-02,
        -5.48232496e-01, -8.72103751e-01,  2.39183311e-03,
        -1.45001337e-03, -7.81975687e-01, -2.66325269e-02,
         5.80402851e-01, -4.22549754e-01, -2.00868189e-01,
         2.41725575e-02],
       [ 9.02686596e-01,  4.67904843e-03,  7.26467883e-03,
         9.13129568e-01, -2.51690388e-01, -1.68824464e-01,
        -1.73470646e-01, -1.87336635e-02, -9.88381207e-01,
         6.44549902e-04,  2.32505158e-01,  5.61614335e-01,
         3.52458544e-02, -2.65284814e-02,  1.84948936e-01,
        -4.40678746e-02,  8.65276396e-01, -2.87325215e-02,
        -1.92059800e-01, -1.42588377e-01,  1.29138991e-01,
        -4.43041325e-01, -7.88281485e-02,  6.99102879e-02,
         1.02942753e+00, -2.32277662e-01, -3.81650729e-03,
         2.57540345e-01, -6.54105484e-01,  5.28307617e-01,
         1.47107132e-02,  1.78249329e-02, -9.72654112e-03,
         6.04689240e-01,  2.96940655e-01,  1.43412054e-02,
        -4.74789143e-01,  3.34998280e-01, -2.78948486e-01,
         3.41206312e-01,  1.00894183e-01,  8.96908820e-01,
        -2.20633805e-01,  2.05551997e-01, -4.89900142e-01,
        -1.12486660e-01,  1.75841972e-02, -4.25155647e-02,
         8.58100727e-02, -3.17922235e-01, -1.40622966e-02,
        -2.95729190e-02,  3.00561965e-01, -5.65424040e-02,
         2.68156916e-01,  3.53625655e-01, -3.56187224e-01,
         1.56837571e-02],
       [-2.94873118e-01, -4.77717631e-02,  2.08142117e-01,
        -1.40252277e-01,  1.80441320e-01,  2.23837733e-01,
        -2.38921866e-01,  1.36300009e-02, -1.80152857e+00,
         2.38093123e-01,  7.30482936e-01,  3.97360206e-01,
        -3.65489721e-03,  2.79066950e-01, -3.34365249e-01,
        -1.55694199e+00, -1.59257054e-01, -5.20561635e-01,
         4.60094988e-01,  2.37322912e-01,  8.36041689e-01,
        -5.00486866e-02,  7.63818800e-01,  8.10283497e-02,
        -1.58350438e-01,  7.68178582e-01,  1.00839138e-01,
        -2.90190518e-01,  1.10235915e-01, -2.47858316e-01,
        -3.57256574e-03,  2.43236542e-01, -3.71779054e-02,
        -2.45301872e-01,  1.52307436e-01,  8.97385646e-04,
        -5.13563037e-01, -2.88837012e-02, -3.51027727e-01,
         1.06093913e-01, -2.43371904e-01, -3.39382142e-01,
        -5.57817370e-02,  3.25816453e-01,  2.36095384e-01,
        -1.72199175e-01, -1.04608582e-02,  1.70176364e-02,
         6.79441750e-01,  5.42092137e-02,  1.48954662e-03,
        -3.49862617e-03, -2.73833930e-01, -5.43147884e-03,
         2.27162734e-01, -7.89295435e-02,  4.13527340e-01,
         2.56306101e-02],
       [ 5.65936193e-02, -4.03288566e-02, -2.57081073e-02,
         3.44353355e-02,  8.92208666e-02, -4.28048745e-02,
         1.22000739e-01, -2.93561202e-02,  1.62026599e-01,
        -9.27651022e-03, -1.39925882e-01, -2.57220678e-02,
        -4.84847799e-02,  1.90349799e-02,  3.47727127e-02,
         3.40890139e-03,  2.34992113e-02,  1.23796284e-01,
        -6.62057698e-02,  4.38290536e-02, -1.39328137e-01,
         1.31429687e-01, -5.20587638e-02,  7.39375129e-02,
         5.18873036e-02, -9.92067382e-02,  5.69227636e-02,
         9.35113579e-02,  5.82770631e-02,  4.03678529e-02,
        -1.40193105e-02,  6.20155334e-02, -3.60583626e-02,
         9.77566689e-02,  7.98608758e-04,  1.38714146e-02,
        -1.63678005e-02, -1.26184430e-02,  1.00920483e-01,
         6.50636330e-02, -6.40449896e-02,  2.22812518e-02,
         2.64072325e-02, -6.20864369e-02,  1.76162235e-02,
        -8.41500908e-02,  4.25579306e-03, -4.09265272e-02,
         2.04071123e-02,  1.63004529e-02, -2.63573695e-02,
         7.90605694e-03,  7.15216547e-02, -5.58523461e-02,
        -8.35310493e-04, -8.02433863e-02, -7.08255842e-02,
        -2.35551689e-02],
       [ 3.31702381e-02,  1.50798308e-03, -8.68453458e-03,
        -3.39477137e-02, -2.14009166e-01, -1.22312852e-03,
         1.31388322e-01, -4.14917618e-02,  8.37462917e-02,
        -1.10896593e-02,  4.31050919e-02, -1.04139827e-01,
         1.40741654e-02, -7.80258700e-02,  1.85974643e-01,
         2.01374695e-01,  2.68820152e-02, -7.50122068e-04,
        -2.93849632e-02, -2.07329124e-01,  4.15634401e-02,
        -3.11300308e-01,  2.91859001e-01,  2.26602908e-02,
         3.69184539e-02,  1.05290674e-01, -2.04619160e-03,
         8.83754268e-02,  9.61078703e-02,  9.22447443e-02,
         2.00079381e-02, -1.13799021e-01,  3.69157977e-02,
        -1.12763315e-01,  1.69399008e-02,  4.33379672e-02,
        -3.62140574e-02, -2.89478293e-03,  1.46532175e-03,
        -2.80485272e-01,  2.99188405e-01,  3.21717262e-02,
         7.94361457e-02, -1.36926798e-02, -1.23990752e-01,
         7.17556179e-02, -3.38987298e-02,  3.59225310e-02,
        -5.10673225e-02,  1.06023483e-01, -4.98447148e-03,
        -1.46602867e-02,  9.75124314e-02,  3.19830654e-03,
        -6.78389296e-02,  1.65007055e-01, -4.42749448e-02,
         3.81713249e-02],
       [-5.85457198e-02, -2.67634895e-02,  7.97949731e-02,
         1.83350332e-02,  2.00142011e-01,  1.73536688e-01,
        -1.29435807e-01,  1.58154275e-02,  1.52534813e-01,
         1.80648774e-01,  9.72521976e-02,  2.32268989e-01,
        -4.10948880e-02,  1.20719366e-01, -3.82699259e-02,
        -1.80929512e-01, -2.11826041e-02, -3.80357578e-02,
         1.99087054e-01,  1.72958642e-01,  6.28942102e-02,
         2.44960234e-01,  1.29939571e-01,  1.97069291e-02,
        -1.45809185e-02,  8.94083008e-02, -1.21379130e-01,
        -1.58585310e-01, -6.76121339e-02, -1.54005617e-01,
        -2.16187127e-02, -2.10664585e-01,  2.45851465e-04,
         7.83182085e-02, -3.54542658e-02,  4.14141230e-02,
         1.21620387e-01, -2.83321403e-02,  9.66680795e-02,
         4.13923375e-02,  1.41087890e-01,  8.44228044e-02,
        -1.05319075e-01,  4.44360465e-01,  2.00659037e-01,
         6.42411187e-02,  4.65841144e-02,  3.39980237e-02,
         1.07665315e-01,  2.76942641e-01, -8.73498153e-04,
        -4.96901050e-02, -1.80277735e-01, -1.69003755e-02,
         8.87760669e-02, -1.17637776e-01,  8.59056190e-02,
        -1.42046530e-02],
       [-2.18903422e-01,  1.31546184e-02, -2.94312745e-01,
        -3.29532684e-03,  2.19948769e-01, -1.07766762e-01,
         6.77080080e-02, -1.62691362e-02,  6.71983957e-02,
         2.26950645e-01, -4.19665724e-02,  2.39382252e-01,
         4.58054878e-02,  2.88145483e-01,  8.05227533e-02,
        -9.03457627e-02, -1.37540594e-01,  1.95029363e-01,
         2.56773889e-01,  2.25219846e-01, -2.92961687e-01,
         2.97457755e-01, -6.77572414e-02,  1.39830127e-01,
        -1.28569007e-01, -9.86241549e-02,  1.53831378e-01,
        -9.63434055e-02,  1.59081519e-01, -1.97457850e-01,
        -2.20231768e-02,  2.50565469e-01, -3.21434289e-02,
         8.73586908e-02,  1.48834914e-01,  8.31089169e-03,
         8.81910920e-02, -3.03929210e-01,  1.54580235e-01,
         1.25093296e-01,  2.17141002e-01, -3.14493775e-01,
        -1.79210708e-01,  2.49065133e-03,  2.42340043e-02,
         1.80562511e-01, -4.34550643e-02,  3.75332125e-02,
        -9.47390720e-02,  9.09291953e-03,  6.10118499e-04,
        -1.95505861e-02, -1.45985126e-01, -5.66664413e-02,
         1.89437479e-01, -9.82021019e-02,  3.31396870e-02,
        -1.36942929e-03],
       [-6.29955605e-02, -4.55678813e-02, -8.81700143e-02,
         3.75990346e-02,  2.52271742e-01,  3.16391960e-02,
         2.29042415e-02, -4.46866639e-02,  1.95319012e-01,
         4.33323354e-01,  3.97597551e-01,  4.63752300e-01,
         3.63364704e-02,  4.22920585e-01,  1.08497299e-01,
         2.06425503e-01, -1.92740113e-02,  1.17337331e-01,
         4.60680544e-01,  1.98371932e-01,  1.06114365e-01,
         2.14151233e-01,  2.26025969e-01,  2.41411418e-01,
         1.73489437e-01,  1.61531359e-01,  1.07512236e-01,
        -7.41469786e-02,  1.68714911e-01, -1.04225680e-01,
         6.97600842e-03,  6.90195560e-02,  9.98735335e-03,
         3.37373838e-02, -3.20595801e-02, -6.77575823e-03,
        -4.44860244e-03, -1.67289734e-01,  1.74470514e-01,
         1.34386867e-01,  1.49852172e-01, -1.57058060e-01,
        -3.34338456e-01,  2.70754665e-01, -6.63017556e-02,
         5.93145639e-02, -1.80270504e-02,  1.86632015e-02,
         1.22933939e-01, -2.20720191e-02, -1.25442855e-02,
        -1.19689852e-03, -2.25417055e-02, -2.38514412e-02,
        -1.11726010e-02,  2.83714756e-02,  1.17302157e-01,
        -4.97311354e-02],
       [ 1.22187346e-01, -4.73555326e-02,  1.44666314e-01,
         7.88869917e-01,  2.89099868e-02,  2.50503808e-01,
        -3.32809031e-01,  4.25589345e-02, -3.22138369e-01,
         5.42377770e-01,  1.04143906e+00,  1.38323069e+00,
        -4.05110046e-03,  1.09565437e+00,  7.67922178e-02,
        -1.96185827e-01,  3.59820664e-01, -1.11176215e-01,
         6.08849406e-01,  8.03804249e-02,  4.27013010e-01,
         9.77799445e-02,  4.78274673e-01, -2.58996058e-02,
         8.19498181e-01,  3.44712228e-01, -9.03950781e-02,
        -1.47793889e-01, -9.20929462e-02, -1.05191814e-03,
        -2.95013320e-02,  5.52281663e-02, -2.62810122e-02,
         2.09412813e-01,  1.79023474e-01, -3.45911868e-02,
        -3.48424166e-02, -7.46299326e-02, -1.61657244e-01,
         3.44189942e-01,  1.33675873e-01,  3.02267432e-01,
        -3.81553650e-01,  3.95392001e-01,  1.18791997e-01,
         2.97049463e-01,  2.74866298e-02, -4.78012674e-02,
         3.29465091e-01, -3.34585816e-01, -7.26018101e-03,
         1.60539858e-02, -1.78123623e-01, -2.10288242e-02,
         4.69591282e-02,  1.08090870e-01,  6.19969517e-02,
        -3.98072116e-02],
       [ 2.44412109e-01, -1.27150044e-02,  2.09045768e-01,
         3.68985146e-01, -9.03954059e-02,  2.46106341e-01,
        -2.54598826e-01, -4.28378694e-02,  6.92317858e-02,
         1.51220113e-01,  5.54452658e-01,  3.92995179e-01,
         3.58347036e-02,  1.68774664e-01,  8.20101202e-02,
         1.82366550e-01,  2.32118875e-01,  8.66629854e-02,
         1.16570316e-01, -7.23248050e-02,  2.18792841e-01,
        -1.12269558e-01,  2.42170170e-01,  9.97909456e-02,
         3.57480824e-01,  1.91053048e-01, -5.66768460e-02,
         2.37673432e-01,  6.47388846e-02,  2.42265016e-01,
         1.13623217e-03,  7.95304924e-02, -3.82650420e-02,
         3.63830142e-02, -9.50737298e-02, -2.10221242e-02,
         3.43409106e-02,  1.30781949e-01,  1.18237294e-01,
        -2.60922939e-01,  4.49760519e-02,  1.79282665e-01,
        -1.79921910e-01,  3.23435307e-01, -4.93287116e-01,
        -2.88165770e-02,  2.07078457e-03, -2.80385148e-02,
         1.46227553e-01,  1.45033747e-01, -3.67232449e-02,
         4.48367484e-02,  2.50021189e-01, -1.40536102e-02,
        -1.17202058e-01,  1.42817954e-02,  1.89568922e-01,
        -1.36271715e-02],
       [-1.03302877e-02, -9.55084991e-03, -6.06673956e-02,
         1.52362868e-01,  1.76404580e-01,  1.78825930e-02,
         1.65803820e-01,  3.28200683e-02,  1.16394177e-01,
         3.65752250e-01,  3.48634839e-01,  4.06234950e-01,
         4.45440933e-02,  4.63862151e-01, -1.07413195e-01,
         4.08612899e-02,  1.57977063e-02,  4.92174439e-02,
         4.62850899e-01,  2.36788884e-01,  5.62978350e-02,
         1.88045785e-01,  1.73556730e-01,  1.01525664e-01,
         2.41916522e-01, -4.87323571e-03,  1.62559021e-02,
        -6.54719174e-02,  3.30906920e-02, -1.05001628e-01,
         4.28935997e-02,  5.53472862e-02, -1.42595544e-02,
        -2.06693299e-02, -8.48457068e-02,  4.07774560e-02,
         6.27504736e-02,  6.41589984e-02,  1.26749977e-01,
         2.50502111e-04, -9.06096622e-02,  1.47275463e-01,
        -8.17613117e-03,  8.96268338e-02,  1.42001212e-01,
         1.05071515e-02,  2.24801544e-02,  2.45789997e-02,
         6.11558296e-02, -1.09903507e-01, -2.40975972e-02,
         1.29663227e-02,  1.26716383e-02, -1.21549312e-02,
        -4.52467427e-02,  8.01625401e-02,  1.94991410e-01,
         2.15024687e-02],
       [ 2.87093759e-01, -7.86985643e-03,  1.83460772e-01,
         1.95958182e-01, -8.58474225e-02,  1.02665834e-01,
         1.64508671e-01,  1.59561764e-02, -1.18016161e-01,
        -4.62545156e-02,  7.11385548e-01,  2.13477075e-01,
        -3.44818607e-02, -2.44343793e-03,  2.37341002e-01,
        -1.74835920e-01,  2.21656203e-01, -2.93139905e-01,
         4.01859060e-02, -2.75541041e-02, -5.46662435e-02,
        -9.95348170e-02,  2.41445564e-02, -8.56975242e-02,
         3.05717349e-01,  3.26892704e-01,  4.41048518e-02,
         1.98672041e-01, -2.20796987e-01,  2.69780010e-01,
        -2.08384525e-02,  4.23998907e-02, -6.44833734e-03,
         2.77679022e-02,  2.46197283e-02, -3.56833753e-03,
        -3.25778872e-01,  1.77796766e-01, -1.69770390e-01,
         4.84883562e-02,  1.20415054e-01,  4.33745682e-01,
        -1.82326898e-01,  4.15552199e-01, -1.67587221e-01,
         5.39985374e-02, -4.32656817e-02, -4.15309072e-02,
         1.97339043e-01,  2.38068700e-01, -4.91645932e-03,
         1.52226854e-02,  6.55092373e-02, -9.85362194e-03,
         1.43931434e-01, -1.55341178e-01,  1.87913030e-01,
        -3.99396904e-02],
       [ 3.73188630e-02,  3.56038176e-02,  4.36713517e-01,
         6.92826211e-02,  8.77453610e-02,  2.76872486e-01,
         7.32779652e-02, -2.47213319e-02, -1.89476758e-01,
         6.81807324e-02,  6.34617090e-01,  3.90418619e-01,
         3.92424837e-02,  2.54969835e-01,  2.17325971e-01,
        -6.52039468e-01,  6.13804571e-02, -7.68216848e-02,
         1.86831634e-02, -8.40014741e-02,  1.88704923e-01,
        -4.02670875e-02,  4.41592008e-01, -3.40305060e-01,
         1.17805712e-01,  5.02776742e-01, -1.17382228e-01,
        -1.42458364e-01, -7.10581169e-02,  4.19671871e-02,
         4.01628315e-02, -2.10838661e-01, -3.89633561e-03,
        -8.23337317e-01, -3.34533006e-01, -3.56047116e-02,
        -7.40544572e-02, -8.44407678e-02, -1.12673655e-01,
        -5.24989784e-01,  5.88833153e-01,  1.32734492e-01,
         1.27964586e-01,  2.52633005e-01, -1.42194808e-01,
         3.03476602e-01, -2.08594427e-02,  1.33248500e-03,
        -1.26195893e-01,  2.00506523e-01, -3.12627107e-02,
         2.08924320e-02, -8.63368064e-02,  2.95206066e-03,
        -5.67594409e-01,  1.03910714e-01,  4.50233430e-01,
        -4.75834534e-02],
       [ 3.55394892e-02,  5.53963194e-03,  4.11147058e-01,
        -8.69087577e-02, -4.00315493e-01,  1.74869761e-01,
        -3.42744216e-02,  3.68686505e-02, -6.30164146e-01,
        -3.81619990e-01,  3.93249631e-01, -5.65725602e-02,
        -2.60797981e-03, -1.79956123e-01,  2.07430258e-01,
        -7.54516304e-01,  7.64233321e-02, -5.05381703e-01,
        -3.85246605e-01, -4.39453930e-01,  3.91962100e-03,
        -3.98598999e-01,  2.65315980e-01, -6.14953220e-01,
         1.34899886e-02,  3.33231777e-01, -4.52993512e-01,
         8.34432989e-02, -5.82729280e-01,  7.55180717e-02,
         5.18590026e-03, -4.76364315e-01, -2.99581476e-02,
        -8.22829306e-01, -4.63562071e-01, -3.45447175e-02,
        -6.12855673e-01,  4.67617400e-02, -6.08156919e-01,
        -4.92809355e-01,  3.87017339e-01,  1.27935633e-01,
         2.87251890e-01,  1.97976485e-01, -3.63937736e-01,
         2.60360867e-01,  3.59347388e-02,  3.47164050e-02,
        -1.35594308e-02,  3.58543754e-01,  2.93079368e-03,
        -3.85187194e-02, -2.50482708e-02, -5.05540408e-02,
        -6.27865672e-01,  7.14911297e-02,  2.98545569e-01,
         2.05442980e-02],
       [ 2.88490094e-02,  3.43433097e-02,  8.31108019e-02,
         3.57832015e-01,  2.99983144e-01,  6.94989711e-02,
         2.60562509e-01, -2.46670619e-02, -4.25647805e-03,
         3.54019314e-01,  1.89380929e-01,  6.56706810e-01,
        -1.56613514e-02,  5.04896760e-01,  1.24670237e-01,
        -3.67497832e-01,  7.13828281e-02,  1.91848099e-01,
         3.64040524e-01,  2.88033634e-01,  9.55339242e-03,
         1.89434096e-01,  2.86625270e-02,  3.15722138e-01,
         2.23469988e-01, -5.71708940e-02,  2.18089923e-01,
        -4.42575812e-02, -1.10286232e-02,  1.62476078e-01,
        -7.94214290e-03,  2.50305116e-01, -1.13624465e-02,
         3.71229053e-01,  2.78889477e-01, -3.10907923e-02,
         9.50778946e-02,  1.91465363e-01,  1.49412870e-01,
         2.54832476e-01, -2.16902301e-01,  1.04216382e-01,
        -2.92089969e-01,  1.77007735e-01, -1.76881198e-02,
        -8.17364082e-02,  9.84016992e-03,  1.80855747e-02,
        -9.93863463e-01, -1.61457375e-01,  9.91147757e-03,
        -1.56193804e-02,  9.95110869e-02,  1.17436452e-02,
         2.74084359e-01,  1.43094108e-01, -6.51581138e-02,
         3.96466292e-02],
       [-1.84935983e-02,  2.34797467e-02, -4.47497368e-02,
         7.63636976e-02,  1.21551543e-01, -6.66454434e-02,
        -2.42128372e-01,  1.62270050e-02,  6.89568520e-02,
         2.96229459e-02, -1.10442527e-01,  1.26752228e-01,
        -4.53448184e-02,  5.69341369e-02,  1.93357673e-02,
        -7.46185482e-02,  2.82671433e-02,  9.12397131e-02,
         2.61750799e-02,  7.77896866e-02, -1.56017235e-02,
         9.30547640e-02,  1.31383603e-02,  3.32919396e-02,
         3.43988165e-02,  2.63888035e-02, -3.92475016e-02,
         1.06364051e-02,  1.04048900e-01, -5.08954301e-02,
        -1.42059904e-02, -3.78613397e-02,  1.84576120e-02,
        -3.80774811e-02, -8.56725350e-02,  5.69005217e-03,
         2.43256256e-01, -1.23363808e-02,  1.01505801e-01,
        -7.89758265e-02,  9.97635871e-02, -1.12353470e-02,
        -8.00808053e-03, -1.04266256e-01,  2.53384769e-01,
        -1.85905322e-02, -3.95266525e-02, -1.49155697e-02,
         1.12349847e-02, -4.92456630e-02, -3.12026236e-02,
        -4.12512794e-02,  3.46256271e-02, -5.73645718e-02,
        -8.64170790e-02,  1.45974960e-02, -1.30936086e-01,
        -6.04608841e-02],
       [-1.24104768e-01, -8.44915025e-03, -1.21131977e-02,
        -4.02538739e-02,  1.82965994e-02,  6.81285337e-02,
        -9.56464037e-02, -5.86115755e-02, -1.27078414e-01,
        -5.86242899e-02, -3.23128290e-02, -4.51595038e-02,
        -3.42293978e-02, -4.35677804e-02, -1.20121628e-01,
        -2.73593843e-01, -1.30619593e-02, -1.07982814e-01,
        -2.62279045e-02, -9.65047162e-04,  1.28678992e-01,
        -6.48213970e-03, -4.64477278e-02, -3.37264538e-02,
        -4.91051599e-02,  1.37908697e-01, -1.89325716e-02,
         3.48581485e-02, -1.30994797e-01,  6.83494890e-03,
        -2.79091932e-02, -1.68568239e-01,  3.10285036e-02,
        -1.31536320e-01,  1.42185297e-02,  5.32029895e-04,
         1.63313165e-01, -1.51099548e-01, -6.03662729e-02,
        -1.33673489e-01, -7.45985880e-02, -4.91368324e-02,
         1.31287381e-01,  7.41158566e-03,  2.84386128e-01,
         4.18164805e-02, -6.65455684e-03, -2.84399688e-02,
         2.45969474e-01,  1.15788830e-02, -3.26841278e-03,
        -1.56837832e-02,  4.90086116e-02, -5.28631434e-02,
        -9.29282382e-02, -1.09282181e-01, -1.54671580e-01,
        -1.89647153e-02],
       [ 2.77246922e-01, -3.02374531e-02,  4.46383327e-01,
         4.95876312e-01, -5.49863316e-02,  2.15776071e-01,
        -6.06460348e-02,  6.83994591e-03, -2.59562820e-01,
         2.34813198e-01,  2.53382415e-01,  5.04644275e-01,
        -1.81331970e-02,  4.85314935e-01,  3.76637816e-01,
        -1.22286014e-01,  3.56702805e-01, -7.68351927e-02,
         3.00240666e-01, -5.51516041e-02,  4.84373160e-02,
        -5.78661961e-03,  1.05315156e-01, -6.90553039e-02,
         4.78434622e-01,  1.11272596e-01, -5.11398837e-02,
         3.22913527e-01, -5.09274304e-02,  2.99296379e-01,
         4.42422479e-02, -1.38441861e-01,  2.82694795e-03,
        -7.48550147e-02, -1.07183121e-01,  4.20509931e-03,
        -2.00279783e-02,  4.17230666e-01, -3.06890234e-02,
         3.11784558e-02,  1.20136455e-01,  2.05561653e-01,
         1.41431823e-01,  1.85227782e-01,  7.58287236e-02,
         9.67670530e-02,  9.70514491e-03, -7.33950362e-03,
        -1.72331011e+00,  1.16555981e-01, -3.88227887e-02,
         1.75408702e-02,  3.93489242e-01, -5.36686219e-02,
        -8.94626752e-02,  6.05788708e-01,  4.00461972e-01,
        -5.65431714e-02],
       [ 2.37799719e-01,  1.63124260e-02,  4.84747410e-01,
        -2.82852794e-03, -6.85024381e-01,  3.67749125e-01,
        -1.48969442e-01, -1.41022988e-02, -6.52882874e-01,
        -7.36460030e-01,  3.43182653e-01, -3.81878436e-01,
         1.57897384e-03, -7.06913292e-01,  2.75762111e-01,
        -9.66943562e-01,  2.07049593e-01, -9.31164861e-01,
        -7.60314345e-01, -7.24413157e-01,  2.43904833e-02,
        -6.90872490e-01,  2.71115214e-01, -9.27766502e-01,
         6.78177550e-02,  8.97923261e-02, -8.04856777e-01,
         2.14426205e-01, -8.15479100e-01,  2.21459210e-01,
        -2.47500688e-02, -8.99646878e-01,  6.75361510e-03,
        -1.05817759e+00, -8.20489645e-01,  4.48866822e-02,
        -8.47709417e-01,  2.10107476e-01, -8.30798090e-01,
        -8.20838451e-01,  6.20385170e-01,  2.72584140e-01,
         4.76074785e-01,  3.68052214e-01, -3.65948886e-01,
         4.01449531e-01, -3.46855111e-02, -4.41177413e-02,
         1.34134382e-01,  5.10958254e-01,  7.61969900e-03,
         2.00728066e-02,  2.04026639e-01, -7.68465316e-03,
        -8.14486325e-01,  1.73344940e-01,  2.19373330e-01,
         9.34668351e-03],
       [ 5.30641735e-01, -3.03437579e-02,  7.59466827e-01,
         3.09477270e-01, -9.23806906e-01,  5.65492094e-01,
        -4.32894558e-01, -4.62990515e-02, -1.00985062e+00,
        -9.27577972e-01,  2.54106373e-01, -5.72179377e-01,
         3.73710208e-02, -7.72847712e-01,  7.44332731e-01,
        -9.65536833e-01,  5.03246307e-01, -1.16125596e+00,
        -9.36371624e-01, -8.93559277e-01,  4.67419118e-01,
        -9.27629769e-01,  4.47620004e-01, -1.07549727e+00,
         3.00100505e-01,  4.22449887e-01, -9.89169717e-01,
         9.32474256e-01, -1.02137256e+00,  7.24156618e-01,
        -3.64504382e-02, -1.16156578e+00, -4.17310894e-02,
        -1.11442292e+00, -1.04625905e+00, -2.74345595e-02,
        -1.00818431e+00,  7.61620224e-01, -9.81591344e-01,
        -9.51696694e-01,  6.62588537e-01,  4.39737678e-01,
         8.15966904e-01,  5.46175539e-01, -6.33227408e-01,
         6.38309002e-01,  4.80574332e-02,  4.36979458e-02,
         4.86540228e-01,  8.18297386e-01, -1.78630892e-02,
        -8.38418957e-04,  8.34323406e-01, -6.80337707e-03,
        -1.09655607e+00,  5.37660182e-01,  3.31602573e-01,
        -2.53778826e-02],
       [ 1.45079887e+00, -5.94715364e-02,  1.60142183e+00,
         1.18087053e+00, -1.89886415e+00,  1.20249414e+00,
        -7.05717087e-01,  3.82675864e-02, -2.32386374e+00,
        -1.80851853e+00,  8.98043215e-01, -2.53740344e-02,
         1.02440603e-02, -9.95233774e-01,  1.50578129e+00,
        -2.37234902e+00,  1.45570743e+00, -2.60205936e+00,
        -1.76548171e+00, -1.88246250e+00,  1.34089112e+00,
        -2.03301668e+00,  1.26696861e+00, -2.60748959e+00,
         1.12004769e+00,  1.37908101e+00, -2.27685022e+00,
         1.71899700e+00, -2.55858111e+00,  1.49515033e+00,
         4.50677313e-02, -2.94741464e+00, -4.74154390e-02,
        -3.27635622e+00, -2.77516270e+00, -2.97520030e-02,
        -2.77734685e+00,  1.50370371e+00, -2.43223643e+00,
        -2.27163959e+00,  1.57575607e+00,  1.51846755e+00,
         1.38086748e+00,  1.30871105e+00, -1.90164638e+00,
         1.03304148e+00, -9.01587028e-03,  2.49969307e-03,
         1.39184952e+00,  1.14005399e+00,  9.98918526e-03,
         3.67966183e-02,  1.61682701e+00, -5.41099571e-02,
        -2.67211390e+00,  1.05889916e+00,  6.20520890e-01,
         1.92726851e-02],
       [ 2.05880538e-01,  4.22673151e-02,  1.36521131e-01,
         4.08676714e-02, -1.18396866e+00,  2.21320257e-01,
        -2.00774133e-01, -5.41674048e-02, -1.11552858e+00,
        -5.62668920e-01,  1.93143576e-01,  1.39506320e-02,
         4.76192124e-02, -5.51457882e-01, -1.08258270e-01,
        -1.09672511e+00,  2.07314670e-01, -1.10133684e+00,
        -6.94858968e-01, -8.73627484e-01, -1.06070884e-01,
        -1.17974758e+00, -5.94473369e-02, -9.81765509e-01,
        -1.78768579e-03,  8.09348002e-02, -6.91370785e-01,
        -1.09190978e-02, -1.17500830e+00,  2.73072533e-02,
         4.20905277e-03, -9.77479935e-01, -2.71444973e-02,
        -5.41704357e-01, -5.64606965e-01, -9.87448916e-03,
        -1.76277506e+00, -2.07652137e-01, -1.43147433e+00,
        -7.90091515e-01, -7.62850791e-02,  3.18346769e-01,
         2.32861653e-01,  1.37958989e-01, -3.12407196e-01,
         1.66959673e-01,  2.51558628e-02, -5.05996868e-05,
        -2.29973093e-01,  2.06086040e-01, -2.11201832e-02,
        -4.73937504e-02, -1.17300205e-01,  2.86257770e-02,
        -4.98039603e-01, -2.69652098e-01, -1.79150581e-01,
        -3.42365429e-02],
       [ 6.16299689e-01, -4.26129662e-02,  9.25068378e-01,
         3.46970826e-01, -1.96779060e+00,  6.24908090e-01,
        -5.13307929e-01, -3.84431258e-02, -1.85258126e+00,
        -1.53713262e+00,  4.76401240e-01, -1.68854073e-01,
        -1.89006086e-02, -1.08233213e+00,  5.52655160e-01,
        -1.74854374e+00,  5.36515892e-01, -2.06012201e+00,
        -1.44092286e+00, -1.79624414e+00,  5.77917397e-01,
        -1.93783128e+00,  5.08097410e-01, -2.17823029e+00,
         3.09910268e-01,  5.77942610e-01, -1.77447879e+00,
         7.08327651e-01, -2.10240602e+00,  5.67865014e-01,
        -1.78982727e-02, -2.09623790e+00, -4.80585434e-02,
        -2.29067755e+00, -1.99711823e+00,  1.29438564e-02,
        -2.61256695e+00,  5.27266562e-01, -2.28320909e+00,
        -1.95148861e+00,  6.22509778e-01,  7.21606791e-01,
         8.55626643e-01,  6.21364355e-01, -1.40821266e+00,
         6.85639262e-01,  5.32240756e-02,  2.66578346e-02,
         4.90684241e-01,  7.61524498e-01, -1.58572290e-02,
        -8.59048218e-03,  5.76221645e-01, -8.19554739e-03,
        -1.85481513e+00,  2.47989208e-01,  1.14126965e-01,
         4.04926874e-02],
       [ 2.32802674e-01,  3.07281427e-02,  4.10679244e-02,
         2.93848455e-01,  1.81549817e-01,  8.97074342e-02,
         4.65151891e-02,  2.74374522e-02,  1.38034329e-01,
         3.41885984e-01,  2.05304742e-01,  5.03717661e-01,
        -3.95601615e-02,  4.11942452e-01, -2.44265050e-02,
         5.71261207e-03,  1.93162516e-01,  8.03437606e-02,
         4.79958296e-01,  2.74583966e-01,  4.95293140e-02,
         2.76051790e-01,  2.06499934e-01, -6.93571288e-03,
         4.14042950e-01,  3.68471891e-02, -2.79150363e-02,
        -6.82408661e-02,  7.86308646e-02,  1.00657240e-01,
         3.22838463e-02,  1.16967216e-01, -3.44435759e-02,
         1.89043626e-01, -5.95897669e-03,  2.14971416e-02,
         2.88665388e-02, -4.96666767e-02,  1.21837050e-01,
        -1.11102583e-02, -9.90631804e-02,  2.61568397e-01,
        -5.06179273e-01,  1.35782719e-01,  2.77767517e-02,
        -5.16849533e-02, -2.13445630e-03, -2.38321181e-02,
         5.80753684e-02, -7.19197746e-03, -3.82553786e-04,
         1.18830800e-02, -6.03501908e-02, -1.63620915e-02,
         4.60467339e-02,  1.21568434e-01,  1.38099119e-01,
        -2.01977137e-02],
       [-1.10793300e-01, -3.21686380e-02,  1.62884206e-01,
        -8.33744407e-02,  2.28007168e-01,  8.04712698e-02,
         1.75793186e-01,  9.56588984e-03,  1.21334545e-01,
         3.55988711e-01,  1.73042595e-01,  3.22463244e-01,
         2.19697114e-02,  3.95686716e-01,  2.01514680e-02,
         8.38748459e-03, -1.30763590e-01,  2.10413471e-01,
         3.85918111e-01,  3.03445965e-01,  9.27354768e-02,
         2.02914685e-01,  1.96601316e-01,  2.55528063e-01,
        -2.35467106e-01,  1.46321684e-01,  1.34600595e-01,
        -8.68511274e-02,  1.12568602e-01, -1.32476036e-02,
         1.03595033e-02,  1.23356760e-01, -4.14208807e-02,
         2.03341097e-02,  1.04128636e-01,  7.24849943e-03,
         1.68605208e-01,  1.90219376e-02,  1.25212491e-01,
         1.68219522e-01,  2.60382928e-02, -4.96473834e-02,
         2.35671848e-02, -5.41183818e-03,  8.48626122e-02,
        -8.06953106e-03, -3.79898660e-02,  2.34543942e-02,
         4.05373126e-02, -8.03199261e-02, -3.61347683e-02,
        -2.29854938e-02, -3.67608294e-02, -4.44219969e-02,
         6.32205233e-02,  7.48677999e-02,  1.19016208e-02,
         1.09746177e-02],
       [ 8.99651721e-02,  1.91363934e-02, -1.81072101e-01,
         2.21516415e-01,  1.12560526e-01, -9.81155969e-03,
         1.85275540e-01, -1.05030425e-02,  1.00324444e-01,
         3.15143764e-01,  3.28699946e-01,  5.28213501e-01,
        -2.01872587e-02,  4.87191916e-01,  8.89270231e-02,
         1.58347175e-01,  2.32376710e-01,  7.50750378e-02,
         3.46531898e-01,  1.82931736e-01,  1.18967213e-01,
         2.12033823e-01,  2.58095890e-01, -8.07312503e-03,
         3.11661899e-01,  3.76675986e-02,  8.33246931e-02,
        -5.21649271e-02,  1.81309909e-01,  3.06961052e-02,
        -1.59224272e-02,  5.85158989e-02, -4.42487486e-02,
        -1.21408746e-01, -3.48480381e-02, -1.01855267e-02,
         1.48945391e-01, -8.00794363e-02,  1.66575879e-01,
         9.91310775e-02,  2.68536180e-01,  9.11608636e-02,
        -3.63881379e-01,  1.80208728e-01,  2.22373724e-01,
        -1.24454275e-01, -4.05192375e-02, -7.86922127e-03,
        -5.58705535e-03, -1.73765525e-01, -7.60441879e-04,
         4.35662903e-02, -6.19601309e-02,  4.39561084e-02,
        -1.96587574e-02,  2.48744376e-02, -9.69270840e-02,
         1.41217439e-02],
       [ 1.58806711e-01,  3.76099311e-02, -1.40036389e-01,
         2.67166197e-01,  2.08851054e-01,  8.69049653e-02,
         1.85497046e-01,  2.95296442e-02,  9.15900171e-02,
         2.56503373e-01,  4.80871141e-01,  3.44955593e-01,
        -3.18075903e-02,  2.18226671e-01,  2.95334235e-02,
         8.82573277e-02,  1.43488109e-01,  6.08505644e-02,
         2.68847913e-01,  2.17620119e-01,  1.38834193e-01,
         1.47712722e-01,  1.79476514e-01,  2.04238921e-01,
         2.17920780e-01,  1.21794499e-01,  2.04397261e-01,
        -1.19975969e-01,  8.87832791e-02,  9.34701934e-02,
         4.37760502e-02,  2.21920889e-02,  1.78814307e-02,
         8.41698796e-02,  6.32061511e-02, -2.00581793e-02,
         7.00597391e-02, -1.86889470e-01,  1.76937222e-01,
         9.27289575e-02, -1.15222111e-01,  4.24555913e-02,
        -8.53122473e-02,  2.10202664e-01, -2.30964390e-03,
         6.57826737e-02, -4.45569046e-02,  9.95717198e-03,
        -1.02747576e-02, -2.67688215e-01,  3.91651243e-02,
         2.62624603e-02, -2.15575602e-02, -2.10916027e-02,
         6.83497712e-02,  1.03537060e-01,  5.40109798e-02,
         3.72861028e-02],
       [ 2.48381585e-01, -3.41565982e-02,  1.64207518e-01,
         2.28314131e-01,  2.03363597e-01,  1.71674415e-01,
         1.03482731e-01, -2.06498858e-02,  1.27093747e-01,
         2.67271757e-01,  5.27002454e-01,  3.42825919e-01,
        -5.31154871e-03,  2.92481482e-01, -7.13249221e-02,
         8.23273659e-02,  2.25992262e-01,  1.04194961e-01,
         2.60004818e-01,  2.51572013e-01,  2.40461349e-01,
         1.35952532e-01,  1.19948089e-01,  1.42355666e-01,
         2.94632196e-01,  1.94539860e-01, -2.02244204e-02,
         1.07180171e-01,  2.00191006e-01,  2.04651356e-01,
        -3.50297205e-02,  4.83239368e-02,  1.70831252e-02,
        -8.14017579e-02, -4.45477292e-02, -4.06572483e-02,
         4.58167754e-02,  1.66526690e-01,  1.42736077e-01,
         1.61849800e-03, -1.82681307e-01,  3.32900435e-01,
        -2.70803124e-01,  2.90393114e-01,  1.33190736e-01,
        -5.74399121e-02, -4.28347476e-02, -4.20610085e-02,
         4.35025133e-02,  3.27616520e-02, -3.29419374e-02,
         9.96757299e-04,  9.67929736e-02,  2.95470357e-02,
        -2.91481148e-03,  5.37090003e-02,  8.70860666e-02,
         1.22362366e-02],
       [ 4.32516932e-01,  6.36336952e-03,  2.69518733e-01,
         7.76984274e-01,  4.82461043e-02,  3.08687180e-01,
        -1.34701967e-01,  9.23317485e-03, -1.32007807e-01,
         4.58014548e-01,  8.30944896e-01,  7.84744203e-01,
         4.33681123e-02,  5.67557693e-01,  4.05899227e-01,
        -3.07481289e-01,  5.79365194e-01, -6.57400861e-02,
         5.34873068e-01,  1.29635185e-01,  3.26964766e-01,
         5.19967116e-02,  2.81129748e-01,  1.47826865e-01,
         7.88109422e-01,  2.49611199e-01, -2.72858273e-02,
         4.37201917e-01, -8.34355950e-02,  5.00042081e-01,
         2.46735103e-02, -2.03880221e-01, -5.63269947e-03,
         2.61668488e-02, -2.09380642e-01, -3.86531241e-02,
         1.12621011e-02,  3.35019320e-01,  9.45190266e-02,
        -1.82084829e-01,  2.25561798e-01,  3.85100603e-01,
        -1.66058436e-01,  4.40473437e-01,  9.83079895e-02,
         1.56361967e-01, -2.77104191e-02,  1.15341442e-02,
         1.78498417e-01,  1.38068229e-01,  2.01101787e-02,
         2.78146863e-02,  3.95341784e-01,  2.36359295e-02,
        -4.19465005e-01,  2.75915891e-01,  4.37474400e-01,
         1.89041607e-02],
       [ 2.91229784e-01, -1.38170607e-02,  1.42311543e-01,
         5.61404586e-01,  1.51058165e-02,  1.61611035e-01,
        -9.47980359e-02,  3.16326693e-02,  8.77247974e-02,
         4.09294665e-02,  6.14211380e-01,  4.87130553e-01,
         1.06338039e-02,  2.01565132e-01,  1.23596594e-01,
        -1.78198993e-01,  3.69629592e-01, -1.03985533e-01,
         2.09516719e-01,  1.13242552e-01,  2.24534944e-01,
         1.23497561e-01,  4.33591545e-01, -7.62765408e-02,
         5.52579105e-01,  3.62516522e-01, -4.47391942e-02,
         1.49510488e-01, -1.13174237e-01,  1.39876038e-01,
         3.07724625e-03, -1.22090653e-01, -1.94588434e-02,
        -8.38222355e-02, -5.41251078e-02, -1.80033296e-02,
         2.26339116e-03, -6.17638454e-02, -1.30117312e-02,
        -1.84805006e-01,  2.43925735e-01,  2.13713124e-01,
        -1.94603473e-01,  4.16111410e-01, -1.74110830e-01,
         2.22641841e-01,  2.05198191e-02, -3.49942073e-02,
         2.53571868e-01,  5.79007715e-03, -2.24125385e-03,
        -1.23451138e-02,  1.08679183e-01, -3.68509144e-02,
         3.34565751e-02,  2.24705696e-01, -5.57836425e-03,
         1.29939374e-02],
       [ 2.63947994e-01, -2.43404638e-02, -1.17006585e-01,
         3.80295843e-01, -1.20253535e-02,  7.19477609e-02,
        -2.82103181e-01,  3.51638980e-02,  1.46460816e-01,
         1.53369397e-01,  2.81098932e-01,  3.06867599e-01,
        -1.36863105e-02,  1.70060679e-01,  1.27516419e-01,
        -2.27743894e-01,  2.58266658e-01, -1.72219977e-01,
         2.18171656e-01,  3.57316248e-02, -1.66821703e-01,
         1.12605371e-01, -7.40648136e-02,  6.10854989e-03,
         4.55351919e-01, -4.64937873e-02,  2.43365560e-02,
         1.90094143e-01, -2.31217206e-01,  8.17460045e-02,
        -3.37476283e-02, -2.31864363e-01,  3.56350914e-02,
         1.15028471e-01, -3.69876623e-02,  3.46692167e-02,
         6.96151555e-02, -1.10386603e-01,  7.66126812e-02,
         1.09081104e-01, -2.15125475e-02,  1.54126465e-01,
        -2.14017391e-01,  1.60633847e-01,  8.85001868e-02,
         3.96500155e-02,  1.77542828e-02, -4.21236502e-04,
        -2.02208683e-02,  6.54096454e-02, -2.79494524e-02,
         3.56635377e-02,  1.66109309e-01,  1.79868881e-02,
         2.84933876e-02, -1.81849346e-01,  1.04165353e-01,
         1.67452358e-02],
       [-2.64765859e-01, -3.86828072e-02,  1.31527394e-01,
        -1.43728508e-02,  7.74327442e-02,  2.96707332e-01,
         6.57276213e-02, -2.99961157e-02,  1.61164925e-01,
         3.40423286e-01,  4.22908634e-01,  4.80650216e-01,
        -1.81165878e-02,  4.80272532e-01,  5.37419505e-02,
         1.37383312e-01, -1.76860839e-01,  6.73106983e-02,
         4.02903140e-01,  8.47734734e-02,  2.30531648e-01,
         2.21706092e-01,  3.13289106e-01,  1.15149699e-01,
         6.99881241e-02,  3.09863657e-01,  1.46411536e-02,
        -1.07022725e-01,  3.75493802e-02, -1.25123993e-01,
        -2.99819596e-02,  1.49001153e-02, -3.18804868e-02,
         1.02363087e-01, -1.58568770e-01,  1.49244377e-02,
         1.37115479e-01, -2.57281195e-02,  1.00143105e-01,
         1.22067407e-01,  3.48331891e-02, -3.69135678e-01,
        -1.79239772e-02,  2.37825394e-01, -2.26599574e-01,
         1.36479646e-01,  2.90061701e-02, -4.05715331e-02,
         1.18438236e-01,  8.12272951e-02, -3.61052789e-02,
         6.67750929e-03, -1.13798514e-01, -4.42688912e-03,
         2.85398830e-02, -9.96779650e-03,  1.81816846e-01,
        -4.58820462e-02],
       [ 1.74263865e-01, -2.95416843e-02, -4.78659123e-01,
         3.69714826e-01,  2.05190569e-01, -2.55883038e-01,
        -1.06065445e-01, -2.64747180e-02, -2.30049282e-01,
         2.78294563e-01, -3.99363965e-01,  4.74225432e-01,
        -2.97987461e-02,  2.88113058e-01,  3.92623879e-02,
         2.66466327e-02,  2.26432711e-01,  7.70448595e-02,
         2.44549766e-01,  1.95346743e-01, -3.48307431e-01,
         1.16662383e-01, -2.97539473e-01,  9.20652673e-02,
         1.20452300e-01, -3.02023798e-01, -9.02951211e-02,
         3.27721089e-02,  1.35191992e-01, -1.26257390e-01,
        -4.76157106e-02,  1.17467321e-01,  1.05159674e-02,
        -1.10002264e-01, -4.54589762e-02, -1.55126993e-02,
         5.82372434e-02, -3.22959751e-01,  7.17109665e-02,
         4.09672558e-02, -3.04842163e-02,  2.02240258e-01,
        -3.63577157e-01,  4.93433550e-02,  8.35072249e-02,
         5.13086729e-02, -3.29905488e-02,  4.35751863e-02,
        -1.98881567e-01,  3.06386854e-02,  5.14263334e-03,
         8.56780633e-03,  4.71355394e-02, -1.02053527e-02,
         2.77677849e-02, -1.01913437e-01,  1.04883775e-01,
        -3.95302363e-02],
       [-2.26889417e-01, -1.69161707e-02, -3.38533893e-02,
        -2.82757699e-01,  1.88531727e-01, -1.91934090e-02,
         2.05256641e-01,  1.77702177e-02,  2.50884026e-01,
         2.31085643e-01,  8.64030346e-02,  1.93221763e-01,
        -1.47838099e-03,  2.32780546e-01, -1.43723071e-01,
        -8.94717500e-02, -2.87167758e-01,  9.71329510e-02,
         3.36719453e-01,  1.88859373e-01,  1.07109748e-01,
         1.64218411e-01, -2.64464971e-02,  1.41474143e-01,
        -2.19765455e-01,  2.90517397e-02,  1.19052552e-01,
        -1.93486899e-01,  2.11620182e-02, -2.43994996e-01,
        -4.98331562e-02, -1.28528044e-01, -3.55045460e-02,
         5.68542555e-02,  6.01367801e-02,  2.05466505e-02,
         4.13372330e-02, -1.29889607e-01,  1.79163530e-01,
         2.73466296e-02, -2.62787305e-02, -1.29218146e-01,
        -1.82770059e-01, -1.00331023e-01,  2.09347904e-01,
        -1.08706713e-01, -4.42033373e-02, -8.30545649e-03,
        -1.88351963e-02, -5.17906286e-02,  1.15314387e-02,
         3.23768556e-02, -1.39460355e-01, -6.25205711e-02,
        -7.68037736e-02, -2.35805854e-01, -1.71125785e-01,
        -1.50410403e-02],
       [ 1.75107285e-01,  1.42280636e-02,  4.10739966e-02,
         2.97905236e-01, -2.54447088e-02,  5.35656027e-02,
        -3.58688179e-03, -2.95080207e-02, -1.56142086e-01,
        -1.26887172e-01, -3.71968597e-02,  2.17219186e-03,
        -1.57048889e-02, -1.60858117e-03,  6.64203055e-03,
         1.37120470e-01,  2.99391270e-01,  1.94495171e-03,
        -2.71714833e-02,  6.88784048e-02, -1.93889543e-01,
         1.47400677e-01, -4.10625376e-02,  5.32228537e-02,
         3.07756782e-01, -2.02354491e-01,  2.61512816e-01,
        -5.63883819e-02,  2.66725332e-01,  1.74926654e-01,
         2.50801612e-02,  2.32892156e-01,  1.95972472e-02,
        -5.41629121e-02,  1.66750506e-01, -2.87785637e-03,
         1.41454205e-01,  6.63927272e-02,  1.34116903e-01,
         2.39255577e-02, -4.62413654e-02,  3.13456684e-01,
        -1.58680171e-01,  1.51615188e-01,  1.09556526e-01,
         1.32404929e-02, -3.56304348e-02, -4.08352241e-02,
         1.24070667e-01, -2.28654385e-01,  3.56338769e-02,
         8.16009939e-03,  5.26755862e-02, -5.86031517e-03,
         1.92329407e-01,  1.49209350e-01, -2.24431545e-01,
        -2.48132739e-04],
       [ 2.36725107e-01, -2.02701408e-02, -8.74208510e-02,
         2.69847691e-01,  2.68478423e-01,  5.02381800e-03,
        -4.80710864e-02,  2.86122970e-02,  2.75368299e-02,
         3.46854813e-02,  4.24228638e-01,  3.67916584e-01,
        -3.77536286e-04,  1.60014048e-01,  1.19755929e-02,
         1.08319856e-01,  2.24055752e-01,  1.99752077e-01,
         1.38958678e-01,  2.13551536e-01, -2.29342245e-02,
         2.51212388e-01,  1.49999559e-01,  1.40654743e-01,
         3.10137033e-01,  9.71847996e-02,  9.38814804e-02,
         1.65347725e-01,  1.14473931e-01,  2.56994128e-01,
         2.55325437e-02,  1.19344339e-01, -1.01252869e-02,
         1.18722424e-01,  4.21085656e-02, -3.16962078e-02,
         9.32045579e-02,  1.45549938e-01,  2.18063325e-01,
         1.53117850e-01,  7.84508064e-02,  1.68824628e-01,
        -2.94693504e-02,  2.91527271e-01, -4.79610004e-02,
         7.22853839e-03, -2.56519280e-02, -3.53750922e-02,
         9.86846983e-02,  3.55846658e-02, -2.84165610e-02,
        -2.18060799e-02,  1.43570259e-01,  9.73708648e-03,
        -5.66160269e-02,  1.68553200e-02,  3.95775177e-02,
        -5.49286269e-02],
       [ 5.94095252e-02,  1.82599556e-02,  1.77928638e-02,
         6.66210428e-04, -6.01827726e-02,  4.81224880e-02,
        -1.10001020e-01,  2.85013467e-02, -1.86239645e-01,
        -2.55733609e-01, -2.54812986e-01, -2.56601691e-01,
        -4.14941795e-02, -2.67136842e-01,  1.98803134e-02,
        -1.04712360e-01,  1.30880728e-01, -1.12600736e-01,
        -2.54000247e-01, -1.17502540e-01, -2.36979667e-02,
        -1.37969181e-01, -3.97462845e-02, -1.42261371e-01,
         7.76948454e-03, -5.17260134e-02, -8.68558958e-02,
         1.53905869e-01, -1.51123792e-01,  1.18088104e-01,
        -1.20828636e-02, -9.94502679e-02, -2.68373340e-02,
        -6.76658005e-02, -5.25363088e-02,  1.04355570e-02,
        -9.85458568e-02,  8.59305933e-02, -1.26553029e-01,
        -8.04619789e-02,  8.11715424e-03,  1.01984307e-01,
         6.98652044e-02, -4.88220192e-02, -9.68933254e-02,
         9.06398054e-04,  3.24011929e-02, -2.17096247e-02,
         1.67748015e-02,  6.11416772e-02,  1.59668252e-02,
        -4.95180003e-02,  1.00152418e-01, -2.09482964e-02,
        -8.61346722e-02,  2.34965514e-02, -3.80957127e-03,
         1.10928211e-02],
       [-1.28089190e-01,  1.59509461e-02, -8.27324241e-02,
        -1.42554402e-01, -1.07403353e-01, -1.45957664e-01,
        -9.35451537e-02, -6.73785806e-03, -5.88195361e-02,
        -5.25520220e-02, -1.50957868e-01, -1.56957686e-01,
         2.66278014e-02, -6.64195046e-02, -1.55552179e-01,
         1.52909486e-02, -1.28121316e-01,  1.14060119e-02,
        -6.49433956e-02, -1.00128956e-01, -4.31784391e-02,
        -1.06073081e-01, -4.02912535e-02,  2.84358859e-03,
        -1.42775029e-01, -5.72780073e-02,  2.64674481e-02,
        -7.16008469e-02, -5.29583059e-02, -1.15793429e-01,
         1.30528715e-02,  2.03327928e-02,  3.30096520e-02,
         8.37490708e-02,  1.50814712e-01, -8.09828192e-03,
         2.49059591e-02, -5.62018417e-02, -8.86901170e-02,
         8.40948150e-03, -1.46170959e-01, -4.82716002e-02,
        -1.32305492e-02, -1.71133816e-01, -1.41940257e-02,
        -1.30573660e-01, -4.95309308e-02, -4.09684554e-02,
         3.02565545e-02, -4.90591675e-02,  4.01270464e-02,
        -3.63583006e-02, -8.26589391e-02,  1.41714457e-02,
         5.75520024e-02, -6.76666200e-02, -4.93712202e-02,
        -5.99471293e-02],
       [-5.89561239e-02, -2.89792642e-02, -1.22069649e-01,
        -9.38788056e-02, -1.46978408e-01, -6.34284616e-02,
        -1.07363842e-01, -5.96690625e-02, -4.04812656e-02,
         7.90863857e-02,  2.21060500e-01,  2.97711678e-02,
        -2.05415729e-02,  1.18610412e-01, -1.34496257e-01,
         4.69744317e-02, -2.39401795e-02,  3.90433334e-02,
         8.38077068e-03, -2.34692805e-02,  1.77115723e-01,
        -1.94224641e-01,  1.53157339e-01,  1.27702385e-01,
        -1.04162119e-01,  1.19424351e-01,  1.20070569e-01,
        -1.26447797e-01, -1.37595637e-02, -7.05081448e-02,
        -1.83162801e-02,  4.76821661e-02, -4.55498416e-03,
         1.21262997e-01,  2.20722586e-01, -4.82256971e-02,
         1.08847067e-01, -7.43613541e-02, -6.25620857e-02,
         1.03190178e-02, -9.73304436e-02, -9.25191939e-02,
        -1.39738917e-01, -1.64978579e-01,  6.35382086e-02,
        -6.22813776e-02,  4.35899980e-02, -3.92993316e-02,
        -8.38219188e-03, -1.81900322e-01,  2.93575395e-02,
         5.59363514e-03, -1.49144053e-01, -2.87286621e-02,
         1.58925638e-01, -1.37970209e-01,  2.26612255e-01,
        -4.20191810e-02],
       [-4.32803258e-02,  3.85882482e-02,  8.91116261e-02,
         8.19376037e-02,  1.75622612e-01,  1.31789953e-01,
        -1.46818444e-01, -5.30753620e-02, -3.79980624e-01,
        -6.59484640e-02, -1.88574389e-01,  1.73094094e-01,
        -3.60358842e-02, -5.88454977e-02,  9.38244071e-03,
        -3.01833093e-01, -1.05888750e-02, -1.39671043e-01,
        -1.12593502e-01,  1.72216982e-01,  1.74156040e-01,
         8.81829783e-02,  2.24186063e-01, -6.57008663e-02,
        -1.42563894e-01,  1.21832743e-01,  2.51541063e-02,
         8.81627724e-02, -3.55089479e-03,  1.02751337e-01,
         3.33073176e-02,  5.27704507e-02, -4.26501967e-02,
        -1.21996298e-01,  2.16891803e-03, -5.28964512e-02,
         2.32057888e-02,  2.29722992e-01, -8.59205872e-02,
        -4.47147340e-02,  1.32582858e-01,  4.27152663e-02,
         1.44250885e-01,  9.98955667e-02,  2.96700329e-01,
        -1.13367833e-01, -8.23727250e-03, -1.81241091e-02,
         2.73022622e-01,  7.63422623e-02, -1.47417211e-03,
         3.16846706e-02,  5.03620058e-02, -2.96522677e-03,
         1.27789542e-01, -2.67504919e-02,  1.58041939e-01,
        -4.61131558e-02],
       [ 9.65842791e-03,  2.76010833e-03, -5.39650135e-02,
        -1.29787788e-01, -3.90004963e-02,  1.61634188e-03,
         4.74954061e-02, -4.17061076e-02,  3.69244330e-02,
        -6.59454986e-02,  3.95281799e-02, -1.17487088e-01,
        -5.29007986e-03, -4.73439321e-02, -1.02605531e-02,
         5.81114776e-02, -3.28747109e-02,  9.57011580e-02,
        -3.43870521e-02, -7.17833415e-02, -1.46257182e-04,
        -1.48601327e-02, -4.17991318e-02,  4.24702689e-02,
        -6.71351478e-02, -1.27299726e-02, -2.88847531e-03,
         6.56856075e-02, -1.60538312e-02, -4.63672839e-02,
         8.98232311e-03,  2.29441263e-02, -1.44459447e-02,
         1.50529472e-02,  5.02577275e-02, -1.99602954e-02,
        -4.66779023e-02, -3.19095626e-02,  1.45183820e-02,
        -1.59339681e-02, -6.56820238e-02, -9.60366130e-02,
         3.13573033e-02, -5.02058454e-02, -1.32292688e-01,
         7.95932710e-02, -2.02017911e-02,  2.76002958e-02,
        -2.98656933e-02,  6.34590983e-02, -2.42597498e-02,
        -9.64825228e-03, -1.81691926e-02, -4.41098250e-02,
         5.73204458e-02,  1.79658998e-02,  1.04489736e-01,
         3.71677242e-02],
       [ 7.41671845e-02,  1.35888448e-02,  9.16787833e-02,
         1.17636018e-01,  1.76757514e-01,  4.84708920e-02,
         7.09846765e-02, -2.52659321e-02,  2.66619958e-03,
        -8.12833235e-02, -4.02277917e-01,  1.56254962e-01,
         1.94439404e-02, -1.87072698e-02,  2.49813683e-02,
        -7.88697749e-02,  1.20101467e-01,  1.26493588e-01,
        -1.37945876e-01,  1.58657551e-01, -5.80359995e-02,
         1.55959547e-01, -1.07967725e-03, -1.67302806e-02,
        -1.00831706e-02, -6.26699105e-02,  2.39581615e-02,
         1.45501390e-01,  9.88260880e-02,  7.75790364e-02,
         1.53038651e-03,  8.91518593e-02, -4.06200252e-03,
        -3.68374120e-03, -3.52626964e-02, -1.41063649e-02,
        -6.94340765e-02,  6.48478344e-02,  3.63637246e-02,
         6.38441741e-02,  1.49826080e-01,  8.97793323e-02,
         1.23839512e-01,  6.10589050e-02,  1.19323649e-01,
        -8.88741463e-02, -4.77957577e-02, -3.91478166e-02,
         1.17740937e-01,  1.49703929e-02, -1.64229516e-02,
        -1.78275332e-02,  1.07145675e-01, -1.98155455e-02,
         8.05398524e-02,  4.63232286e-02, -1.07685976e-01,
        -4.84608114e-03],
       [ 1.21716745e-02, -2.26409175e-05, -3.55572104e-02,
        -6.73022345e-02, -3.14328517e-03, -9.79390228e-04,
        -7.13523626e-02,  8.13060254e-03, -1.20610580e-01,
        -7.22797886e-02, -1.96460724e-01, -2.01508462e-01,
        -5.32682985e-03, -6.63003698e-02, -2.95119709e-03,
        -2.85316370e-02, -8.74113571e-03, -4.35627922e-02,
        -7.66635090e-02, -2.92806304e-03, -1.21819660e-01,
        -1.95270386e-02, -1.08862825e-01,  1.70771908e-02,
        -1.47684403e-02, -1.26128197e-01,  2.52430160e-02,
         6.17826432e-02, -8.85761827e-02,  1.37172211e-02,
         4.98733632e-02,  6.23015612e-02,  2.19406653e-02,
         1.73856691e-02,  1.09597534e-01, -3.93422730e-02,
         6.80486262e-02,  1.69796764e-03, -6.57532513e-02,
         1.59747317e-01,  1.54973585e-02,  2.04577185e-02,
         3.17916088e-03, -1.36317149e-01,  3.39890271e-02,
        -8.21597651e-02,  5.82345109e-03, -3.36214751e-02,
        -1.58157405e-02,  4.90295477e-02, -1.29407737e-02,
        -4.96695898e-02,  5.03082089e-02,  3.48076522e-02,
         1.04672849e-01,  4.90838289e-02, -7.77326971e-02,
        -2.39914674e-02],
       [ 3.86928320e-02, -5.29690273e-03, -2.06413399e-02,
        -1.05183415e-01, -2.28480920e-01, -5.24991155e-02,
        -4.49057668e-02,  2.72849984e-02, -1.58174351e-01,
        -2.43643984e-01, -8.47086370e-01, -4.02139544e-01,
         3.82387638e-03, -1.68581709e-01, -1.32092550e-01,
         2.79947907e-01, -2.49952413e-02, -1.09668016e-01,
        -1.32446513e-01, -5.25840074e-02, -7.88862348e-01,
        -7.11815953e-02, -7.98363328e-01, -3.50069031e-02,
        -7.85583556e-02, -7.96607852e-01,  2.34826449e-02,
         1.45238549e-01, -8.27900600e-03,  2.68280180e-03,
         1.09185800e-02,  7.63462707e-02,  1.02387229e-03,
         8.47014338e-02,  8.12155679e-02, -2.61888951e-02,
         3.64587642e-02,  1.25664905e-01, -1.44954190e-01,
         1.18103087e-01, -1.45188257e-01, -4.42140363e-02,
        -6.56822249e-02, -1.41969979e-01, -1.03029437e-01,
        -3.85271430e-01, -1.51243480e-03, -4.22316976e-03,
        -2.99940221e-02, -2.70144101e-02,  2.33190283e-02,
         2.17378475e-02,  4.19920348e-02, -5.71265817e-02,
         1.52654156e-01, -2.44575948e-01, -1.10091276e-01,
        -5.78851402e-02],
       [-4.79583675e-03, -5.16454540e-02, -1.15363084e-01,
         3.48633993e-03, -2.69057080e-02, -8.55263695e-03,
        -1.22890696e-02, -3.07611432e-02,  4.13128771e-02,
        -6.44187108e-02, -6.39506280e-02, -3.93349454e-02,
         2.97037512e-03, -9.63672474e-02, -7.15093240e-02,
        -6.02769665e-02, -1.62686706e-02, -6.05890304e-02,
        -1.89753510e-02,  2.45684069e-02,  1.26698669e-02,
         1.19510191e-02, -4.02303971e-02, -1.85144190e-02,
        -2.71648029e-03, -3.38070877e-02,  1.37302624e-02,
         9.62746143e-02, -1.20642461e-01,  5.14114089e-02,
        -4.08099070e-02, -8.08496587e-03,  2.75891237e-02,
         1.00129463e-01,  2.35399529e-02, -4.97465394e-02,
         2.21899841e-02, -3.64816077e-02, -6.34470657e-02,
         8.41598362e-02, -3.60527225e-02,  3.41366306e-02,
        -3.85932848e-02, -8.62782449e-02, -1.95501670e-02,
        -4.19200435e-02,  8.25096853e-03,  1.32415863e-02,
        -5.10465205e-02,  1.63136125e-02, -1.85269173e-02,
         1.36398561e-02,  4.53079827e-02,  1.02044642e-02,
         2.00825371e-02,  6.29426986e-02, -1.22672014e-01,
         3.95740848e-03],
       [-2.56435890e-02, -6.21152855e-02,  1.75119340e-02,
        -6.68814704e-02, -1.34592161e-01, -4.96948324e-02,
        -1.16483636e-01, -4.88173328e-02, -2.25153193e-03,
        -8.68732780e-02,  2.23324969e-02, -1.11244820e-01,
         1.07726585e-02, -8.41379017e-02, -3.09488159e-02,
         3.57907563e-02, -3.61718163e-02, -5.63392825e-02,
        -8.51339027e-02, -7.65195191e-02, -1.90167669e-02,
        -7.25079849e-02, -6.90717399e-02, -3.94875817e-02,
        -8.43396187e-02, -2.61295531e-02, -7.24953646e-03,
        -1.22458432e-02, -5.19130304e-02, -6.45523369e-02,
        -1.61211621e-02,  3.94826755e-02, -3.44293229e-02,
         5.82548454e-02,  1.48989272e-03, -5.38296960e-02,
        -3.41504766e-03,  4.94722649e-03, -2.95393355e-02,
         1.84110040e-03, -1.06892295e-01, -4.70695421e-02,
         5.15062921e-02, -6.81834742e-02, -4.37201560e-02,
        -4.49398160e-02, -3.72871906e-02, -3.57644707e-02,
         7.82717466e-02, -1.98925752e-02, -3.83545458e-02,
        -2.79786214e-02, -1.72248716e-03,  1.84307974e-02,
        -1.02064887e-03, -8.18238556e-02,  4.36808355e-02,
        -4.23131771e-02],
       [-4.89609018e-02, -1.17870336e-02,  1.80527374e-01,
        -6.10024892e-02, -8.71411711e-02,  8.04378614e-02,
         4.15310524e-02, -2.43434925e-02,  2.53491662e-02,
         2.04412732e-02,  6.47730082e-02, -1.00213639e-01,
         1.56838279e-02, -2.40316195e-03, -6.15375340e-02,
         4.14859839e-02, -6.16702661e-02,  2.72113993e-03,
         6.12669997e-02, -4.46173735e-02, -3.65829393e-02,
        -3.80874798e-02, -1.67874604e-01, -4.01193760e-02,
         5.50249591e-02,  5.70128821e-02,  3.27812764e-03,
        -1.50692267e-02,  8.66494924e-02, -7.03042895e-02,
        -3.07205431e-02,  1.67143289e-02, -5.27421273e-02,
        -6.91139996e-02, -7.79496357e-02, -2.94146547e-03,
         4.38392907e-02,  7.35810027e-02, -6.47680983e-02,
        -2.49609090e-02, -2.79960185e-01, -1.51986077e-01,
        -9.85317379e-02,  9.64388903e-03, -1.02449514e-01,
        -6.28406778e-02,  6.90976623e-04, -1.36462096e-02,
         1.90171655e-02,  5.90598918e-02, -4.05219533e-02,
         3.58115584e-02,  1.35591868e-02,  4.81844228e-03,
        -7.56995380e-02, -6.67641610e-02,  1.32091075e-01,
        -4.41181250e-02],
       [-1.20704202e-03, -4.75651585e-02,  1.37732020e-02,
        -3.82727012e-02, -6.91211596e-02, -5.75441606e-02,
        -7.56877288e-02, -2.90819425e-02, -1.26380790e-02,
        -8.20036456e-02, -5.90034612e-02, -1.09330177e-01,
        -5.10366447e-02, -5.76971397e-02, -6.89109489e-02,
        -1.70684420e-02, -7.74455667e-02, -7.30289444e-02,
        -9.42032859e-02, -5.42020425e-02,  1.54029503e-02,
        -5.62237389e-02, -8.79046321e-03, -6.47558719e-02,
        -4.54129614e-02,  1.16168680e-02, -1.69777293e-02,
         6.96280524e-02, -6.59052506e-02, -2.16119625e-02,
        -4.42709923e-02, -2.48823445e-02, -5.26206242e-03,
         4.24620602e-03, -1.28065590e-02, -5.26457429e-02,
        -3.60629559e-02,  2.07228195e-02,  2.84493230e-02,
        -2.39822231e-02, -3.17804515e-02, -3.38747352e-02,
         2.92759202e-02, -8.24641585e-02,  6.50216565e-02,
        -4.56913859e-02, -2.87760869e-02, -3.93881798e-02,
         9.66067612e-03,  5.31752333e-02,  1.30543411e-02,
         7.73089239e-03, -2.89098895e-03,  1.44004412e-02,
         5.88371381e-02, -4.20506820e-02, -3.45598683e-02,
        -4.17020582e-02],
       [ 9.93878841e-02,  2.78715603e-03,  1.15000285e-01,
         1.54787645e-01, -2.69509852e-02,  6.00225143e-02,
         4.65916842e-02,  6.14882540e-03,  1.20724253e-02,
         9.74432100e-03,  4.41121757e-02,  2.35501267e-02,
        -3.79970446e-02, -2.57001445e-02, -5.51306345e-02,
         1.23423986e-01,  1.06184214e-01,  3.06293624e-03,
        -9.60796475e-02, -5.40724695e-02,  8.82978141e-02,
         3.93418819e-02, -8.63848180e-02, -8.51640776e-02,
         1.13503456e-01,  1.05481535e-01, -1.23686753e-01,
         5.26261218e-02,  2.09689662e-02,  1.46165371e-01,
         1.73614975e-02, -6.51353672e-02, -1.56645365e-02,
        -1.30467698e-01, -1.17329516e-01,  2.46856008e-02,
        -2.50851158e-02,  1.87662944e-01, -1.35383666e-01,
         4.14730944e-02, -9.49290842e-02,  1.63212553e-01,
        -2.02510171e-02,  3.57317291e-02, -2.31085569e-02,
         2.66048200e-02, -3.84946950e-02, -2.45766155e-03,
        -7.64982477e-02,  1.14053421e-01, -3.60386930e-02,
        -3.57385688e-02,  9.70637649e-02, -3.17676784e-03,
        -1.64406121e-01,  1.31613612e-01, -2.50097901e-01,
        -1.84476806e-03],
       [ 3.80109884e-02,  2.80575901e-02, -4.62364359e-03,
         4.31209393e-02, -1.02339782e-01, -3.45165096e-02,
        -2.01391742e-01, -6.10265173e-02, -5.34912609e-02,
        -2.07310706e-01, -1.85632318e-01, -1.68228313e-01,
        -3.39409970e-02, -1.57005429e-01, -3.20759043e-02,
        -1.52572706e-01,  6.38781115e-02, -1.14878744e-01,
        -2.00450540e-01, -1.21711388e-01, -5.49878553e-02,
         3.44317034e-02, -7.92755559e-02, -1.69369578e-01,
         3.16629969e-02, -4.74562831e-02, -1.55476153e-01,
         1.08592659e-01, -2.01844454e-01,  1.15661040e-01,
         5.86384675e-04, -1.30795360e-01, -2.83666719e-02,
        -4.15857844e-02, -1.70209274e-01, -4.58399504e-02,
        -5.11915013e-02,  6.52502179e-02, -8.46113935e-02,
        -5.90838119e-02,  2.22490579e-02,  1.05405979e-01,
         7.80947655e-02, -1.80466607e-01,  1.81304570e-02,
         1.62055306e-02,  1.04831615e-02, -1.79941170e-02,
         8.72825831e-02,  6.42380044e-02,  7.48292077e-04,
        -5.45347035e-02,  1.87155887e-01, -3.28576304e-02,
        -1.20859258e-01, -4.50962707e-02, -2.31462494e-02,
         2.22976040e-02],
       [-1.31662628e-02,  3.89556913e-03,  1.60561465e-02,
        -1.12445876e-02,  5.33928014e-02,  4.25051562e-02,
        -1.86089464e-02,  1.56096574e-02, -6.12870343e-02,
         2.89985118e-03, -3.57833803e-02, -4.11423966e-02,
         7.92036019e-03, -4.59378473e-02, -2.73976792e-02,
         1.82630215e-02, -9.46902186e-02, -4.69380952e-02,
         1.14166178e-02,  3.84790562e-02,  1.13908477e-01,
         3.36917043e-02, -2.05441266e-02,  7.51989847e-03,
        -1.40813589e-01, -1.97190810e-02,  2.46731695e-02,
         4.99194749e-02,  2.82346010e-02, -5.03604393e-03,
        -4.35805805e-02,  3.63035835e-02, -2.90139560e-02,
        -8.58696476e-02,  4.32676077e-02, -1.95559096e-02,
        -6.41782582e-03,  6.11576736e-02, -2.00763959e-02,
        -9.75543782e-02, -3.27139869e-02, -6.87422380e-02,
         1.68727651e-01,  1.22521020e-01,  7.43160993e-02,
         1.74917802e-01, -3.02974619e-02, -3.94886248e-02,
         5.60417362e-02, -1.11437505e-02, -1.66347641e-02,
        -5.22274300e-02,  4.78319563e-02, -4.61800024e-02,
         2.82489639e-02, -5.62672168e-02,  7.22125843e-02,
        -2.31698677e-02],
       [ 6.64199889e-02, -2.53507085e-02, -2.66774539e-02,
         2.00908378e-01, -6.27196133e-02, -9.51519907e-02,
         1.75101385e-02, -3.49467508e-02,  3.59161012e-02,
         1.42726466e-01,  3.70374769e-02,  1.47292484e-02,
        -1.31250843e-02,  7.84907937e-02, -3.02608521e-03,
        -1.53849944e-02,  8.13271552e-02,  8.29085037e-02,
         3.73228081e-02,  2.77983211e-02,  9.91431102e-02,
         4.78706174e-02,  7.78730810e-02,  8.37932676e-02,
         1.56779379e-01, -2.52956916e-02,  8.48858133e-02,
         9.29967538e-02,  8.80030692e-02,  2.64240056e-01,
        -4.68590856e-02,  2.28606127e-02, -4.46310937e-02,
        -3.34563479e-02, -1.29261270e-01,  2.01028325e-02,
         1.60028487e-01,  1.80546403e-01, -1.79156102e-02,
         8.58570337e-02,  1.03572100e-01,  3.47229242e-02,
        -6.88522980e-02,  4.51534502e-02,  2.69739795e-02,
         1.13000721e-02,  1.91567559e-02, -9.08093341e-03,
         7.78100342e-02,  2.36839801e-02,  1.30321924e-02,
        -1.47657162e-02,  1.57430649e-01,  3.23740356e-02,
        -1.05638370e-01, -2.90298183e-02, -4.63867225e-02,
        -4.06918973e-02]], dtype=float32), array([-0.05505818, -0.01482307, -0.06172984, -0.10121828, -0.04151978,
       -0.11921166, -0.03729779, -0.01312451, -0.02164798, -0.1088983 ,
       -0.1639784 , -0.11284655, -0.00315793, -0.11923026, -0.09013689,
       -0.00751445, -0.07075895, -0.01593634, -0.14327231, -0.09062111,
       -0.07752255, -0.03551177, -0.09946343, -0.05706416, -0.10378681,
       -0.08479282, -0.04068116,  0.00419868, -0.01505773, -0.05476684,
       -0.0031446 ,  0.0020624 , -0.01259029,  0.0108205 ,  0.00452658,
       -0.00471045,  0.02510623, -0.03551858, -0.01949571, -0.00149567,
       -0.04858717, -0.04580815,  0.02376894, -0.20285909,  0.00833444,
       -0.10633381, -0.00351864, -0.00315788,  0.03609136, -0.02177205,
       -0.00944079, -0.00814235, -0.00318835, -0.01580261,  0.01446813,
       -0.09062278, -0.0912421 , -0.0108838 ], dtype=float32), array([[ 7.92051032e-02,  4.31969296e-03, -4.31108959e-02,
         1.86193343e-02,  9.43735689e-02,  1.06779397e-01,
         5.00768237e-02,  6.71375319e-02,  1.43521223e-02,
         6.73993006e-02,  1.11812592e-01, -4.05189730e-02,
         8.03994667e-03,  9.85031873e-02,  1.03015371e-01,
         4.13059667e-02,  6.78911209e-02,  8.85037798e-03,
         6.65364135e-03,  8.93101692e-02,  1.25236213e-01,
         2.00699903e-02,  8.32517669e-02,  5.55171072e-02,
         4.37276019e-03,  5.57868481e-02,  6.52811229e-02,
         3.53798852e-03, -1.86518922e-01,  1.03190383e-02],
       [-4.76242490e-02, -3.12065315e-02, -7.87462573e-03,
        -2.86508612e-02, -3.79491970e-02, -6.02840073e-03,
        -4.27436084e-02,  1.32284164e-02,  2.31786650e-02,
        -1.68846902e-02,  1.42389163e-02, -2.15605423e-02,
         2.50445995e-02, -3.46666873e-02, -4.05405462e-02,
         2.68360488e-02,  4.51483428e-02,  1.03875678e-02,
        -1.28835365e-02, -1.66650973e-02, -3.79509740e-02,
        -1.90861188e-02, -1.16453255e-02, -9.15664528e-03,
         4.05406617e-02,  2.68189739e-02, -3.66033241e-02,
         3.88390943e-02, -2.32083984e-02,  4.77729179e-02],
       [-8.28278214e-02, -1.65509164e-01, -2.63545550e-02,
        -1.03172913e-01, -6.53753355e-02, -6.72786608e-02,
        -3.61766160e-01, -2.07601234e-01, -7.61363059e-02,
        -9.12545398e-02, -6.08178973e-02, -2.04576328e-02,
        -1.15231805e-01, -8.79409537e-02, -3.01002324e-01,
        -3.38057637e-01, -1.34052455e-01, -2.48771720e-02,
        -1.50905754e-02, -3.39004062e-02, -9.93274897e-02,
        -1.13379918e-01, -1.36956796e-01, -1.62668392e-01,
        -1.63845159e-02, -4.73092526e-01, -1.10757053e-01,
        -4.24677916e-02,  9.28035080e-02, -6.42480180e-02],
       [ 1.33142069e-01,  4.74453233e-02, -3.15717086e-02,
         9.88856256e-02,  1.49853453e-01,  1.15884058e-01,
         1.02917388e-01,  8.09300765e-02,  8.61584768e-02,
         1.71614066e-01,  1.32874846e-01, -5.54894991e-02,
         6.26567975e-02,  1.24566346e-01,  7.21182823e-02,
         1.29038855e-01,  6.52143359e-02, -3.94627005e-02,
        -6.17990550e-03,  1.54527843e-01,  1.18703373e-01,
         7.47087374e-02,  1.33357167e-01,  1.61630377e-01,
         1.30677931e-02,  3.51937786e-02,  1.05784148e-01,
         1.13010174e-02, -2.23485827e-02, -3.37221026e-02],
       [ 3.23084384e-01, -1.60043687e-01,  1.79733988e-03,
         3.98560703e-01, -7.24975988e-02, -8.32650065e-02,
         3.61432076e-01,  3.95912141e-01,  3.73098284e-01,
        -1.46053329e-01, -5.86997010e-02, -2.83200350e-02,
        -7.87360743e-02, -7.88869113e-02,  3.91987771e-01,
         3.78546685e-01, -4.10212800e-02,  5.34048900e-02,
        -3.04320753e-02, -7.97799379e-02, -5.97360618e-02,
         3.74638468e-01, -1.86941475e-01,  3.53970021e-01,
         3.46187726e-02,  3.33686560e-01,  3.85948062e-01,
         2.85467599e-03, -6.26758337e-02, -1.36984941e-02],
       [-4.08359990e-02, -2.39354640e-01, -6.38814550e-03,
        -1.16743922e-01, -1.77499652e-01, -1.52043462e-01,
        -2.18492851e-01, -1.09234534e-01, -9.42303687e-02,
        -1.60916537e-01, -1.44916713e-01, -2.82194987e-02,
        -2.10935682e-01, -2.35083401e-01, -1.12690039e-01,
        -1.64190203e-01, -2.31554970e-01, -1.88995041e-02,
        -8.39173123e-02, -1.48667395e-01, -2.33253032e-01,
        -7.63440654e-02, -2.04958215e-01, -1.51763842e-01,
         3.88740841e-03, -3.00215065e-01, -1.45008162e-01,
         1.35963466e-02,  1.23295486e-01, -5.69825768e-02],
       [ 2.06897259e-01, -3.66064519e-01,  2.07040012e-02,
         2.16563523e-01, -2.74487019e-01, -2.10032612e-01,
         2.08156914e-01,  2.16633379e-01,  2.88731754e-01,
        -2.32870132e-01, -1.84896931e-01,  1.71894263e-02,
        -2.92729378e-01, -1.58913583e-01,  2.22131118e-01,
         2.12158844e-01, -2.47344732e-01,  3.46815847e-02,
        -1.06222171e-03, -2.37214446e-01, -2.10371122e-01,
         2.41213664e-01, -2.82888174e-01,  2.49709174e-01,
         7.33685941e-02,  2.80729920e-01,  2.08216906e-01,
         1.49939107e-02, -1.57804221e-01, -3.73482355e-03],
       [-4.18403186e-02, -4.92880829e-02, -3.57352719e-02,
        -3.08099389e-02,  3.27077992e-02,  3.17337550e-02,
        -9.71808936e-03,  1.76037718e-02, -2.54452210e-02,
        -1.12081710e-02,  1.82661582e-02, -3.46625969e-02,
        -2.54486278e-02,  4.17944007e-02, -2.12756377e-02,
        -1.13140047e-02, -8.37985799e-03,  3.06359306e-02,
        -3.15232314e-02, -4.35121879e-02,  2.15276312e-02,
         6.84457365e-03, -4.26272936e-02, -1.40914414e-02,
         2.00978406e-02,  5.53141795e-02, -1.44398808e-02,
        -3.55495699e-02, -3.37695889e-02,  4.57865261e-02],
       [ 6.40808165e-01, -5.18293560e-01, -4.79065813e-02,
         6.41585648e-01, -4.69140738e-01, -4.78516102e-01,
         6.60045743e-01,  6.92348897e-01,  6.42174900e-01,
        -4.31695253e-01, -4.84926850e-01, -4.87319082e-02,
        -5.49279153e-01, -5.08945167e-01,  6.40958369e-01,
         6.25828743e-01, -4.95248854e-01,  1.72731001e-02,
        -5.66687398e-02, -4.32892948e-01, -4.62760150e-01,
         7.01208353e-01, -5.00313401e-01,  6.00419879e-01,
        -3.97716984e-02,  6.66859567e-01,  7.03742802e-01,
         2.56585162e-02, -2.97876805e-01, -4.16233949e-02],
       [ 8.72889534e-02,  1.88118517e-01, -6.38170689e-02,
         1.24407269e-01,  1.09086335e-01,  2.03466624e-01,
         1.00863151e-01,  5.60576208e-02,  1.14554860e-01,
         1.41029656e-01,  2.18342245e-01, -7.49206096e-02,
         1.71825096e-01,  1.23580217e-01,  4.03324775e-02,
         1.13441721e-01,  1.93300262e-01,  4.32940498e-02,
        -1.18370667e-01,  1.54893115e-01,  2.17677981e-01,
         1.24548256e-01,  1.93287775e-01,  1.12141274e-01,
         8.07502121e-03,  7.14087710e-02,  4.79303785e-02,
        -2.69568544e-02,  1.93803981e-01, -6.36792108e-02],
       [ 8.99881274e-02,  1.71018064e-01, -3.36207300e-02,
         5.03698476e-02,  1.92991257e-01,  2.20868602e-01,
         1.44499987e-01,  1.14771366e-01,  1.23513542e-01,
         1.89789265e-01,  2.52937913e-01,  3.71405808e-03,
         1.65516868e-01,  2.28115425e-01,  1.62741631e-01,
         1.31910190e-01,  1.60034001e-01, -3.03691849e-02,
        -2.98847794e-03,  2.27071986e-01,  2.33181581e-01,
         5.35811111e-02,  2.28612706e-01,  1.65241271e-01,
         1.97703391e-02,  2.85363168e-01,  1.18340611e-01,
        -1.17159393e-02,  1.17926434e-01, -1.61072630e-02],
       [ 1.49186894e-01,  1.07053205e-01, -2.39647161e-02,
         1.35554120e-01,  1.68626294e-01,  1.14388384e-01,
         1.20069154e-01,  1.06929876e-01,  1.82062611e-01,
         1.74916968e-01,  1.63273141e-01,  2.27846503e-02,
         1.10408589e-01,  1.68833762e-01,  9.81523544e-02,
         1.22800969e-01,  9.27372575e-02, -3.78166474e-02,
        -6.85715228e-02,  1.05077133e-01,  1.82275727e-01,
         1.63674980e-01,  1.78182125e-01,  1.20894171e-01,
        -1.05112139e-02,  9.63910893e-02,  1.66223973e-01,
        -5.56567386e-02,  1.91446617e-01,  2.70119887e-02],
       [ 3.19211334e-02,  3.65152247e-02,  2.81124376e-02,
         2.99958549e-02,  3.42216305e-02, -4.04050574e-02,
         4.40645367e-02,  2.89514009e-02,  3.34284604e-02,
        -2.68174652e-02, -3.61586064e-02,  4.05193008e-02,
         4.80908640e-02, -3.93829383e-02, -1.25034992e-02,
         4.05725688e-02,  3.95614766e-02,  1.05190277e-02,
         3.97199281e-02, -2.77387612e-02, -8.13455693e-03,
        -3.84150892e-02, -3.09098884e-02,  2.88167316e-02,
        -7.20934942e-03, -1.74739864e-02, -3.68258804e-02,
         3.32176574e-02,  3.83283161e-02, -2.92908400e-04],
       [ 1.74708322e-01,  9.77459699e-02,  1.69150271e-02,
         7.12259486e-02,  1.13991357e-01,  1.63019225e-01,
         5.44439517e-02,  1.40458748e-01,  1.28163442e-01,
         2.01312080e-01,  1.28866524e-01,  2.95865946e-02,
         1.48215964e-01,  2.05132917e-01,  1.10554792e-01,
         8.69088992e-02,  6.04747310e-02,  9.85229667e-03,
        -1.04527786e-01,  2.02911377e-01,  1.95966452e-01,
         1.56436577e-01,  1.04599133e-01,  1.51680201e-01,
        -4.70879339e-02,  3.58857214e-02,  9.05357301e-02,
        -6.46184757e-02,  1.89036340e-01, -2.31045135e-03],
       [-5.98227605e-03,  1.33301578e-02,  2.25480366e-02,
        -1.03517354e-01, -7.57361669e-03,  3.05162705e-02,
        -1.21987484e-01, -9.91564989e-02, -9.78146791e-02,
         3.06117665e-02,  7.53848404e-02, -4.73268963e-02,
         5.29576391e-02,  7.38447160e-02, -6.19817637e-02,
        -8.96721482e-02,  5.73773906e-02,  3.09680030e-02,
        -3.38521460e-03,  3.57554145e-02,  3.68942283e-02,
        -9.09728333e-02,  6.36120215e-02, -4.79807854e-02,
        -1.97518338e-03, -4.87110429e-02, -8.79304186e-02,
         1.27265071e-02,  3.34020108e-02, -3.08437627e-02],
       [ 5.87968528e-01, -3.44685555e-01,  4.78880666e-03,
         6.47526979e-01, -4.13952202e-01, -3.81877661e-01,
         6.46088898e-01,  6.40445530e-01,  6.58671081e-01,
        -3.66373479e-01, -3.87242973e-01, -8.74895509e-03,
        -3.64812583e-01, -3.86043936e-01,  6.01783037e-01,
         6.32149935e-01, -3.51955026e-01,  8.51537064e-02,
        -8.45874771e-02, -3.53492171e-01, -3.85569632e-01,
         6.41294360e-01, -4.44203764e-01,  6.53392792e-01,
        -4.34964597e-02,  6.35837793e-01,  6.42115295e-01,
        -1.57384947e-02, -1.21965550e-01,  1.94977950e-02],
       [ 4.90389206e-02,  6.86871111e-02,  2.25146506e-02,
         1.12837300e-01,  5.87493926e-02,  1.56998456e-01,
         5.95957227e-02,  4.28670235e-02,  8.69223624e-02,
         1.52356729e-01,  9.05371159e-02, -7.54844770e-03,
         6.81732967e-02,  1.13555625e-01,  7.38793910e-02,
         1.42583534e-01,  7.07491860e-02,  2.07678545e-02,
         5.39606065e-02,  1.03229254e-01,  1.36226431e-01,
         9.20081884e-02,  1.07672758e-01,  1.16611145e-01,
         5.25581371e-03,  3.11668590e-02,  5.21697178e-02,
        -3.75452898e-02, -9.84180272e-02,  2.76774969e-02],
       [ 2.66100705e-01, -1.65169999e-01, -2.66935378e-02,
         3.11107725e-01, -2.16388926e-01, -1.80432186e-01,
         2.93357849e-01,  3.19844574e-01,  2.38394439e-01,
        -1.28882304e-01, -1.51606128e-01, -6.07849360e-02,
        -2.40186304e-01, -1.64800286e-01,  3.04816693e-01,
         2.88841516e-01, -9.17636380e-02,  2.31496580e-02,
        -2.86342613e-02, -1.64676189e-01, -9.62541923e-02,
         2.53775805e-01, -1.85494587e-01,  2.81671047e-01,
        -3.96922827e-02,  2.38598943e-01,  2.78965354e-01,
        -3.93578224e-02,  1.13441192e-01, -8.05714168e-03],
       [ 1.05020270e-01,  1.94090247e-01, -6.35560229e-02,
         1.17544055e-01,  2.02727824e-01,  1.90451026e-01,
         1.08910121e-01,  9.12646353e-02,  8.49522203e-02,
         1.95618048e-01,  1.65750951e-01, -6.40046000e-02,
         2.48402357e-01,  2.12254047e-01,  8.14303905e-02,
         8.83075520e-02,  1.59324989e-01, -6.42968400e-04,
        -1.79198250e-01,  1.99350685e-01,  1.59764916e-01,
         1.30229220e-01,  2.05410719e-01,  1.41050532e-01,
        -4.27428074e-02,  1.43705085e-01,  1.38436809e-01,
        -1.82478726e-02,  2.09641457e-01, -4.74646613e-02],
       [ 1.54584631e-01,  3.88172083e-02,  9.74569097e-03,
         1.45039275e-01,  7.18899742e-02,  5.43841980e-02,
         1.98318884e-01,  1.93328530e-01,  1.41185403e-01,
         3.49037535e-02,  8.45982581e-02, -5.95791787e-02,
         8.96089226e-02,  4.36649658e-02,  1.74843416e-01,
         1.66367441e-01,  1.72308415e-01,  1.60298143e-02,
        -4.27064523e-02,  1.15887962e-01,  1.26472443e-01,
         1.64272055e-01,  6.86385334e-02,  2.07646340e-01,
        -2.24724635e-02,  1.62165046e-01,  1.67089686e-01,
        -1.18664447e-02, -1.07765153e-01, -1.72856671e-03],
       [-4.07799572e-01,  4.16570038e-01,  3.15970443e-02,
        -4.52877611e-01,  3.76028538e-01,  3.43878955e-01,
        -4.75595474e-01, -4.79916781e-01, -4.54713017e-01,
         3.34515333e-01,  4.23585951e-01,  6.01301976e-02,
         3.19213688e-01,  3.98306459e-01, -5.10058165e-01,
        -5.15075982e-01,  3.60918522e-01, -5.58941578e-03,
         1.02078103e-01,  3.95960301e-01,  3.52326304e-01,
        -4.98702198e-01,  3.96209240e-01, -5.08011341e-01,
        -1.81022342e-02, -3.24936122e-01, -4.66526479e-01,
         6.32767798e-04,  2.31512651e-01, -3.76975499e-02],
       [ 3.55000645e-01, -1.08227350e-01, -9.81999561e-04,
         3.83787334e-01, -1.85731202e-01, -2.10567370e-01,
         3.96754116e-01,  3.76349598e-01,  3.43370974e-01,
        -1.97084874e-01, -2.06338912e-01, -1.68795642e-02,
        -1.66934282e-01, -2.10405514e-01,  3.39470387e-01,
         3.97200316e-01, -5.73053509e-02,  9.22764242e-02,
        -1.19593717e-01, -1.62289470e-01, -2.17922002e-01,
         4.21659827e-01, -1.98913246e-01,  3.25839341e-01,
         1.23258993e-01,  4.06758845e-01,  3.92804980e-01,
         3.08685247e-02, -1.72476336e-01, -2.30418947e-02],
       [-3.41379374e-01,  3.60001683e-01, -7.75337219e-03,
        -4.57205892e-01,  3.71597916e-01,  3.60497594e-01,
        -4.43810284e-01, -4.17844474e-01, -4.08159226e-01,
         3.35506439e-01,  3.81834984e-01, -3.74538079e-02,
         3.08383971e-01,  3.22880417e-01, -4.24253255e-01,
        -4.19787735e-01,  3.39292586e-01, -1.28873259e-01,
        -2.00041272e-02,  3.69138688e-01,  3.47110987e-01,
        -4.40504909e-01,  3.33192676e-01, -4.12478715e-01,
        -2.61897873e-02, -3.76020998e-01, -4.25478280e-01,
        -5.52515313e-03,  2.20049068e-01, -4.46660481e-02],
       [ 1.00977033e-01,  1.82818383e-01, -8.35400540e-03,
         1.34101093e-01,  5.64363077e-02,  1.62043810e-01,
         1.81472823e-01,  1.27916798e-01,  1.43898740e-01,
         1.06817357e-01,  1.28996879e-01,  2.40174402e-02,
         1.47904202e-01,  1.11025296e-01,  1.38023794e-01,
         1.24369234e-01,  2.35258982e-01,  1.12407338e-02,
        -1.90923791e-02,  5.49096130e-02,  1.32232517e-01,
         1.34640276e-01,  9.61849168e-02,  1.90153494e-01,
         2.25812383e-02,  1.05916105e-01,  1.52525768e-01,
        -5.47249317e-02,  1.93613917e-01, -6.92963973e-03],
       [ 5.64850681e-02,  1.23413607e-01, -3.32421921e-02,
         6.29837513e-02,  7.42660016e-02,  1.85858980e-01,
         1.43825218e-01,  1.11369289e-01,  1.13899231e-01,
         1.66887343e-01,  1.40512571e-01, -1.49362730e-02,
         8.68488252e-02,  1.74070030e-01,  1.57221049e-01,
         1.42229214e-01, -6.43989397e-03, -3.46391648e-02,
         4.43151817e-02,  1.42248109e-01,  1.07900836e-01,
         1.04502007e-01,  1.06654637e-01,  9.77471247e-02,
        -8.58342424e-02,  1.08377539e-01,  7.34658837e-02,
        -3.88526320e-02, -8.49654153e-02, -5.34725748e-02],
       [-1.81178793e-01,  2.17001796e-01, -1.69938374e-02,
        -2.28542954e-01,  1.53188407e-01,  1.81887984e-01,
        -2.04368040e-01, -2.24425957e-01, -2.17595354e-01,
         2.36845121e-01,  2.37345427e-01,  4.32518236e-02,
         1.54947624e-01,  1.73242465e-01, -2.61394292e-01,
        -1.99516699e-01,  2.43388563e-01, -8.33816007e-02,
         5.06677106e-02,  2.13280275e-01,  2.42666095e-01,
        -2.13968292e-01,  1.41170800e-01, -1.59881726e-01,
        -5.58087677e-02, -1.72592297e-01, -2.14261264e-01,
        -7.03802798e-03,  1.09614655e-01,  8.85831751e-03],
       [ 5.42024039e-02,  7.34411404e-02, -3.11483853e-02,
         1.36408299e-01,  8.82245135e-03,  2.71335933e-02,
         9.51350406e-02,  8.87802616e-02,  8.11109394e-02,
         5.33061661e-02,  2.30810717e-02, -8.16013105e-03,
         5.43766171e-02,  3.67804468e-02,  4.89738211e-02,
         4.24272530e-02,  5.04507422e-02, -1.17822401e-02,
         2.21991185e-02,  5.55350669e-02,  6.85963407e-02,
         1.11473203e-01,  3.32785510e-02,  3.21547687e-03,
        -1.59985162e-02,  4.32706764e-03,  1.15904011e-01,
         5.04708616e-03,  3.08716446e-02,  2.89521203e-03],
       [-2.71657016e-02, -2.94405669e-02, -2.84114573e-02,
        -2.36534420e-02,  3.68250869e-02,  8.50165337e-02,
         2.31394526e-02,  2.07699481e-02, -3.55465012e-03,
         9.15226042e-02,  7.42164403e-02, -1.83766745e-02,
        -8.32562707e-03,  5.93107268e-02, -2.88512576e-02,
        -3.86952050e-02,  1.08299116e-02, -2.70430986e-02,
        -2.80128904e-02,  1.06269993e-01,  1.05937451e-01,
         3.45612690e-02,  4.58887592e-02,  3.60800698e-02,
        -2.90298555e-02, -2.47737207e-02,  2.15009507e-03,
         1.12232538e-02, -2.84114331e-01,  1.32160205e-02],
       [ 2.78755486e-01, -3.51427048e-01, -2.93194223e-02,
         3.41616362e-01, -3.67356986e-01, -3.05848747e-01,
         2.65652657e-01,  2.77257711e-01,  3.41147751e-01,
        -2.61062115e-01, -2.56492913e-01, -6.08636886e-02,
        -3.32480222e-01, -2.23239377e-01,  2.82284290e-01,
         2.43010774e-01, -3.93498749e-01,  6.76062144e-03,
         2.22536772e-02, -3.29535246e-01, -2.96447456e-01,
         3.69208157e-01, -3.64589959e-01,  2.69462526e-01,
        -4.15101275e-03,  2.36093909e-01,  2.77719170e-01,
        -4.24909294e-02, -5.72326109e-02, -1.45467627e-03],
       [ 1.00219339e-01,  5.46444058e-02,  3.70049551e-02,
         5.41168340e-02,  3.69077399e-02,  4.37602140e-02,
        -2.71178763e-02,  5.48864082e-02,  5.48023432e-02,
         1.02937981e-01,  9.80177447e-02, -4.30604443e-02,
        -1.53792594e-02,  1.33267179e-01,  6.38699010e-02,
         4.58318777e-02, -1.62977842e-03, -4.65598106e-02,
         7.51860216e-02,  5.65078780e-02,  1.17343463e-01,
        -6.53196219e-03,  1.24925219e-01,  2.19233846e-03,
        -1.14041567e-01, -5.88059314e-02,  5.39251342e-02,
        -1.71639957e-02, -1.14512272e-01,  3.31664756e-02],
       [ 2.50403211e-02,  3.71259935e-02, -4.91591953e-02,
         4.54850718e-02, -2.42673643e-02,  1.72527991e-02,
        -1.76298199e-04,  4.15416714e-03, -3.65405791e-02,
         4.36748900e-02,  1.84091274e-04,  2.13597529e-02,
        -1.70456320e-02, -3.40724066e-02,  2.65890695e-02,
        -4.24386561e-02, -2.50812364e-03,  1.04957707e-02,
         1.29806437e-02,  4.31793975e-03,  4.44027260e-02,
         3.77350696e-03, -2.84074973e-02,  3.16656008e-02,
         3.03214230e-02, -1.83780044e-02, -1.96425058e-02,
         2.08949707e-02, -1.66908503e-02, -2.02246197e-02],
       [ 1.80963039e-01, -3.04903030e-01,  2.30330285e-02,
         1.67634293e-01, -3.54486108e-01, -2.97117472e-01,
         1.53606564e-01,  1.65558040e-01,  1.50955111e-01,
        -3.49299639e-01, -3.72415066e-01,  1.51032722e-02,
        -3.85302156e-01, -2.98353612e-01,  1.32813513e-01,
         1.23702310e-01, -3.39445293e-01,  1.89637244e-02,
        -3.40217650e-02, -3.46137375e-01, -3.38264167e-01,
         1.30740926e-01, -3.02368760e-01,  1.84843823e-01,
         1.40663469e-02,  8.07988346e-02,  1.37638792e-01,
         2.17746086e-02, -2.04746917e-01, -3.37768793e-02],
       [-5.27798086e-02,  3.12425178e-02, -2.03684643e-02,
        -1.89108532e-02,  2.13077129e-03,  3.98525223e-02,
         1.75394043e-02, -2.26294305e-02,  1.99140087e-02,
         3.45397964e-02, -3.51393372e-02,  3.40395980e-03,
         6.89700106e-03, -8.06435850e-03,  4.81257103e-02,
         2.67168954e-02,  3.38818319e-02, -2.23469660e-02,
         3.62880640e-02, -1.75897330e-02, -3.84682827e-02,
         2.46532410e-02,  4.07609679e-02, -1.06672756e-02,
        -3.00305989e-02,  3.93889844e-02, -2.03443356e-02,
        -3.10803503e-02, -2.16517411e-02,  5.32691739e-02],
       [ 3.18760186e-01, -4.97539133e-01,  1.89823341e-02,
         2.87897855e-01, -3.95255566e-01, -3.73264462e-01,
         3.22562069e-01,  3.55677992e-01,  3.39894921e-01,
        -4.03611273e-01, -4.22709733e-01, -2.88994461e-02,
        -5.30972838e-01, -3.90157253e-01,  3.06966960e-01,
         3.31952780e-01, -4.94321108e-01,  5.10935262e-02,
        -7.58260339e-02, -3.60996574e-01, -4.00515467e-01,
         3.06676149e-01, -4.56802994e-01,  3.53174150e-01,
         2.72366591e-02,  2.40915388e-01,  2.87884563e-01,
         1.55144930e-02, -1.83825284e-01, -4.74093184e-02],
       [ 1.23751245e-01, -2.45864823e-01, -1.35770878e-02,
         2.38792717e-01, -2.63767123e-01, -2.61538833e-01,
         1.02316841e-01,  1.37567103e-01,  1.78203747e-01,
        -2.56611526e-01, -1.97778508e-01, -1.44778900e-02,
        -2.93627501e-01, -2.51434594e-01,  1.22100785e-01,
         9.73233134e-02, -2.54503906e-01, -6.22331053e-02,
        -6.81050196e-02, -2.68027961e-01, -2.90360987e-01,
         2.09511206e-01, -2.76085049e-01,  9.29867104e-02,
         4.18153442e-02,  3.35363522e-02,  1.64117992e-01,
        -1.55104939e-02, -1.43429739e-02, -6.08821250e-02],
       [ 3.20362188e-02,  3.91624831e-02,  4.80006449e-02,
        -4.46470119e-02, -2.05596518e-02,  2.98898276e-02,
        -1.09910304e-02,  2.65367832e-02,  1.04592182e-05,
         3.56688648e-02, -8.26756191e-03,  3.39437164e-02,
        -8.70865397e-03, -9.81863029e-03, -9.80098825e-03,
        -2.33009029e-02, -6.92781899e-03,  2.03291327e-03,
         3.06272395e-02, -2.30212137e-03,  2.26191003e-02,
         3.21330912e-02,  1.98515449e-02,  2.23775450e-02,
        -5.09510189e-03, -4.09827102e-03, -5.17387222e-03,
         4.59843613e-02, -1.45942681e-02, -4.21412475e-02],
       [ 4.35610920e-01, -1.62559837e-01, -1.93747617e-02,
         4.14145589e-01, -1.16394810e-01, -1.84533060e-01,
         3.63204449e-01,  3.48243624e-01,  4.40783381e-01,
        -1.78171009e-01, -1.67661861e-01,  1.54972710e-02,
        -1.52705789e-01, -1.37313142e-01,  3.13651770e-01,
         3.06252658e-01, -1.47866338e-01,  6.44640923e-02,
        -6.04823679e-02, -7.13323653e-02, -1.22297980e-01,
         3.80007327e-01, -1.55716509e-01,  3.26244533e-01,
        -3.20436363e-03,  1.81031555e-01,  3.63080561e-01,
         2.24464806e-03, -1.02712428e-02, -6.59694662e-03],
       [-6.54502809e-02,  4.60085161e-02,  1.06025571e-02,
        -4.80047204e-02,  7.05193132e-02,  1.06347874e-01,
        -1.71026781e-01, -4.43477780e-02, -5.48321530e-02,
         1.34364009e-01,  8.61336663e-02, -2.90128053e-03,
         6.00229353e-02,  1.78868830e-01, -1.36198878e-01,
        -1.41961902e-01,  8.68410841e-02, -3.75760309e-02,
         3.14560942e-02,  1.60146207e-01,  1.51594356e-01,
        -1.54236350e-02,  7.66807646e-02, -5.58385253e-02,
         4.56062844e-03, -2.46913359e-01, -1.11104943e-01,
        -3.53741944e-02, -4.42689620e-02, -2.75236629e-02],
       [ 2.00039700e-01, -2.03106135e-01, -2.53366027e-03,
         2.01538712e-01, -9.48491320e-02, -5.52614741e-02,
         1.95505783e-01,  1.77865982e-01,  2.73695141e-01,
        -9.94263589e-02, -4.78673652e-02, -3.20514925e-02,
        -2.20473483e-01, -2.95599923e-03,  2.61736214e-01,
         2.40918875e-01, -1.96405798e-01, -3.43421511e-02,
        -8.02542716e-02, -9.43437740e-02, -1.54596707e-02,
         2.36368373e-01, -1.74438357e-01,  2.52621412e-01,
         1.60235772e-03,  2.77485639e-01,  1.88288033e-01,
        -5.90876006e-02,  1.54033834e-02, -2.32402869e-02],
       [ 2.87645936e-01, -2.99900860e-01, -5.29340804e-02,
         2.90392339e-01, -3.64767820e-01, -3.03235263e-01,
         3.10780734e-01,  2.14963406e-01,  3.13094109e-01,
        -3.11067939e-01, -3.37397277e-01, -5.96776512e-03,
        -3.61292690e-01, -2.68109769e-01,  3.30636054e-01,
         3.17585915e-01, -2.87722260e-01,  1.22141458e-01,
        -2.57141143e-02, -3.55532050e-01, -3.36055338e-01,
         2.62475550e-01, -3.72472942e-01,  2.47771129e-01,
         5.38028963e-02,  2.44377077e-01,  3.14160943e-01,
        -4.85561676e-02, -1.95188344e-01,  2.81920526e-02],
       [-2.26169959e-01, -2.98996605e-02, -9.90954507e-03,
        -3.23492825e-01, -5.13928048e-02,  2.74679177e-02,
        -3.23788315e-01, -3.18912625e-01, -2.52474070e-01,
        -3.81276123e-02, -5.55089675e-02, -1.80585682e-02,
         1.89130334e-03, -5.80173247e-02, -3.28409433e-01,
        -2.65409708e-01, -1.94871407e-02, -1.50266653e-02,
         1.97498892e-02, -7.30953459e-03, -4.59695309e-02,
        -2.87399679e-01, -5.54870069e-02, -2.26661593e-01,
         1.60022397e-02, -3.84339511e-01, -3.05567950e-01,
        -3.43613066e-02,  1.42344132e-01, -5.84237203e-02],
       [ 8.35226849e-02,  4.23345231e-02, -4.99002635e-02,
         1.17979176e-01,  1.11032203e-01,  4.80368100e-02,
         9.32534337e-02,  6.26665279e-02,  3.10204718e-02,
         8.26095864e-02,  5.20762838e-02, -2.58692587e-03,
         7.56743476e-02,  6.12658225e-02,  1.42124683e-01,
         1.62128001e-01,  5.26613034e-02,  3.98900062e-02,
         1.25830576e-01,  9.39507857e-02,  8.15081000e-02,
         1.03770368e-01,  1.11340158e-01,  1.00427352e-01,
        -5.94245754e-02,  2.22248420e-01,  4.83865030e-02,
        -4.08979431e-02, -1.94810793e-01, -1.54583687e-02],
       [-3.27432714e-02, -2.46997118e-01,  2.72773392e-02,
        -8.32894146e-02, -1.43866435e-01, -1.94323644e-01,
        -1.12298176e-01, -1.23368688e-02, -5.55495843e-02,
        -1.58766508e-01, -2.19708815e-01,  7.02692382e-03,
        -1.85981110e-01, -1.69144973e-01, -6.83998615e-02,
        -8.73462632e-02, -2.07133085e-01,  1.92360152e-02,
        -5.44163287e-02, -1.99244067e-01, -1.85448125e-01,
         2.04845262e-03, -2.52214521e-01, -9.02865008e-02,
         9.56473574e-02, -1.59330919e-01, -4.06121798e-02,
        -3.31344940e-02, -1.62760809e-01, -4.93644178e-03],
       [-2.80183464e-01,  1.49744302e-01,  1.03008617e-02,
        -2.22820491e-01,  1.17105775e-01,  1.73528910e-01,
        -2.34255075e-01, -2.45034203e-01, -2.67559230e-01,
         1.48451567e-01,  1.04131438e-01, -1.98458117e-02,
         8.70767608e-02,  1.17314443e-01, -1.97783902e-01,
        -2.31952861e-01,  6.97396249e-02, -4.28203605e-02,
         9.88202095e-02,  1.14866406e-01,  1.54336095e-01,
        -3.01084071e-01,  1.06804676e-01, -3.00698221e-01,
        -5.58277257e-02, -2.19958469e-01, -2.76861995e-01,
         3.17092426e-02,  3.77163589e-01, -3.74759212e-02],
       [ 4.20327336e-01, -2.12978691e-01, -3.71597931e-02,
         5.01971722e-01, -1.78540513e-01, -1.17541634e-01,
         3.77469957e-01,  4.73250091e-01,  4.46787298e-01,
        -1.15415633e-01, -1.45970926e-01,  1.92614961e-02,
        -1.34868190e-01, -1.07921809e-01,  3.61222297e-01,
         3.64190400e-01, -2.66809642e-01,  1.96716525e-02,
        -1.58050656e-02, -1.71644226e-01, -1.72444686e-01,
         4.37660813e-01, -1.78229958e-01,  3.62272769e-01,
         8.19481036e-04,  3.03774863e-01,  4.90929961e-01,
         2.58009098e-02, -7.59855136e-02,  3.05596404e-02],
       [-1.72314078e-01, -1.21449046e-01, -7.78597640e-03,
        -1.53216079e-01, -1.47409454e-01, -1.74877152e-01,
        -1.87862799e-01, -1.87527508e-01, -1.86782241e-01,
        -1.45276859e-01, -1.19153269e-01,  1.95079409e-02,
        -1.03716925e-01, -1.32873774e-01, -1.51843041e-01,
        -1.48530960e-01, -1.05131231e-01,  9.50991549e-03,
        -5.38026579e-02, -1.17826171e-01, -1.94508359e-01,
        -2.21638173e-01, -1.09788574e-01, -1.82318792e-01,
         1.01167513e-02, -7.04927072e-02, -2.44491786e-01,
        -9.86789819e-05,  2.18795165e-01,  4.37176414e-03],
       [-4.85603884e-02,  4.33693342e-02, -1.33224353e-02,
         3.34036499e-02, -2.53607193e-03,  1.69596970e-02,
         3.89780998e-02,  2.00917665e-02, -3.38463560e-02,
        -2.55938265e-02,  4.72777560e-02,  3.39372866e-02,
        -9.01290309e-03, -4.07051668e-02,  2.50677019e-02,
        -4.49162647e-02,  8.07066448e-03,  3.01735513e-02,
         6.23363256e-03,  1.78477932e-02,  2.42168754e-02,
         2.39512976e-02,  2.78967596e-03, -4.52063344e-02,
         2.04821676e-03,  4.80979960e-03,  6.22443017e-03,
        -6.13509491e-03,  2.95458920e-02, -6.23296574e-03],
       [ 2.64098849e-02, -4.39876057e-02,  3.43386792e-02,
        -1.45269092e-02, -1.53537979e-02, -1.42951822e-02,
         1.65172457e-03, -3.97787504e-02, -3.63577567e-02,
         2.06934586e-02,  2.13009827e-02, -1.38805732e-02,
         3.30456495e-02, -3.80290933e-02, -2.22267658e-02,
        -2.94949207e-02, -1.39102796e-02, -3.57187875e-02,
         8.35099071e-03, -2.94374693e-02, -2.02160627e-02,
         2.48638019e-02, -3.91241312e-02,  4.38788384e-02,
        -4.77807187e-02,  1.04548708e-02, -1.57978628e-02,
        -3.77440453e-03,  3.76533009e-02,  2.12034620e-02],
       [-6.42765999e-01,  3.94517332e-01,  2.03564055e-02,
        -5.90807140e-01,  4.65162277e-01,  5.15436590e-01,
        -6.62738860e-01, -6.12210274e-01, -6.02531910e-01,
         5.07914245e-01,  4.36990023e-01, -4.01499644e-02,
         4.11796153e-01,  4.69912797e-01, -7.10619748e-01,
        -6.95263565e-01,  4.17495906e-01,  7.53664691e-03,
         6.84983879e-02,  5.00444233e-01,  4.38646495e-01,
        -6.15529597e-01,  4.58533347e-01, -6.70203507e-01,
        -7.94818066e-03, -6.22144580e-01, -6.39524877e-01,
         2.27414463e-02,  2.19416365e-01, -6.93675643e-03],
       [-4.42962088e-02, -1.50002107e-01,  7.37535395e-03,
        -1.59453377e-01, -1.65706500e-01, -7.43726417e-02,
        -1.72027409e-01, -1.35684386e-01, -1.67814046e-02,
        -8.72872770e-02, -1.10266231e-01, -5.33942394e-02,
        -1.57140404e-01, -9.08935741e-02, -1.10412650e-01,
        -1.73069596e-01, -8.82015154e-02, -3.68790440e-02,
        -8.99121910e-02, -6.60895258e-02, -1.29526481e-01,
        -1.31803364e-01, -1.23547129e-01, -9.16156992e-02,
        -4.08276990e-02, -3.00280023e-02, -5.03367335e-02,
        -1.26784872e-02, -1.04842767e-01,  5.64628188e-03],
       [-4.95216846e-02,  4.62226346e-02,  4.98931743e-02,
         3.03872526e-02,  1.29759526e-02, -2.71049663e-02,
         2.67400127e-02, -2.94687673e-02,  1.90427760e-04,
        -2.51900367e-02, -3.15081552e-02, -2.24097818e-03,
         6.78190636e-03, -8.94327182e-03, -2.21578404e-02,
         3.35935242e-02,  4.65076454e-02, -8.07243586e-03,
         3.98427285e-02, -3.15935649e-02, -1.79620087e-03,
        -2.57967114e-02, -3.92733142e-02,  3.39209288e-03,
        -1.28097665e-02,  1.64467860e-02, -3.57340239e-02,
        -1.57001615e-02, -4.90776896e-02,  8.78139585e-03],
       [-4.08343226e-02, -3.46031822e-02,  2.03602053e-02,
         4.06081267e-02, -1.01859239e-03, -4.23730277e-02,
         4.21105418e-03, -3.88306640e-02, -3.57135870e-02,
         2.45078728e-02, -3.59566063e-02,  1.66592337e-02,
        -8.40034056e-03, -7.76117714e-03,  2.69757379e-02,
        -1.24220923e-02,  5.44823408e-02, -2.60626599e-02,
         1.54046407e-02,  3.77943143e-02, -9.95356124e-04,
        -1.81086399e-02,  3.73495817e-02,  4.58544083e-02,
        -1.34475231e-02,  4.05388735e-02,  1.37250982e-02,
        -4.66931947e-02,  4.43308540e-02, -2.51750797e-02],
       [ 5.27691208e-02, -1.13721401e-03, -4.16895896e-02,
         3.12202051e-02,  7.60608763e-02,  1.19927049e-01,
        -1.89606845e-02,  1.57912988e-02,  7.48872533e-02,
         9.48991925e-02,  1.16308928e-01, -2.30880976e-02,
         4.98181470e-02,  7.75533766e-02, -5.67674190e-02,
        -1.77944228e-02,  4.73993719e-02, -2.60021761e-02,
         4.54852208e-02,  9.12398621e-02,  9.30795372e-02,
        -5.76086435e-03,  8.55364352e-02,  2.89054513e-02,
        -1.22618508e-02, -3.57923023e-02,  5.03600538e-02,
        -3.55936512e-02, -1.53412536e-01, -1.82451177e-02],
       [-2.62655318e-02, -1.00128818e-05, -1.75814610e-02,
        -1.38363745e-02,  4.60852794e-02,  6.65502856e-03,
         2.35153940e-02, -4.95344326e-02,  4.69010230e-03,
         5.20455427e-02, -9.11120977e-03,  3.05460840e-02,
         1.55904307e-03, -3.95264588e-02,  3.19396630e-02,
        -1.79114565e-02,  3.63010280e-02,  9.76137072e-03,
        -2.56033018e-02,  4.55469266e-03,  1.13246534e-02,
         4.06404771e-02, -2.21379045e-02,  4.43994217e-02,
        -7.53352325e-03, -3.14584784e-02, -5.14505878e-02,
         3.78358597e-03, -1.93502679e-02,  2.64069475e-02],
       [ 4.05022055e-02, -2.60684282e-01,  1.18362159e-02,
         1.14758819e-01, -2.78875977e-01, -3.16777229e-01,
         9.50887799e-02,  1.05421558e-01,  1.09436475e-01,
        -3.38859737e-01, -3.06681037e-01,  4.40137982e-02,
        -2.93891191e-01, -3.45166683e-01,  7.25199580e-02,
         3.78575176e-02, -2.82891840e-01, -2.20544171e-02,
        -2.08681989e-02, -3.48823875e-01, -3.13534081e-01,
         9.03590694e-02, -3.77774894e-01,  9.57340561e-03,
        -1.21273194e-02,  9.20780227e-02,  1.36336356e-01,
        -2.10659811e-03, -5.13972268e-02,  7.39738718e-03],
       [-3.76236022e-01,  4.60805684e-01, -6.96842559e-03,
