,0,1,2,3,4,5,6,7,8,9,10,11,12,13,14,15,16,17,18,19,20,21,22,23,24,25,26,27,28,29,30,31,32,33,34,35,36,37,38,39,40,41,42,43,44,45,46,47,48,49,50,51,52,53,54,55,56,57
0,-0.07489715,0.18457593,-0.01215924,0.14632602,-0.02819269,-0.014673239,-0.023484992,0.43675718,0.19481292,-0.008743743,-0.79786265,0.00533782,-0.18859625,0.01277617,-0.38458264,-0.36687315,-0.3496664,0.06783698,-0.1605866,0.17945917,-0.17993046,-0.10874503,0.24869502,-0.27728084,-0.38317075,0.025472207,-0.017340409,-0.025761485,0.17455776,0.11051102,0.05551646,-0.04828367,-0.011513049,-0.1435547,-0.33651653,0.14751998,-0.06618259,0.27749047,0.20955236,-0.25490522,0.008015198,-0.05255052,-0.018692436,-0.059138905,0.04191423,0.26207906,-0.16916034,0.45689768,0.16021301,-0.023651311,0.61556965,-0.559095,-0.034176897,0.1160938,-0.043516975,-0.3271123,-0.061528537,0.35608572
1,0.11688975,0.36644173,0.008009679,0.009462309,-0.009362975,0.3564194,1.2379501,-0.5882174,0.1699986,-0.029120795,0.82113296,-0.027743768,-0.11096326,-0.0043242574,-0.11702172,1.2027797,0.0453196,-0.37463686,-0.050162483,0.06975159,0.2919047,0.46070275,-0.058043398,0.49822047,1.5328443,0.31816536,0.75579387,-0.029453551,0.2707309,1.0969937,0.49417555,-0.32442957,-0.05441012,-0.45294076,0.77428806,-0.31261346,0.2773716,0.20666197,-0.35634446,0.18331356,-0.568987,0.30141294,-0.01096461,-0.018382477,0.013844391,0.43638423,0.15042233,-0.13432674,0.6995837,-0.05529593,-0.009418527,0.0975658,-0.7761989,0.49853444,-0.28224912,1.1967183,-0.015411791,-0.7105665
2,0.007500982,-0.24141565,-0.03670234,0.25433186,-0.050881296,-0.19160101,-0.3588671,0.2511512,-0.14522457,-0.037539963,-0.19055946,-0.01475427,-0.33048663,-0.02427696,-0.057343077,-0.50870216,0.034749407,0.14905697,-0.18686567,-0.038598552,-0.06340399,-0.1467522,-0.09173194,0.03805304,-0.5301899,-0.008658378,-0.026748532,-0.045616306,-0.10248424,-0.3413526,-0.3620531,-0.07336568,0.020259144,-0.19327636,0.03316357,0.09023628,-0.12457965,-0.14915413,0.19364206,-0.08354615,0.29914647,0.13823764,-0.01632679,0.03428748,0.12203946,-0.107415676,-0.20382419,-0.32708287,-0.0877551,0.019309042,-0.44373766,0.36523846,0.086439975,-0.27422395,0.33081833,-0.4692602,-0.008394066,0.33423495
3,0.012527721,0.12982206,-0.059760552,0.08477305,-0.030796021,0.11335951,0.050318785,-0.0099015925,-0.010092818,-0.032781247,0.14581479,-0.008565167,-0.077856995,-0.037930273,-0.07069165,-0.015317541,0.0012607854,-0.105892755,0.023874022,0.17920953,0.04253285,0.17436521,0.016802015,-0.029059693,0.12202831,0.013419264,0.054013822,0.015950035,0.060418196,-0.16523279,0.1070479,-0.06358951,-0.023105161,0.0061208587,0.142007,-0.08770198,-0.08466379,0.031420957,-0.0127302725,0.0058925934,0.1279611,0.11014869,-0.05743645,-0.012119432,-0.022818288,0.08070108,-0.04878691,-0.27413648,-0.07316192,0.01361112,-0.11310231,0.099223815,-0.05509186,0.015754938,0.047684193,0.09393835,0.025720969,-0.018752927
4,0.03935678,-0.22193937,-0.030526657,0.28949687,0.01108466,-0.0645199,-0.17079717,0.030452514,-0.17858759,-0.0073039457,0.07143249,-0.03720165,-0.25628304,-0.048199307,-0.13412657,-0.5041232,-0.024851339,0.19107126,-0.19998768,-0.021102812,-0.08229245,-0.26892418,-0.05763173,-0.05982358,-0.27648506,-0.108417526,-0.00075727166,-0.048744358,-0.052846704,-0.07375035,-0.241462,-0.019775316,0.010952863,-0.2290918,0.111936204,0.086916395,0.06992545,-0.23188533,0.20299232,-0.18352413,0.116460264,-0.043260153,0.028766405,-0.031228172,0.033670016,-0.09492305,-0.09171554,-0.31624007,-0.030873545,-0.03563776,-0.5107357,0.3746235,0.12794223,-0.041989926,0.27902547,-0.22465909,-0.0407962,0.009491603
5,-0.09563227,-1.8644968,0.008199867,-0.069137916,0.02905815,-2.164861,-1.2686826,0.20810084,-0.0012916242,0.021668876,-0.62995255,-0.052867085,-1.0370393,-0.011426102,-0.17532784,0.38710016,0.7342878,0.019640923,-0.6073497,-0.016221968,0.74414486,-1.0163468,-0.77674806,0.21991564,-0.69072276,-0.5750242,0.8993171,0.009821821,-0.52482295,0.40785286,-2.1202388,-1.7000047,-0.042077955,0.11059246,0.69016445,0.78439283,0.7445809,0.061725374,-0.19862679,0.80380535,0.46227086,-0.83223784,0.03658122,0.034606297,0.1408347,0.6373279,-1.8692437,0.030438706,0.5978594,-0.051514234,-1.3157645,-0.35925013,-0.2612013,0.18176854,-0.95436007,0.8430031,-0.038257282,0.15301657
6,0.41013184,0.044326518,-0.020331105,0.48351556,-0.038033593,-1.378848,-0.17516506,-0.5240715,-0.65124494,-0.025735267,1.0700847,-0.0439448,-1.4947429,0.016511384,-1.3328379,-0.7615951,-1.4783092,-0.25611523,0.240837,-1.8167998,-0.48560175,0.0026911176,-0.5153864,-0.8234399,-0.11931156,-0.31480333,-1.5376962,0.033661794,-0.16288364,0.5140135,-0.55365205,0.15211515,0.003099644,0.49706644,-1.4207352,1.8406359,-2.297138,-1.9289955,1.576043,-0.44863585,-1.815507,0.59675354,0.026785247,0.03380965,-1.2427422,1.5624804,-0.06998578,-0.9225332,-1.6344253,-0.024958648,0.9147913,1.328526,0.29591766,1.2774538,-0.074526556,1.3248785,-0.04372457,0.18825097
7,0.13620073,-0.008759117,0.023356233,1.1354388,0.03252096,-0.6561386,-0.66565615,-0.43568826,0.44218248,0.032187216,-0.5029355,-0.018545048,0.39429948,-0.0126128085,1.6454408,0.34829515,0.42757675,-1.6121178,-0.7310001,0.49646157,-1.5673388,-0.07011595,-0.49600703,0.63432693,-1.2322063,-1.3407809,-1.1939479,-0.018812895,-2.0929666,-0.534095,-0.50821173,0.13607025,-0.0652141,-0.48050818,-0.006028232,1.4241333,-0.13526952,1.0740445,-0.9238114,0.3969162,0.3575251,0.9811072,0.042146504,0.011184474,0.085106246,0.35159624,-1.729545,0.5462622,-0.2761394,0.028711721,0.8721099,-1.7382933,-2.0911663,-0.36898407,-2.2916431,-0.9191516,0.038688608,0.83348185
8,0.09431001,-2.1825752,0.022937369,0.574044,-0.01452898,-1.4590585,-0.4158149,-2.6074693,-0.83910495,-0.028616987,-0.22339474,0.036931768,0.49881977,0.04334266,0.42154685,-0.007060951,-0.14046612,-0.14950807,-3.825491,0.2772563,0.29178452,-1.6251167,-1.2544798,-1.7343098,2.1762288,-3.324244,-0.03093319,-0.040611766,-1.3437299,0.1302969,0.0791749,0.8692549,0.036953773,0.73246205,-0.13539873,0.10695871,0.8364917,0.012087871,-0.56399256,-0.17025447,-1.2200485,-0.7488502,-0.04496345,0.020648206,-0.16488947,-3.93123,-0.58701754,0.9864045,-0.86552304,-0.043308526,0.78029543,0.93961895,-0.45876193,1.0177975,-3.3301773,0.3498181,-0.03463419,-2.5815728
9,-0.012155827,0.2731905,-0.037301905,0.069790065,-0.045393255,0.019779833,0.26744822,0.040264852,0.0031632697,0.015260591,0.094485946,-0.018430982,-0.103410445,-0.028253341,0.040631287,-0.084565714,0.26143497,-0.12773573,0.46471134,-0.016080977,0.016562099,0.37903607,0.08647376,-0.05857277,0.11539923,0.28341305,0.045639884,0.008006968,0.1461666,0.023802074,0.29717946,0.19929127,0.0010127942,0.26131707,0.1920219,0.05595358,-0.07795111,0.06949447,0.069277465,0.15075898,0.14671774,0.1978267,0.008928211,-0.043837465,0.12869179,0.2214289,-0.10874375,-0.2508067,0.052509733,-0.025129246,-0.22847208,-0.057248212,0.056259733,-0.15287992,0.46863955,-0.02878308,0.029819692,0.09402352
10,-0.06258851,0.14243221,-0.058401126,0.11875791,-0.045460597,0.28478637,-0.014556151,0.14777939,0.17590298,-0.02058145,-0.036894724,0.034207523,0.06269114,-0.03921182,-0.10560459,0.33312806,0.016954795,0.21301734,-0.6081031,-0.6394546,0.035981912,-0.28537175,-0.54297364,-0.10853292,-0.028966814,0.1009868,0.18403782,-0.022323979,-0.31950772,-0.5476953,-0.30487564,-0.0017012823,-0.0067747855,-0.7321831,-0.13647106,0.21824491,0.21378519,0.44590878,0.38635612,-0.27675927,-0.41184968,0.4561415,-0.0030539203,0.014855882,0.07714142,0.38594365,0.09403983,0.048539553,-0.03827,0.024182921,0.010594285,0.0842902,-0.44670275,0.015563126,0.3485664,0.26057607,0.029937876,-0.3440582
11,0.061066438,-0.12416635,-0.010321371,-0.17980315,-0.04914943,-0.02114363,0.031757407,-0.53941417,0.002526779,0.008783085,-0.50568485,-0.0042224154,0.10342491,-0.010179542,0.1272597,-0.110984296,0.04319244,-0.7345047,0.29595923,-0.017757593,-0.0113793,-0.5438033,0.21067734,-0.4196881,-0.033140663,-0.61746997,-0.0034742453,0.00985973,0.49921903,-0.17140327,0.21009071,0.29926863,0.038786676,-0.19709331,-0.24211408,-0.19356866,-0.2391379,-0.29450807,-0.2944056,0.19881624,-0.76132816,0.09520312,0.024485314,-0.050594676,-0.5767494,0.13123927,-0.3631425,-0.4507581,-0.27631268,0.009067291,0.2201103,0.4154906,-0.30295768,-0.92628354,-0.07821348,-0.5378153,-0.00815005,0.17115322
12,0.18658191,0.08588065,0.005951729,0.5932646,0.011180032,0.009200119,-0.24237323,-0.052929856,-0.7968137,0.0016267047,-0.051183995,0.019366039,-0.20821464,0.008302558,-1.2965797,0.28539476,-0.7608124,0.49905106,0.26045617,-0.57619727,0.45088232,0.3659758,0.012979624,-0.26497447,0.4192385,0.20146887,0.4967649,-0.003117703,-0.45692873,0.04896883,0.12624517,0.21651661,-0.03973379,0.34214157,-0.1587507,-0.04734459,0.026900934,0.054981943,-0.44776753,-0.07325324,-0.21985467,0.29311243,-0.0036395304,-0.0144023355,-0.014865264,-0.16212215,0.024645668,-0.5169195,-0.5906469,0.015383919,0.21020046,0.4407633,-0.6645322,-0.63259923,-0.3246586,-0.32456368,0.014891883,0.14194112
13,-0.009869145,-0.028516097,0.022848994,0.09099863,0.03733701,0.06915339,-0.16547132,0.46151888,0.37355432,-0.05067508,-0.106875256,0.015140925,0.28284395,-0.018091,0.30959338,0.3074508,-0.63197607,0.3094168,0.32782468,-0.29720733,0.13303114,0.085429095,-0.09776987,-0.41843265,0.30590457,0.07920192,-0.16049318,0.0053784736,-0.022827234,-0.2619085,0.032278467,-0.15560476,0.013595619,0.12917802,0.22304727,-0.03619823,-0.23530972,-0.17100698,0.16267549,-0.15402022,-0.7668856,0.3980999,0.039199926,-0.03128791,0.074582815,0.29714647,0.17728499,-1.3328629,-1.122775,-0.03034188,0.4523616,-0.026667457,0.07952474,-0.22814383,0.33097783,0.1723817,0.016046235,0.25385955
14,0.07805931,-0.6225383,0.0054828636,0.11077471,0.03045542,0.11316894,0.20505852,0.32530925,0.037653796,0.037608787,0.3943644,0.008426346,0.44554523,0.0066706315,0.42810044,-0.13723786,-0.25215364,-0.12613186,-0.0012677149,-0.20204155,0.39093596,-0.13284029,-0.3410581,0.55010164,0.52168596,0.040800728,0.3699719,-0.0027845874,0.040003512,0.4457159,-0.5610365,-0.5693662,0.015553153,0.10330691,0.14016542,0.27311376,-0.0012721975,-0.9296208,0.24426363,0.8394134,-0.4693433,-0.7320707,0.02175491,-0.03467723,-0.06304468,-0.11621185,-0.7656324,0.023646412,0.29837778,0.013155461,0.53835166,-0.24400668,0.05756659,0.16308126,-0.6352847,0.7894131,0.014416126,0.6344338
15,-0.022526545,0.33242396,-0.035140928,-0.40356264,0.011133384,-0.2517167,-0.296457,-0.03398934,-0.09902956,-0.028948665,0.11291579,-0.0035355575,0.10075149,0.010909844,0.49930048,0.31665137,-0.015966786,-0.161452,-0.27531803,0.22684924,0.4250522,0.35804734,0.17994256,0.3385546,-0.32117492,0.15282676,-0.023186663,-0.01412208,0.06359779,-0.347397,-0.9360007,-0.28180417,0.032458507,-0.2180797,-0.06358575,0.012779315,0.01355174,-0.17629948,0.27052528,-0.15209298,0.096568644,-0.1639436,-0.03553506,-0.0480731,-0.025438223,-0.049969062,-0.5625041,0.29124612,-0.005692727,-0.028227463,-0.004290823,0.12737499,-0.20491137,0.47898132,-0.2297198,0.14851554,0.023114119,-0.23969737
16,-0.07864539,0.108985,0.032576375,-0.865517,-0.02752136,-0.24454497,-0.038787983,-0.060515642,-0.28264296,-0.0033397903,0.12916261,-0.024413586,-0.6825983,-0.047677066,0.08829766,0.19645852,0.49027446,-0.051451117,0.37076357,0.22847019,-0.40560782,-0.17328174,-0.07082742,0.009383199,-0.24750231,-0.05328768,0.2548212,-0.002971936,0.0472805,0.19590351,0.32145384,0.13959673,-0.044405367,-0.04460341,-0.031702895,-0.26274204,-0.5627379,-0.1517695,0.09094851,0.30481413,0.018988047,-0.15853973,-0.013453481,-0.047525655,0.061486527,0.0473295,-0.26148146,-0.08953838,0.0063172504,-0.028294103,0.114862554,0.022024676,0.26976287,0.010687577,0.17466207,-0.299562,-0.06531231,-0.37684298
17,0.07233037,-0.3290116,-0.050654788,0.32253823,0.0348648,0.26312992,-0.18505377,0.40712646,0.19397682,0.00031812955,0.39908737,-0.04357974,-0.6150988,-0.022669828,-0.24777237,-0.27928925,0.24477175,-0.9520154,-0.19317484,0.40360415,0.42449358,-0.31357455,-0.70537835,0.5076533,-0.5439754,-0.85864174,0.47786394,0.03193045,0.06692693,0.029350571,-0.7134737,0.6631291,-0.035303887,0.0533495,-1.655314,0.23688403,0.0672665,0.055698752,0.14079005,-0.40182316,0.837247,-0.23521516,-0.047965992,0.017223943,-0.5753012,-0.5988016,0.3391307,-1.1009611,-0.39285785,-0.008340475,0.7077173,-0.29631123,-0.40818822,-0.0828265,-0.17497152,-0.42476994,0.010312061,-0.8236552
18,-0.39425433,-2.144881,-0.0010631798,-0.9489333,0.0008253611,0.41165435,0.176378,-1.675199,-0.09302126,0.014052684,-2.857898,0.027670588,-0.8623175,0.022116091,-0.086778216,0.29815647,0.29994798,1.1571048,0.83022124,-0.27122602,-2.6558044,-0.39500564,-0.99673676,0.32078183,1.4845479,1.6434919,-0.9192863,0.0464483,-0.9806445,-0.18431655,0.42872483,0.35954243,-0.053793047,0.65664536,-0.2573778,-2.2452934,-0.56504077,-1.0125358,-2.5772927,0.3697833,0.1588034,-1.4736265,0.024743149,0.04479997,-1.3968649,0.84696347,-0.18800573,-0.33800074,-0.23931277,0.0040478935,0.04351911,-0.19514799,-1.0298407,0.6620477,1.3593564,0.26837608,0.039386,0.16774534
19,-0.55983937,-3.1296985,-0.035506833,-0.52109665,0.031263217,0.6995582,0.15317428,-1.5791199,-0.4003831,-0.030674681,-2.1904972,-0.040843986,-0.6452597,-0.0027910247,-0.009618144,0.17320715,-0.24058072,0.18979134,0.13366258,0.36585808,-1.5995007,-1.600189,-0.5134776,-0.4923199,0.47893548,0.050470714,-0.7018119,0.023866523,-0.5237327,-0.30484214,0.11867186,-0.8275313,-0.022391576,-0.15066113,-0.5767913,-1.8522004,0.19831154,-0.44552088,-1.8317869,-0.03890892,0.37504897,-2.2625914,-0.03854591,0.036195748,-0.8426626,-0.6175288,0.041870873,-0.27881646,-0.3077092,-0.033491246,0.3073135,-1.1878724,-0.74761266,-0.08018363,0.17826042,0.22357732,-0.03074843,-0.6612283
20,0.17182104,0.27832434,-0.03259125,0.2550024,0.017379036,-0.02493535,0.8948386,0.2955182,0.5137852,0.02706844,-1.129773,-0.006157052,-0.3829573,0.01231277,0.45661163,-0.3416722,-0.27785268,-0.34177768,-0.11694034,0.006115937,-1.0113387,0.5520114,0.014649688,0.6639445,1.2275743,-0.25218806,0.6428199,0.027732242,-0.11890246,0.10280206,0.54231536,0.8828217,-0.026722664,0.7283319,0.028223665,0.4954354,-0.53095585,-0.4043685,0.007110065,-0.5657778,0.47249472,-0.17616259,0.007122931,0.04377589,0.029193895,-0.27320775,0.30186647,-1.474988,-0.33372074,-0.022338241,0.42720973,0.52867514,-0.50886434,0.41895795,-1.1542121,-0.291803,-0.032678045,0.19894072
21,-0.16724119,0.33526054,-0.016162036,-0.38817164,-0.00473226,0.2264535,0.27992845,0.10954512,-0.057176664,-0.0028122845,-0.35703126,0.004881985,-0.09961201,-0.049195647,-0.1663629,0.09327111,0.024657907,0.3244245,0.36512733,-0.15936439,0.036935322,0.15655892,-0.14386603,0.107607834,0.2976821,0.2388014,-0.15590486,-0.034664772,-0.062495068,0.26203978,0.35630694,0.17343602,-0.029755643,0.3377573,0.14238034,-0.13075693,-0.06174577,-0.025385816,-0.4168259,0.15438192,0.101508886,0.14282201,0.00780137,-0.023610268,-0.07787229,0.47409973,0.08993259,0.042630434,-0.16058306,-4.6596673e-05,-0.17980433,0.21198352,0.004755511,-0.118626975,-0.103960596,0.10744341,-0.042581495,0.20745786
22,-0.28586853,-0.1618681,0.0034799431,-0.3973775,-0.04720459,-0.7649983,-0.36540243,0.06509229,0.08604169,-0.028708898,-0.028290631,0.023381313,-0.59690636,-0.041487314,0.021022169,-0.048432153,-0.1499485,0.082186334,0.046184696,-0.11490866,0.7055315,-0.5308569,-0.30547658,0.51615226,-0.4603337,-0.11364969,0.33533192,0.03309648,0.013347649,0.47779194,0.13033824,0.81029624,-0.05632404,-0.26732507,0.5375332,-0.44614053,0.093366906,-0.020212341,0.1647793,0.66850585,-0.35711932,0.09992407,0.037023306,-0.048670836,-0.18754381,0.5634927,-0.29748896,-0.24740748,-0.3004754,-0.040921148,-0.50133216,-0.08834424,-0.05781375,0.21034496,-0.1996348,-0.2776512,-0.039905846,-0.038714144
23,-0.125654,-0.13838442,-0.035484254,-0.21577406,0.002221741,0.52206725,0.63985103,-0.2191011,0.30642727,-0.0033828847,0.029853607,0.009946178,0.19467214,0.04665247,-0.9447733,0.39783454,0.25747904,0.34746665,0.35048372,-0.31970236,-2.235055,-0.09604314,0.21189225,0.2462546,-0.088241175,-0.09917645,-0.34294003,0.014987957,0.25915033,0.21960448,0.009124398,-0.1895284,-0.009293646,-0.30506057,0.83544374,-0.044493172,0.03305528,-0.32276186,0.039314087,0.28695732,0.6995332,-0.2653318,-0.014671804,-0.027264198,1.2242973,-0.1009731,0.2412756,-0.9709071,0.021436337,-0.076515585,0.3278641,-0.1748987,-0.09195898,0.5559456,0.16775839,0.36014375,-0.010871698,-0.1263964
24,-0.8681221,-2.4308124,-0.062554196,-1.1126903,0.027161896,-1.5733416,-1.8569839,-0.92188346,0.18974867,-0.015330006,-1.5574578,0.023507897,1.208064,0.0422243,-0.28725573,-0.257409,0.45761254,-0.10820668,-0.5675538,-1.0635855,-0.6252929,-1.4774559,-0.35473135,-0.08092635,-1.6090735,-1.0440923,-1.4561864,0.03322694,-2.1139603,-0.11842017,-0.00685622,0.5640383,-0.0051690317,-1.067867,-0.82209,-1.2483468,1.8360057,-0.36952084,-2.3689346,-0.73980314,-0.8482893,-1.13056,0.016135316,-0.025731638,-0.9710399,-2.199922,-1.1406274,-0.04588037,1.8843949,0.0077935527,-0.16111122,0.17871636,-2.2147417,-0.097824045,-0.30533022,-0.51622397,0.029726647,-0.5521296
25,-1.1396617,-2.4994624,-0.022874875,-2.152571,0.04263972,0.07150008,-0.68255407,-1.3964726,1.3716732,-0.0655823,-1.3927833,0.033029567,1.2497146,0.004442595,0.92603266,0.4732145,0.95790195,-1.5690647,-1.5388541,1.2095422,1.4505309,-2.6521387,0.64967656,0.59528863,-1.2913666,-2.4196324,0.317041,0.0059558973,-1.7300253,-0.9396012,-1.0503336,-0.5462846,0.040110987,-1.8652453,0.030594734,-2.0415072,1.5504094,1.4332101,-2.1689088,0.241956,0.46229842,-2.3770068,0.025407858,0.02829953,1.1898609,-2.0334423,-1.1155868,0.35356674,1.2744348,-0.0662317,0.38268977,-1.7134053,-1.9278436,0.8924992,-1.7174597,1.1640347,-0.056858912,-1.9848247
26,-2.4956083,-5.861597,-0.048268292,-2.8591123,0.03228623,0.6013374,0.020339033,-4.6382346,1.2149341,0.04787136,-3.7755427,0.028158315,-0.30112305,0.005518295,1.597594,-0.011578288,1.4492203,-4.7652297,-4.21435,0.2985944,0.8675898,-5.051857,1.1432177,0.7840798,-1.110705,-10.008766,-2.5458345,-0.005828906,-1.9068667,-3.5575829,-0.8491469,0.2069575,0.024644952,-3.689793,0.52814645,-4.6645846,1.6098206,0.66841906,-6.7197056,0.61936504,-0.59428644,-3.515357,-0.050061557,0.04957678,-0.022829536,-5.846331,-5.2811694,0.0934297,0.45370454,-0.05399502,-1.8950939,-3.4033606,-1.318059,-0.4052917,-2.5931058,0.9624055,0.052440107,-4.468945
27,-0.6402379,-1.6578358,-0.010009872,-0.57055223,0.011188561,-1.4969223,-1.9601947,-2.9633853,-1.7914215,0.014143639,-0.9880353,0.0022842293,0.53361946,0.04775882,-1.0240834,0.9157648,-1.121403,-2.7445977,-0.52242446,-0.65659785,-0.92410845,-1.0982434,0.035892628,0.5200405,-0.35288608,-4.536708,-1.951804,-0.015974034,-2.540501,-1.3818339,0.14212963,-1.0869898,-0.023507828,-1.8254989,0.17140917,0.24755375,0.16189529,-0.8122491,-3.1129632,0.5148894,0.24594474,0.7464445,-0.047366966,-0.014393625,-1.2271466,-2.2048988,-3.0721965,-0.27706617,-0.35041177,-0.045889873,0.0732584,-0.09726329,-0.007206093,0.36580798,0.8075233,-0.6130894,-0.026163349,-0.7379316
28,-1.9322133,-3.775893,0.03092662,-2.0770917,-0.016551824,-0.658521,-1.130381,-3.6907966,-0.608125,-0.029050913,-2.6767073,9.342256e-05,0.30483213,-0.04798882,0.6530334,0.3891189,0.22332194,-4.3555117,-3.0607328,0.37247264,0.13337822,-3.2002227,0.71945095,1.3169073,-0.8390061,-7.4625654,-2.0447078,-0.014357887,-2.4155493,-3.970339,-1.0288535,-0.8279331,-0.06447816,-3.456307,0.34362134,-2.1573687,0.65457785,0.35994267,-5.8781476,0.69309247,-0.11041784,-1.5162961,-0.009956719,0.011507079,-0.7640413,-4.638637,-4.9668403,-0.0479703,0.40881777,-0.008468756,-0.36186248,-0.8654308,-0.6144143,0.39171666,-0.985369,0.3467604,-0.04554408,-3.2829792
29,0.013949899,0.13294058,-0.019797867,-0.02266466,-0.031395532,0.0806937,0.18784907,0.48977572,0.52421176,0.038980108,0.17140944,0.03346927,-0.012546832,0.035180513,0.07964109,-0.595168,0.3421894,-0.15402617,0.30587927,-0.44880724,0.21839781,-0.2046388,0.08207366,-0.17492846,-0.4527247,-0.075426936,-0.25336668,-0.045664847,-0.092617296,0.08487565,-0.03720638,-0.64971757,-0.013531206,0.20018245,-0.107752666,0.009471294,-0.30612132,-0.13119087,-0.3532333,-0.23504394,-0.44977656,0.19242811,-0.0035129623,-0.0016187541,0.12272349,-0.100089826,0.3163092,0.12106055,-0.2590298,0.022935191,-0.5261327,0.106453955,-0.43218443,0.0034885814,-0.21154143,-0.39123338,-0.011329652,0.019076241
30,-0.027697874,-0.17681131,-0.009186503,-0.05792714,-0.021335065,-0.078526355,0.108822115,-0.03915681,-0.19034423,0.0074130055,-0.34671596,0.0014149196,-0.9717158,0.040467117,-0.053073134,0.32624507,0.052872676,0.124868035,-0.076107465,0.22359312,-0.0520037,0.5067432,-0.115812056,-0.13941988,0.182807,-0.06411152,-0.25625712,-0.011677481,-1.0506362,0.06510664,-0.21379948,0.4086303,-0.033524107,0.13105808,-0.3057987,0.12300127,-0.14298408,0.041119676,-0.07653057,-0.22795019,-0.22758768,-0.12719539,0.040498883,-0.0259516,-0.079006895,0.31009176,0.2122107,-0.17054851,0.18498905,0.03302528,0.34713146,-0.1285008,-0.26480967,-0.17575699,0.10190468,0.026399646,0.0076909126,-0.020641232
31,-0.086845815,-0.13072008,0.014634646,-0.07826665,-0.016992265,0.10891992,0.37203047,-1.0101923,-0.17592475,-0.035091344,0.07210343,-0.028294718,0.31914935,-0.0009923466,-0.046700623,-0.11165279,-0.058121186,0.020148288,-0.05514701,-0.08279614,0.0665878,-0.08757932,-0.111655094,-0.08488948,0.08925024,0.1976309,-0.29431686,-0.014636137,0.009639429,0.15360591,0.050250888,-0.34007174,-0.02958764,0.0033317725,0.32778117,-0.45731682,0.0035705084,-0.006342404,0.15366352,-0.20354767,-0.29270673,0.021533463,-0.047139026,-0.044705536,-0.12813056,-0.20485547,-0.23881784,-0.8318765,-1.2304572,-0.02597549,-0.68903494,-0.033770695,0.3234613,-0.0823892,0.23996037,0.1605156,0.0013263165,-0.077290446
32,0.08796744,0.105804,-0.0021044328,0.39177132,0.027198223,0.24221924,-0.22158092,-0.047195334,-0.02265622,-0.037060335,0.042309698,-0.04505832,-0.116969004,0.035237264,0.065640345,0.14945869,-0.37196168,0.081007175,-0.1258597,-0.121658266,0.0014916755,0.033472452,-0.059670825,0.2500613,0.31380436,-0.071284145,0.24054262,-0.0014801845,0.16158219,-0.22546577,0.08623958,0.28282017,0.003099886,-0.18760182,-0.04720487,0.074196704,0.095056154,-0.45498174,0.09108936,0.1585693,0.20852394,-0.5384511,-0.02268119,0.009678386,-0.0012925044,-0.11365985,-0.6758938,0.31753412,0.13101168,-0.0048721647,0.26568845,-0.52230114,-0.43394166,0.12297095,0.13685632,-0.007867258,0.004183747,0.102156326
33,0.020659417,-0.22779623,-0.04738791,0.14450386,-0.0038934362,0.023149239,-0.45363513,-0.018932948,-0.07730231,0.019493926,-0.43926072,-0.045554828,-0.048261624,0.005232811,0.33061525,-0.21965921,0.29931524,0.04986991,-0.021165354,0.30019984,-0.08055811,0.067098856,-0.50381786,-0.48820907,0.16306344,0.032587785,-0.16198154,0.024284277,-0.6626352,-0.047656137,0.10443367,-0.35118532,-0.011630699,-0.15572909,-0.37147996,0.03581356,-0.030415919,-0.18687086,0.17785527,0.24704663,-0.05197132,0.14489377,-0.03977977,-0.0065769777,-0.09225443,0.06047971,-0.7113289,0.08802926,0.044577435,-0.023545183,-0.130018,0.2413398,-0.041068256,0.29967836,0.068897195,-0.16345114,0.0053849947,-0.22994882
34,-0.11460736,0.21676771,-0.020877013,-0.23233023,-0.0438756,0.036510326,-0.1117717,-0.3403773,0.29021677,-0.00763573,-0.82399476,-0.009096958,0.16237739,0.015608776,0.041418612,0.17289653,-0.2309385,-0.42891082,0.07254466,0.27827007,-0.11270765,-0.34227425,0.3353666,0.32395828,0.099684104,-0.2452873,0.23724195,0.012610111,-0.1565125,0.2720952,-0.14196055,-0.19873673,-0.049049783,-0.35603583,0.07006141,-0.13048728,0.023352185,0.1479517,-0.84272397,0.41877434,0.43172088,-0.055308633,0.03879035,0.029162673,-0.33712238,0.15070812,-0.5371696,0.24296413,0.36664444,0.006010188,0.21729665,0.0244768,-0.3971761,-0.12115095,-0.17173925,-0.15571584,0.042239156,0.055625454
35,-0.04369698,-0.08661735,0.025703078,-0.3468142,-0.049761117,-0.23267215,-0.07197832,-0.408143,-0.24768348,0.006364373,0.36277398,-0.026512062,0.071774825,-0.01908567,0.12331143,-0.14713474,-0.051196583,-0.6258407,-0.025821814,0.035723913,-0.024397386,-0.040151093,-0.38779792,0.10302334,-0.7168825,-0.3686569,0.24921784,0.014400307,0.2789637,-0.33571252,0.17347294,-0.107537605,-0.035045277,-0.17066732,-1.2510726,0.019523185,-0.26241368,0.09092157,-0.11914982,-0.11436921,-0.21227907,-0.4191472,-0.029974913,0.019096373,0.043372292,-1.0259204,0.3166768,-0.40338546,-0.32299846,0.020765733,-0.30244333,0.0172761,0.41801697,-0.89265156,-0.04120118,0.103976406,-0.0048707863,-0.47299114
36,-0.106143005,0.10272101,0.043489967,-0.38462391,-0.040382527,-0.27066836,-0.12210446,-0.5084976,0.06290485,0.012598472,0.2031752,-0.00014841557,0.08101323,0.0084990375,0.08420489,0.06325748,-0.2734935,-0.7232709,-0.00087385415,0.2619554,-0.09869191,-0.085186265,0.13400635,0.2674405,-0.33508432,-0.3691092,0.35934728,0.009314619,0.14006078,-0.0034789254,0.049243733,-0.21116778,0.008527344,-0.35758018,-0.29572007,-0.056900192,-0.11078875,0.1308606,-0.23516677,0.16806588,0.25225788,-0.2737567,-0.031200422,0.016376281,-0.041775905,-0.027405985,0.100029364,0.05852887,0.06915459,-0.0013603681,-0.13549806,0.027016968,0.2783003,-0.467616,-0.106611185,-0.10006746,-0.032263808,-0.09162113
37,0.057005994,0.29674008,-0.03205166,0.31021938,-0.011487486,-0.21095613,0.027385559,-0.303602,0.22284035,-0.02713193,-0.9727707,0.027461177,0.24713722,-0.047020663,-0.37957802,-1.1071339,0.054093458,-0.1440743,0.13571523,0.03628755,0.16606303,0.31499606,-0.6526438,-0.21157394,0.59113055,-0.11728553,0.38663137,-0.0011073239,0.29308835,-0.74252033,-0.09053193,-0.37860537,0.042233422,0.2866472,0.04277628,0.21709393,0.026399396,0.019424422,-0.07533796,-0.9014172,-0.38855797,-0.3753527,-0.020552004,-0.02159011,-0.008146478,-0.025685271,-0.34820467,0.7999526,0.069069356,-0.057670902,0.38259903,0.13441995,0.31630147,0.5525183,0.020482,0.17868555,0.015225329,-0.28957805
38,-0.022694275,-0.14662507,-0.038401023,-0.21711618,-0.015144545,0.45869958,-0.018950451,-0.42224315,-0.5048661,-0.024053385,0.18989293,0.020061446,-0.04819125,-0.02175554,-0.58413625,0.41611996,0.5223556,0.06159799,-0.4443124,-0.32615495,-0.1729041,-0.13590997,-0.19174396,0.121920206,0.0477031,-0.14052129,-0.2503379,0.040166225,-2.065099,0.25384623,0.10235349,-0.07747686,-0.030084308,0.059750896,0.20951925,-0.14556989,-1.0458094,-1.0521038,-0.11915212,0.36074704,-0.004609831,-0.025692727,-0.01157636,-0.0012155481,-0.36132157,-0.13309337,-0.16514014,0.3643468,-0.5985592,-0.046100356,-0.3075781,-0.55989707,0.11269792,-1.1648551,-0.10550132,-0.6124458,-0.04226719,-0.1134131
39,-0.060794443,-0.096510455,-0.037342913,-0.61570245,0.0058379765,-0.43469864,0.12504406,-0.13407385,0.1493631,0.026374029,-0.04002501,-0.039446946,-0.65182054,-0.035555504,-0.013005415,0.0907766,-0.46871966,-0.26890624,-0.010479859,-0.10051946,0.15245603,-0.044520244,-0.5079245,-0.7199721,0.23324047,0.1805586,-0.1452401,0.048429344,0.122843854,0.25721502,0.31923452,0.63246524,-0.06889329,-0.3141969,-0.54088694,0.111211434,0.6163711,-0.18430613,0.17424758,-0.3434376,-0.46445185,0.23098989,0.010086725,0.01596797,-0.25697365,0.041125752,0.2311665,-0.31401908,-0.74254936,0.017662581,0.15494984,-0.2831505,-0.34959355,-0.109470434,0.23524597,0.21956635,0.011532771,0.12999421
40,0.03550655,0.14031486,0.0110834045,0.15680109,0.03791848,0.054937597,0.13821931,-0.575918,0.3036622,0.041973352,0.29005682,-0.048325457,0.190335,-0.039379407,0.43883952,-0.2220764,0.61661786,0.3035132,0.035313524,0.039808523,0.05654543,-0.058348272,-0.35257414,0.4106025,-0.60543287,-0.009292797,-0.16422468,-0.040801216,-0.17421663,-0.025067316,-0.4120617,-1.6070932,-0.039619703,-0.13960503,-0.34541088,-0.2772477,-0.2878329,-0.1485032,0.036063533,-0.15667099,0.24365035,0.1499352,-0.009191117,0.023674298,-0.0227736,-0.25397232,0.33938327,-0.58178794,0.36436313,-0.023534492,-0.22537243,0.34740177,-0.15735856,-0.39678714,-0.25279552,-0.3301559,-0.038003433,-0.24494109
41,-0.08539558,-0.15664205,-0.026466988,-0.104787596,0.029375479,0.0864198,-0.056601606,0.61597866,-0.313005,-0.00913207,0.124929115,-0.027333299,-0.35740057,0.0067796595,0.047006093,-0.14575048,-0.33375072,-0.25794718,0.20498234,0.2506733,-0.10646443,0.07997973,0.348031,-0.0049196025,-0.6979198,0.011532514,-0.0665649,-0.044381943,-0.37838724,-0.12747414,0.059777785,-0.1596074,-0.004482121,-0.043036703,0.18251228,-0.085417144,-0.3417528,0.47004694,-0.011625738,0.71847683,-0.029836478,-0.019510722,0.041485474,0.013942226,0.19035433,0.26335913,-0.4812597,-0.17338593,0.28758183,-0.014452831,-0.21287133,-0.24039634,-0.22800021,0.0011537275,0.06994115,-0.16863146,-0.016117627,0.30463824
42,-0.1627541,-0.33072037,-0.03490478,-0.0014061499,0.016435087,-0.20606829,-0.38230014,-0.1991752,-0.01657547,-0.056604054,-0.2803402,-0.027076157,0.03763589,-0.028557086,0.049560968,-0.19295025,-0.031035284,-0.14886068,-0.19434753,0.14952673,-0.08933986,0.06800118,0.012376283,-0.003330161,-0.22103176,0.04272011,-0.07566189,-0.046053436,-0.64717424,-0.008817976,0.111431286,-0.3454563,0.023992443,0.11832677,-0.08676945,0.081115186,-0.20737715,0.3511811,-0.19477879,-0.02936144,-0.15805961,-0.17752174,-0.009902041,-0.058866173,-0.18361762,-0.13734517,0.16496722,-0.18616205,0.3068314,-0.04783984,-0.047827434,-0.23475596,-0.33728653,-0.10310179,-0.21320038,-0.0556712,-0.053021565,-0.019176042
43,-0.005314145,0.15800193,-0.048202522,0.06749019,0.011688957,-0.20727941,-0.10769642,0.070985295,-0.10349768,0.031217802,0.08040811,-0.047231685,-0.1304086,-0.01790563,-0.06789081,-0.2154915,-0.2939834,0.042320974,-0.2565796,-0.23357975,-0.16858238,0.0031321198,-0.25175843,-0.02109515,-0.12935127,-0.03984347,-0.3515527,0.005264234,0.13654485,-0.11421932,-0.18460698,0.0009867263,0.013821601,-0.016798245,-0.2162617,0.16771771,-0.38751292,-0.1230177,0.10846074,-0.18314973,-0.28305504,-0.034725036,-0.040656578,-0.04652896,-0.29207012,-0.1048081,0.12897183,-0.097992234,0.023193037,0.0024375445,0.06710154,0.21838269,-0.009168429,-0.08523793,-0.3339006,0.03621764,-0.024090549,0.21490818
44,0.01852551,0.03177508,0.028664628,-0.14368324,-0.045625724,-0.098252706,-0.5739622,-0.07869895,0.08135335,-0.009256553,-0.20330212,-0.0028071555,0.11866178,0.03034332,-0.057768203,-0.16397923,-0.7505673,-0.056086782,-0.7759134,-0.0022583276,0.09047301,-0.08780575,-0.3340703,0.2527782,0.18683366,0.33680335,0.44686416,-0.029676557,-0.35990497,0.4639408,0.14785086,0.15097253,-0.05036754,-0.34175068,-0.5196325,0.3464221,-0.31434783,-0.06930915,0.4600425,-0.38330072,-0.1728761,-0.17463402,-0.016400734,-0.009918783,-0.05184935,0.2874904,0.013008073,-0.3863551,0.07048377,-0.061280526,-0.093921356,0.045086887,0.15663731,0.19279787,-0.4287769,-0.046860892,0.036405016,0.108564556
45,-0.07051931,-0.53063697,0.03768337,0.0026722087,0.006537193,0.6532696,-0.72319794,-1.4188566,-0.55837214,0.039579697,0.30577654,0.028993025,0.66589993,-0.039109327,0.04784727,0.24500501,-0.042516585,0.27011034,-0.1506096,0.2549315,-0.32845405,-0.08814913,0.13722657,-0.001345105,0.7392046,-0.07240477,0.18607551,0.019020084,-1.083176,0.99879926,0.81515974,-0.41909707,0.032913405,0.25510427,-0.2648802,-0.30984014,0.4359083,0.5552639,-0.679889,-0.570264,-0.33466938,-0.74299496,0.014488541,-0.02854474,-0.40531692,-0.24484377,0.6796469,-0.2259401,-0.07160037,-0.030821111,0.024668297,0.0056561967,0.23567417,0.4057191,-0.487769,0.16848177,0.00094864593,-0.6658647
46,-0.014985618,0.13132839,-0.003837768,0.05094186,-0.051926922,-0.21123436,0.13908526,0.12737192,-0.040254712,-0.029066445,-0.014384683,-0.03890482,-0.23578316,-0.04186641,-0.15058182,-0.030835943,-0.25721666,-0.048967905,0.0010887939,0.1495441,0.029932886,0.075741075,-0.12514055,-0.037038133,0.082393035,-0.024180982,0.11247445,0.011619031,0.24870053,-0.39565304,-0.17285837,0.11054468,-0.06844282,-0.016736433,0.112201236,0.016698882,-0.2838533,-0.22784445,0.027647331,-0.04204321,0.04066622,0.1780549,-0.014701731,0.031173667,0.07454039,0.027447991,-0.16912635,-0.29118264,-0.021627685,0.010663504,-0.0567948,0.14752749,0.044052497,0.1359109,-0.03304981,0.06697017,0.020350603,0.0965964
47,0.06534377,0.13165854,0.02779741,0.22633685,-0.0475417,0.54787874,-0.10912888,-0.43049395,0.007012835,0.0156825,0.36805838,0.03609965,0.46418875,0.03463241,0.077859685,0.007465986,0.48503572,-0.3108858,0.12714465,-0.021847598,0.015926985,0.30818892,0.39461893,-0.08224339,0.21782903,0.15331031,-0.10776592,-0.03359591,-0.51143557,0.3297604,0.5790473,-0.2732926,0.04738265,0.116948865,0.14565052,-0.06804882,0.34080753,0.4013377,-0.0860279,0.020356942,0.17679782,-0.085722364,-0.010042859,-0.038612526,-0.20372488,-0.021171067,0.15647323,-0.209807,0.017547626,0.013598034,-0.35202575,-0.24064408,-0.045055542,-0.23280746,0.12857127,0.21229781,-0.011945207,-0.20524657
48,0.024918646,-0.114910126,-0.05316818,0.19599974,0.013148458,-0.077992804,0.10543601,-0.3091319,-0.24987036,-0.047276452,0.13368206,0.022942144,0.11341035,0.02684388,0.019242143,-0.120624855,0.12940267,0.09275474,0.023119727,-0.16606215,-0.048189864,-0.16486047,0.14630662,-0.0148134045,0.063953675,-0.0278536,-0.2820328,-0.04734024,-0.1100018,0.020252895,0.27155006,-0.10049519,-0.029511774,0.31906447,0.11842558,-0.12451369,-0.12789847,0.1318398,0.086966746,-0.2516622,0.07411725,-0.21672657,-0.0067599495,0.005098822,0.0251398,-0.25894308,0.07121983,-0.29613614,-0.0038063114,-0.015951676,-0.029951908,0.28988156,0.093762405,-0.20496379,-0.3817881,0.21651345,-0.02446814,0.1339005
49,-0.014797153,-0.19890878,-0.026824115,-0.31345034,0.017439501,-0.59491307,0.3480422,0.14102888,-1.2957637,-0.017133484,0.13586809,-0.023009498,-0.8346971,0.043960396,0.056092568,-0.36132905,0.14821784,-0.02880046,-0.33065727,0.63339174,-0.9304507,-0.37785906,0.54246646,0.42534113,-0.43148854,0.043670047,-1.1795503,-0.03979056,0.52969354,-0.5468197,0.020361254,-0.6718905,0.031050662,0.12067778,-0.171461,-0.30062065,-0.29638878,0.8566089,-0.13944833,-0.33602342,-0.045079827,-0.726542,0.0096965805,0.033531897,0.18838191,-0.1746811,0.5155776,-0.34750143,0.35057667,0.014150252,-0.31796426,-0.2846298,0.010945082,-1.5859873,-0.56381464,-1.4513235,-0.027600318,0.08709854
50,-0.029564178,0.010607475,-0.0034726385,-0.09152143,-0.04565431,-0.09908848,-0.054876618,-0.05776667,-0.3688919,0.010654956,-0.035943627,-0.05356186,0.23608448,-0.04731691,-0.040190764,-0.05464239,-0.16364506,-0.28426266,0.06489959,0.045491923,-0.02461942,-0.07384154,0.008700462,0.118920185,-0.23978873,-0.018976258,-0.10485961,0.011476934,0.24408938,0.16957624,-0.06412654,0.27561375,0.023838114,-0.019015914,-0.114097245,0.09162489,-0.09425743,-0.026900416,0.12857704,-0.29265565,-0.27079213,-0.076246515,-0.053330224,-0.038297817,0.12821978,-0.10281168,0.06861921,-0.28014797,-0.1159513,-0.059094377,-0.041689172,-0.20858455,0.42382655,-0.0018098936,-0.08829044,0.11948023,0.023507996,0.04822861
51,-0.06456219,-0.087602876,-0.0434295,-0.06802492,-0.019793047,0.089397795,0.07832437,0.018342579,-0.08712554,-0.013576436,0.12633494,-0.04119514,-0.042494524,-0.017875277,-0.080202356,-0.10247276,-0.028704457,-0.03858211,-0.12049903,0.104025654,-0.18551059,-0.03495696,-0.0728083,0.060424864,0.13144231,-0.1590581,0.1554465,-0.0073375218,0.19796152,-0.0058725025,-0.13989653,-0.028549615,-0.02951376,-0.05316775,0.01312529,0.120155185,0.11356418,-0.07772652,-0.15916926,0.19511409,-0.2658919,-0.042354427,-0.018836994,-0.053768244,-0.13655703,-0.1714886,-0.07132162,0.027008787,-0.11331334,0.021101007,-0.023115885,-0.01793206,0.19494136,-0.049665578,-0.11493846,0.07336064,-0.05516694,-0.020471962
52,-0.13948303,0.0037948508,0.024369866,-0.17422915,0.0018170589,-0.35155293,0.30261236,-0.04906365,0.057115123,-0.026402935,-0.0038575858,-0.0348983,-0.49355018,0.01609217,-0.232084,-0.82208747,0.11009933,0.216217,0.036110293,0.2497123,-0.014362613,-0.029988464,-1.1578459,0.22223045,-0.011595253,-0.013240175,-0.027176036,0.010038577,0.08119702,-0.2407846,-0.57801753,-0.25483456,-0.046431463,-0.04898119,0.33969703,0.14076966,0.23816241,-0.70854217,0.05052672,0.0038785269,0.08921107,0.24964194,-0.046662603,-0.0401582,-0.20439747,-0.03347051,-0.28407827,0.045667216,-0.55019426,-0.06317536,-0.06561549,-0.14600062,-0.15259287,-0.021236282,-0.05284011,-0.12938479,0.02740136,-0.24684843
53,0.024492629,-0.038419303,0.013856396,0.047816455,-0.009920148,0.06076159,0.22032712,-0.10176974,-0.11293782,-0.05934858,0.13136111,-0.020818396,0.19085562,-0.049510766,-0.08311445,0.15839455,0.053632826,-0.0640867,0.050574385,0.108392335,0.029720841,0.030540576,-0.07863438,-0.0810179,0.14669563,0.014891354,0.123156406,-0.039774574,0.067645974,0.013731478,0.031867385,0.100584954,-0.03574133,-0.21259584,-0.014599574,0.10581007,0.016408559,0.056159668,-0.14026502,0.2051422,-0.117366716,-0.14202054,-0.0017814917,-0.0021096999,-0.19363266,-0.06829443,-0.07488121,0.057375364,0.032395758,-0.065582305,-0.086471185,-0.06325964,0.026304219,-0.09637567,0.0906357,0.12523787,-0.05615215,-0.16236244
54,-0.071268916,-0.14341646,0.01234663,-0.21394233,-0.020781005,0.16469732,-0.65355474,0.013515107,-0.06796762,-0.037443906,0.21261092,-0.050253563,0.1386732,0.0016007647,0.2642284,0.17339885,-0.10948885,-0.13382795,0.0025725786,-0.04466966,-0.18306778,0.29509646,0.0738264,0.12056596,-0.18387194,0.02473829,-0.011896829,-0.037967622,-0.2726881,0.19564733,0.07742376,-0.21092845,-0.02786393,0.07056568,-0.14013933,0.04372319,0.12636869,-0.04553378,-0.084984094,0.08290205,-0.028043779,-0.22092575,-0.03752532,-0.045853037,0.23518033,-0.020233968,-0.5140617,-0.0038480682,0.0381021,-0.0046226257,-0.026835931,0.06518121,0.23771314,0.17763631,0.20629948,-0.022121456,-0.037175126,-0.39970955
55,-0.1861314,-0.0993368,-0.010544417,-0.29747027,-0.041576605,-0.27323055,0.31994522,-0.1836892,0.060144633,0.026764242,0.1500587,-0.03145955,-0.0015621891,-0.016517662,0.06577448,0.19107503,-0.07055771,-0.29173103,0.26248848,0.52410924,0.20310612,0.051278714,0.16878106,-0.012477761,-0.21683025,-0.12552008,-0.19400282,-0.031714834,0.0008668455,0.16454111,0.22580273,-0.17840318,0.0026814914,0.30154803,-0.25882664,-0.43743837,0.21131071,0.17983733,-0.22056134,-0.039992798,0.20995662,-0.0067410646,-0.019451391,-0.022157105,-0.020705877,-0.25119528,-0.08824319,0.16108523,0.11920648,-0.03752004,0.27230096,-0.084227085,0.14648244,-0.16286498,-0.3346015,-0.049109314,0.03301448,-0.09510429
56,-0.029931167,0.0056140833,0.019154038,-0.0012377392,0.029870227,0.11688211,-0.18519197,-0.1742698,0.49747363,0.00020728416,-0.23750564,0.0009982041,-0.2755986,0.023870852,0.03955305,-0.2467179,-0.5581021,0.21517366,0.043602094,-0.47797683,0.06585661,0.0042014313,0.18740486,-0.12187159,-0.14871904,0.07613615,0.2765937,-0.04858284,-0.15366401,0.32115704,-0.048182555,-0.19928586,0.0076340316,0.32830226,-0.46022716,-0.43595058,0.3398037,-0.050312776,-0.086479366,-0.08347877,-0.15372366,-0.22566304,-0.023818642,0.036866028,0.3173006,-0.105203696,0.24870643,-0.49169314,-0.29240477,-0.025668832,-0.08991831,-0.17728311,-0.58267015,0.054227937,0.03105969,-0.08196627,-0.02370863,0.2642716
57,0.012368299,-0.022226868,-0.028095853,-0.024113981,0.021684423,0.09891365,0.5361192,-0.13790277,-0.8208863,-0.012046594,-0.11207084,0.016607277,0.028393282,-0.049961794,0.5793966,0.068643756,0.40703484,-0.048736673,-0.029143443,0.31794596,0.13821834,-0.19912735,0.21992312,0.32683253,0.2699903,0.2522892,0.08760057,0.01087258,-0.09810305,-0.37746924,-0.5569989,-0.058121666,-0.03665146,0.116901755,-0.4765107,0.22735469,0.2443161,-0.82156926,-0.58450526,0.49634334,-0.6116136,-0.48896924,0.034425393,0.0052586105,0.12938078,-0.24014527,-0.23745757,0.20443307,0.5891254,0.0086575,-0.48629352,0.28609893,0.31458718,-0.032322578,-0.17048338,0.06522267,-0.010959995,0.4331103
,0,1,2,3,4,5,6,7,8,9,10,11,12,13,14,15,16,17,18,19,20,21,22,23,24,25,26,27,28,29
0,0.0022417246,-0.024646655,-0.024114462,0.038772147,-0.105369,0.032015875,0.043142557,-0.1885197,-0.0478009,-0.004522357,0.034294464,0.052149333,0.025239877,0.04215754,-0.017229853,-0.056648716,0.057178736,0.08996446,0.019102033,-0.06303182,-0.021969734,-0.21504554,-0.00012096277,0.010938576,0.008928929,0.022818578,0.11128874,-0.030397892,0.08896289,0.022262631
1,-0.2172835,-0.48293397,0.48820895,0.041774835,-0.49420983,0.5218046,0.427398,-0.56531066,-0.041018713,-0.022425601,-0.49003488,0.019106422,-0.7552637,-0.80076975,0.41650048,0.017669264,0.29976454,0.5256876,-0.5621503,-0.6638286,-0.75470763,0.20176558,-0.85068226,-0.4830848,-0.18863295,0.3268459,0.083965905,-0.774027,0.4921298,-0.8422792
2,0.027282016,0.008748791,-0.024699442,0.015024673,0.004929437,0.038532548,0.038787846,-0.002150104,-0.013004293,0.024128664,0.0012132134,-0.033507526,-0.03912755,-0.047000505,0.048389297,0.03722529,0.034258667,-0.043690044,0.033959426,0.0415189,0.041260112,-0.042257845,0.01957455,-0.001832174,-0.031730335,-0.045566555,-0.042134162,-0.011120502,-0.00077492656,-0.0006539821
3,-0.7819891,0.21049684,0.2173241,0.020892894,-0.4185311,0.052963678,0.045081425,-0.3205407,-0.07190523,-0.054892182,-0.48380578,-0.14079298,-0.5518157,-0.07815051,0.07921936,-0.056437403,0.12301058,-0.0017818938,-0.64241743,-0.24053821,-0.57267565,-1.0744337,-0.41446912,-0.1695577,0.25526693,0.16448557,-0.047108326,0.17454901,0.02873698,-0.17465322
4,0.0142784715,0.0348399,-0.033755682,0.006101895,-0.021622812,-0.050405465,0.0017107669,0.023271272,-0.047881737,-0.009731282,0.005066033,1.3275424e-05,0.01655566,0.013781687,-0.016029682,0.027387658,-0.028838374,0.04233677,0.008096843,0.018974405,0.03252572,-0.035548292,-0.0037741112,-0.019571148,0.04283691,0.021411004,0.041153323,0.0023476973,-0.0047998675,0.02343755
5,0.052749842,0.4927746,0.28910938,-0.024414577,0.36656865,0.48164514,0.20620646,0.638043,-0.015518624,-0.03936185,0.2779106,0.43394864,0.0374106,0.78533196,0.08894977,-0.07816173,0.12645496,0.33663738,-0.27977931,-0.1139436,0.024197733,0.71742815,0.18039899,0.4128545,0.18810605,0.07984422,0.18282284,0.6944246,0.4555495,0.46292222
6,0.5267067,0.3884296,0.10819547,-0.5656017,0.36526397,0.3412331,0.3897513,0.17203832,-0.03257832,-0.060436033,0.3574662,0.38525522,0.30064434,0.16336718,0.1661176,-0.05297755,0.43050438,0.3833611,0.5596096,0.14693375,0.372387,0.21713436,0.3464323,0.35361746,-0.110224664,0.2972989,0.1974764,0.06837007,0.46546486,0.026304517
7,0.8059098,0.40981302,0.81944686,-0.41751528,-0.728144,0.3688459,0.3085317,-0.21618515,-0.08581444,-0.060526505,0.7138516,0.21668303,0.7053945,0.33318126,0.124993026,0.05685301,0.27470547,0.4034678,0.6622452,0.4604598,0.31743908,-0.36347884,0.3915668,-0.7948925,-0.14234532,0.27857658,0.38649285,0.21122286,0.43569598,0.07241045
8,0.05376559,-0.3075684,-0.23097424,-0.11896135,0.25277364,-0.3161746,-0.45136133,0.043898523,0.009693283,0.011812767,-0.21927287,-0.23787846,-0.072893634,-0.09844019,-1.3956294,-0.07261996,-0.53029096,-0.51346684,0.123105936,-0.5996708,-0.15438133,0.30176178,-0.37012053,0.16964343,-0.14021619,-0.37516913,0.16791165,-0.2784655,-0.18816048,-0.104349256
9,-0.0029762823,-0.038125046,-0.0191781,0.043998215,-0.050747294,0.0012823386,-0.043690383,0.017067784,0.031063193,-0.02666138,-0.06095736,0.019571332,-1.8673394e-05,0.01731259,-0.014191521,-0.018652976,0.029647747,-0.00020780296,-0.056638137,-0.013587377,-0.03905606,0.017987736,0.043037184,-0.014313722,0.04251229,-0.015819477,0.002225673,0.030483393,-0.0100218225,-0.028489504
10,-1.1606351,-0.48032042,0.18705477,-0.41624907,-0.23190062,-0.03844276,0.014696695,-0.028627427,-0.019685201,-0.044486135,-0.2473763,0.42294332,-0.58852637,0.050339412,0.40806073,-0.022937631,0.37782493,0.05715178,-0.97619617,0.3165619,-0.31599933,0.19539833,-0.047187593,-0.60563076,-0.08280577,0.3569076,-0.346771,-0.06853726,0.061074406,-0.39555943
11,0.03482984,-0.028189803,0.032839302,-0.045208406,-0.008451678,0.05565289,-0.038303982,-0.025322545,-0.0025362559,0.005161442,0.028562967,0.018031929,0.028166588,0.032235716,-0.041556805,0.019764509,-0.047019888,-0.040044785,0.044800986,0.010691833,0.03331606,-0.044553317,-0.043244228,-0.032999907,0.04688337,-0.022139367,-0.018819368,0.03243981,0.006912739,-0.003772108
12,0.6769198,1.0343707,-0.47960687,-0.23249228,1.2303599,-0.4614129,-0.42003947,0.10444396,-0.011477486,-0.0422882,0.54467106,-0.5024332,0.73455197,0.70852625,-1.7030138,-0.0799116,-0.4912541,-0.44266725,0.7315372,-0.30642328,0.4769754,0.77832115,0.55274487,1.4318696,-0.7079225,-0.5129352,-0.8993236,0.5218195,-0.5356559,0.33829263
13,-0.044749465,0.049890924,0.017493341,0.021592263,0.010022413,0.027842369,-0.034105696,0.03664359,0.0015191548,0.03223333,-0.02901702,-0.012216844,0.0074563622,-0.022029186,0.030512456,-0.009722602,-0.01619313,-0.047083963,0.029594231,0.015594553,0.03126881,0.034788895,-0.035828818,-0.024558116,-0.029481554,0.022205677,0.025244657,-0.028129935,0.038300905,0.007656347
14,0.21113352,0.120358735,-2.03824,-0.5567731,0.24847092,-0.8047332,-0.43868336,0.32347727,-0.061575804,-0.062493715,0.13732338,0.14612319,0.33714175,0.14013799,-0.30040672,-0.023909632,-0.23825076,-0.7225768,0.114707,-0.42203167,0.35012618,0.70702875,0.38397545,0.15131351,-0.8031246,-0.32595405,-1.6252968,0.21240322,-0.6810168,0.18008499
15,0.32930842,0.5042888,-1.0470531,-0.38026202,0.5917014,-0.057034764,-0.057067584,0.7473097,-0.02590371,-0.0424525,0.19007158,0.13939746,0.4175133,0.39705142,-0.74915904,-0.03404208,-0.063994095,-0.11903011,0.32839876,-0.009809961,0.27636003,1.0703108,0.27289596,0.5571588,-0.71168846,-0.2901384,-0.11454271,0.20667662,-0.03320266,0.033095807
16,0.16853465,0.15356398,-0.8754611,-0.3589298,0.48035523,0.42096072,0.39153132,-0.46981734,-0.06281654,-0.016279994,-0.038062546,0.44866997,0.11839321,-0.12085494,0.8089084,-0.040865928,0.39937583,0.45385227,0.20785016,-0.14520502,-0.064754024,0.4827899,-0.15533136,0.5236812,-0.72505033,0.43244565,-0.117198415,-0.12952065,0.4990063,-0.003818524
17,-0.18726046,-0.21626334,-0.020398399,0.272602,-0.7964745,-0.086284295,-0.20745221,0.071660206,-0.017837068,0.004722518,-0.3080038,0.1717282,-0.3072588,-0.17339821,-0.0061372435,-0.023668204,-0.30073366,-0.19530112,-0.023952292,0.00044275192,-0.09545164,-0.5424484,-0.42788583,-0.6382428,-0.5085619,-0.19242775,0.18392044,-0.13455,-0.2576999,0.009837537
18,0.038525082,0.40363854,0.25666228,-0.4802598,-0.2766242,0.45437187,0.3932754,0.39976475,-0.047592394,-0.061328538,0.26366657,0.65474355,-0.4020091,0.066518724,0.122283444,-0.04461182,0.44859025,0.37982073,0.14858568,-0.08015007,-0.40452337,0.3471412,-0.6360273,-0.2276339,-0.8492146,0.37303984,0.39735225,0.15326588,0.5777209,-0.069139265
19,0.049627192,0.24933907,-1.0830885,-0.4351909,-0.20152527,-0.08253561,-0.033777274,0.07571134,-0.05703387,0.004176599,0.09029061,-0.12683322,0.06284931,0.028891107,0.22546601,-0.05142083,0.10992877,-0.106394395,0.11069331,-0.753114,0.03563451,0.15928355,0.14229795,-0.12785088,0.094942704,0.06570007,-0.93132496,0.10756925,-0.017273618,0.20042777
20,0.27744272,0.23923688,-0.8305594,-0.113800675,0.43185508,-0.65562236,-0.47737658,0.14081015,0.023771705,0.024258733,0.43578672,0.16007166,0.33793908,0.054374773,-0.045331184,-0.048232827,-0.192994,-0.52972305,-0.080122136,0.18024385,0.2502154,-0.23532884,0.093566746,0.4064653,0.33195534,-0.24249439,-0.5145883,0.015107485,-0.8329541,0.2532469
21,-0.28816888,-0.28997764,-0.09126771,-0.28700235,-0.51398015,0.084418565,0.012976269,-0.6497453,0.00940249,-0.03972247,-0.46696052,-0.12718202,-0.33265728,0.2188534,-0.1645479,-0.0053486424,-0.13556942,0.05556874,0.29624432,0.13025413,-0.19112492,-2.2305865,-0.47755072,-0.6766036,0.71425384,-0.1644948,0.34463087,0.07475626,0.07292209,0.0022154578
22,-0.21517147,-0.52328,-0.06826782,-0.2012127,0.2602174,0.7292761,0.8212886,0.21393082,-0.004472334,-0.010483874,-0.13057779,0.90853274,0.0031436402,-0.064741045,0.8995545,-0.01796768,0.8592739,0.8047802,0.18316276,0.29246637,-0.14239451,-0.4625896,0.01984348,0.08816659,-0.09216326,0.6905779,-0.4272729,-0.11212028,0.8571697,0.06067141
23,-0.032339256,0.26332387,0.1575382,0.066012934,0.23096927,0.185385,0.13664307,0.13101444,-0.03973576,-0.040092006,0.11748362,0.290432,0.07811204,-0.0012386232,0.2877099,-0.103119105,0.20313318,0.12046943,-0.089687064,0.34189484,0.07355458,0.20531122,0.17181982,0.18902756,-0.37310052,0.24216133,0.464511,-0.15489486,0.015409547,-0.11452315
24,0.38476267,0.28626972,0.5843117,0.23813288,0.56725436,0.39315137,0.3776823,1.1176275,-0.06341629,-0.04914411,0.47431934,-0.044293746,0.36363342,0.52423936,0.30014932,-0.029374091,0.36099714,0.36758736,0.49421555,0.72248036,0.0885456,0.08270426,0.26093665,0.3218153,0.1607219,0.25393853,0.047942683,0.38412806,0.38805833,0.14547844
25,-0.43330374,-0.30792215,-0.5553769,-0.13759536,0.08740495,0.40911904,0.35091126,-0.3435765,-0.024375591,-0.049389724,-0.58075696,0.6893329,-0.23810886,0.06265128,0.64237595,-0.02882625,0.3859778,0.5160675,-0.26430973,-0.19762503,-0.5593295,-1.813562,-0.17153656,0.018537363,0.16474605,0.45328152,0.49461117,-0.01903863,0.2815785,-0.29212338
26,0.16057947,0.31066036,0.43434542,0.107965015,0.39539948,0.22426057,0.23822384,0.3665708,0.0028757548,-0.01798254,0.22737667,-0.27549952,0.031861845,0.026163597,0.44453958,-0.07385661,0.2385239,0.1118984,-0.001058442,-0.76691633,0.28223795,0.25568384,0.058566105,0.2707758,0.32711887,0.24509296,-0.06283724,0.18829465,0.19810738,0.31655404
27,0.0024081469,0.037828032,-0.04269853,-0.04437977,-0.031797253,-0.03328278,0.046817053,-0.010880221,-0.030045915,-0.017449677,0.04804078,0.040922176,-0.03540815,-0.029795099,-0.042882062,-0.0021225326,0.010208178,0.041313533,0.004922211,-0.004816938,-0.048103083,0.0340284,0.041531276,0.0059002154,-0.019451583,0.024166081,0.044648144,0.013089266,0.0032652393,0.04927126
28,-1.5203943,-1.1645447,0.7857569,-0.07951762,-0.8170775,0.42739236,0.37059975,-0.3077954,-0.08584573,0.0018236306,-0.6552993,0.22119103,-0.9201192,-0.271325,0.06884856,-0.026288742,0.24914981,0.5044458,-1.4609134,0.16827483,-0.34100598,-0.26903406,-0.31989047,-0.9724442,-0.24483286,0.23182617,0.5638457,-0.279887,0.46895072,-0.17372009
29,0.33766252,-0.24514171,-0.18262328,0.1810647,-0.4301042,0.31191364,0.19498934,-1.062537,0.021397257,0.005603884,0.09550564,0.2780413,0.3215547,0.06662082,-0.017402217,0.058732897,0.25306323,0.260811,0.41610634,-0.66179585,0.35321468,-1.3332821,0.1825364,-0.477543,-0.20918012,0.18019672,0.39834046,0.10676586,0.17849216,0.09663369
30,0.04335085,-0.1109831,0.11260966,0.10261558,-0.087257944,0.10580795,0.12977798,-0.86409944,0.012914504,-0.057520546,-0.47313207,0.066458136,0.40091196,-0.27542752,-0.011934685,0.008464242,0.17538053,0.081183895,0.23503944,0.52623624,0.029222332,-0.41583595,0.38110685,-0.105667636,0.31706947,0.19776407,0.051188204,-0.24097359,0.009880187,-0.7850498
31,-0.29986778,-0.69073325,-0.37982297,0.003959307,-0.73225105,0.076961115,0.2261097,-1.4541203,-0.056066833,0.0023802181,-0.5195191,0.22911018,-0.28094813,-0.42705324,0.22775112,-0.073005036,0.2778945,0.21217012,-0.36570758,0.08228705,-0.56607765,-1.1013178,-0.65849906,-1.430995,-0.18403041,0.23369926,-0.67650473,-0.7191763,0.113353066,-1.269577
32,-0.023182278,-0.05035339,-0.0017274517,0.007938553,0.0115101235,0.03763069,0.03506388,-0.041054666,0.0065957834,-0.000290368,0.020946838,-0.03356782,0.0322483,-0.050460856,-0.028502414,0.0033963744,-0.024219844,0.014406069,-0.028542176,0.027655683,-0.05126006,-0.047777176,-0.025011353,-0.04754869,-0.04289645,-0.0052752183,0.041461006,0.023562547,0.0029053336,-0.028694365
33,-0.185801,0.029744076,0.57463187,0.036909502,0.38309753,0.40292117,0.3724467,-0.11520872,-0.051314756,-0.021527141,-0.049455483,0.073697515,-0.23672445,-0.3663216,0.64444727,-0.005343142,0.31670964,0.37045202,-0.2376041,0.33078483,-0.19650348,-0.76336455,-0.6483579,0.1865066,-0.1602366,0.36203665,0.5537177,0.030800609,0.2884794,0.42261183
34,0.2288173,-0.11067862,-0.29979202,-0.15323445,-0.38874942,0.19447762,0.2850586,-0.15408906,-0.06830179,-0.06398531,0.2573955,0.21569501,0.074618354,0.17940785,0.14597377,-0.036397148,0.29250565,0.26363388,0.12423307,-0.16911864,0.09339935,-0.869811,-0.0826766,-0.5251175,0.13262759,0.3138593,-0.37201524,0.12975459,0.18533938,0.33882987
35,-0.30197224,-0.11522316,0.16140552,-0.04539218,-0.068653144,0.18801291,0.16035607,0.39493448,-0.022932645,-0.040725872,-0.016823644,0.19559617,-0.2529719,-0.32433522,0.42691112,-0.036987066,0.14685369,0.19290228,-0.80321383,-0.18380465,0.042616796,-0.6964945,0.14524388,-0.012658888,-0.050201897,0.12256691,0.36043176,-0.28450477,0.2695084,-0.32382753
36,-0.4237595,-0.13541535,-0.3727585,-0.045264278,-0.41026017,-0.41254982,-0.4073395,-1.0170128,-0.002060186,-0.06001532,-0.25660667,0.22114268,-0.5959941,-0.28122643,0.16574271,-0.067353904,-0.103171445,-0.38715312,-0.28336594,0.120846264,-0.5101422,-0.6178941,-0.37766942,-0.5447411,0.42797267,-0.3985987,-0.5833505,-0.49850753,-0.30722457,-0.6360736
37,0.21878314,-0.48829293,-0.7412187,0.29458636,-0.25164813,-0.18998456,-0.3046623,-0.078671664,-0.05448249,0.00349039,-0.15048869,-0.1980721,0.06545797,0.039228518,-0.8672211,-0.0066384957,-0.5764804,-0.07385827,0.2784767,-0.6078117,0.16995135,0.05467174,-0.015395659,-0.25754505,-0.97569984,-0.4104381,-1.3147665,-0.049457464,-0.091389626,-0.08150265
38,0.12907511,0.11198805,0.2821643,0.060146548,0.4149572,0.5175387,0.47184497,-0.088942245,-0.0036533573,-0.03552216,-0.07201959,0.3204553,0.043072905,-0.5516719,0.61562264,-0.057592552,0.43603528,0.5998939,-0.12680909,0.0025354917,-0.09051879,-0.31191313,-0.36164796,0.6367192,-0.22444603,0.42466012,1.0265018,-0.01397004,0.52791464,0.05467835
39,0.13987517,0.512188,-0.2678823,-0.7315358,0.31064075,0.28195584,0.40343007,0.17171189,-0.0014870499,-0.049098894,0.22481145,0.14617912,-0.0038842203,0.16597301,0.6444227,-0.011270761,0.3229537,0.3527985,-0.027515031,0.04643792,0.13639913,0.028361969,-0.04762618,0.3976045,-0.22785199,0.4207148,-0.17553234,0.22539113,0.23201892,0.33505186
40,0.047542807,-0.24898529,-0.517845,0.31738812,-0.15817562,-1.0134435,-0.7742513,0.1314595,0.0033944165,-0.0501138,0.15323335,-1.5864457,0.106324226,0.22344743,-0.45653465,-0.03034065,-0.65238214,-1.0237402,-0.20342089,-0.48095208,0.16719437,-0.19149803,0.11328009,-0.2631997,0.04193199,-0.5041308,-0.6108863,0.2623932,-1.1990349,0.32355696
41,-0.45948124,-0.16325516,-0.4271768,0.02886518,-0.82152814,0.15539832,0.089045554,-0.20817097,-0.009749408,0.012683878,-0.45619008,0.09177282,-0.23093447,0.046056148,0.27212963,-0.054836564,0.08453001,0.1470343,-0.06725064,-0.4385837,-0.40622425,-0.9362033,-0.15535995,-0.6708614,-0.3062183,0.25506318,0.302109,-0.30854055,-0.034496106,-0.46442613
42,0.010406486,0.017365584,-0.037917648,-0.01922915,0.0337693,0.031809833,0.02608316,0.0108041465,0.00090675877,-0.000406831,-0.014484477,-0.043081917,-0.02540056,0.0071419105,0.019793395,-0.012437828,0.038150195,-0.008472441,0.02850112,-0.035770625,-0.03395452,0.020747898,0.032219715,0.0037638322,-0.024204506,0.02284217,-0.04212392,0.03568672,0.02352574,-0.037252307
43,0.050072815,-0.00952783,0.0044315313,0.0051962733,0.05122264,-0.025383778,0.019735731,-0.037985027,0.028821545,0.01097179,-0.038870342,0.020080172,0.022904392,-0.0029652508,-0.025673814,-0.008091606,-0.039089907,0.023193061,0.050108235,-0.011244645,0.027853217,-0.011922332,-0.01127982,-0.03420891,0.036159944,0.01836243,0.016579699,0.029675512,-0.00013079554,-0.027781064
44,0.06657813,-0.3715276,-0.6244879,-0.031167172,-0.21181676,-0.17016572,-0.09257053,-0.2897934,-0.054936804,-0.03876227,0.16307788,-0.2649999,0.13813071,0.16652435,-0.36583915,-0.019017704,-0.14419562,-0.1344941,-0.121114455,-0.8539725,0.08667024,0.0450769,0.3000902,-0.17258295,-1.1209488,-0.19535398,-0.8626675,0.3726676,0.0058099865,-0.038518853
45,0.2639189,0.16127896,-0.3119641,-0.31860748,0.16962758,0.60169727,0.5261974,0.65565926,-0.0041766902,-0.058647625,0.40673417,0.5610692,0.22639553,0.36383435,0.12576926,-0.010223884,0.4034508,0.6735024,0.205186,-0.5162816,0.16499566,0.13409002,0.23421954,0.24810164,-0.77389973,0.35947233,0.5580727,0.21237554,0.6138549,0.14186
46,-0.23515183,-0.3361938,0.57107675,-0.2587182,0.103902176,0.5940116,0.60392684,-0.26572436,-0.013038201,-0.019625708,-0.43099803,0.21341112,-0.8456603,-0.6585599,-0.25114423,-0.06815538,0.7776108,0.5368299,-0.53099215,0.72272515,-0.35202265,-0.64711666,-0.63342553,0.048568603,0.19709924,0.8504171,0.5912599,0.26959407,0.45577353,0.36486205
47,-0.31378603,-0.33337477,0.9238068,0.21323784,-0.37467554,0.8093154,0.7660833,-0.44961208,-0.057992134,-0.027001875,-0.47028077,0.49142662,-1.0797257,-0.26323044,0.66748714,-0.0273088,0.6214113,0.7465462,-1.0807784,1.3464705,-0.39161623,-0.2224429,-0.4447476,-0.20277435,0.6591693,0.8017358,0.1884815,-0.2565644,0.70913386,-0.26027253
48,-0.082800165,-0.47700116,0.403338,-0.62168926,-0.42907205,0.039533205,0.1631225,-0.25994492,-0.014364322,-0.04061693,0.028740915,0.3858553,-0.06214132,-0.4441686,0.43165898,-0.03166696,0.39668724,0.049369417,-0.19324729,-0.14938253,-0.05169359,0.032612517,0.06169848,-0.3618986,0.3980472,0.2778104,-1.6682212,-0.60967135,-0.025599828,-0.42701387
49,0.02943844,0.03253555,0.008710126,-0.047639895,0.026544914,-0.033240266,-0.010739561,-0.0052093207,-0.025056956,0.047650184,-0.03838918,0.027044786,0.037702635,0.002025659,-0.007981593,-0.044548806,0.01690385,0.03609551,0.027408466,-0.04780163,-0.04507526,0.031246994,-0.02919877,0.05170518,0.03630666,-0.03441451,-0.007942095,0.01769892,0.012206753,0.004769898
50,1.0076035,0.9979126,-0.24446309,-0.23011588,0.4137469,-0.44658974,-0.30148587,0.421847,0.040211696,0.050870545,0.9290138,-0.67137563,0.8796664,0.7802906,-0.62210965,-0.028753228,-0.52870554,-0.18619058,0.7941964,0.5125025,0.9533904,0.7390227,1.0830328,0.45403525,-0.23139751,-0.4580167,0.6429287,0.54541975,-0.5480138,0.23003888
51,-0.5575022,-1.2594492,0.265365,0.17108668,-0.5742848,-0.008072853,-0.0012824942,0.025588678,-0.0055625867,-0.073307514,0.19198109,-0.16094255,-0.43523505,0.021126648,-0.28731978,-0.0143109625,-0.13591197,0.02368271,-1.0701617,0.15408683,-0.14778508,-0.35628316,0.089504905,-0.65540284,0.18132502,-0.08805213,0.14145344,-0.0033259355,0.057631828,0.29784197
52,-0.0914415,-0.9327985,-0.2834989,-0.20655294,-1.162696,0.61785823,0.52399534,0.027235234,-0.023395501,-0.055436723,-0.19405541,0.39531696,0.15667722,0.20837517,0.44424382,-0.006687381,0.42936376,0.58338183,-0.04415661,0.35567978,0.44418997,0.18643574,0.4401807,-1.2154611,-0.6340723,0.4398336,-0.04052253,0.3178184,0.56640977,0.4019587
53,-0.11138463,0.020895056,-0.22059965,0.4586115,0.34987742,-0.23592557,-0.34846509,0.13479233,-0.02125772,0.018483367,0.04266144,-0.38776687,0.05274208,0.013164551,-0.1528851,-0.043484595,-0.4279968,-0.2548479,-0.13287081,-0.6724686,-0.037683085,0.37363753,0.10561933,0.26222262,0.105793275,-0.27460372,-0.34717193,0.17403932,-0.2865109,-0.030642563
54,0.11760085,-1.4956709,0.099260576,-0.19399557,-0.79997635,0.17889374,0.18868344,0.06742324,-0.008832258,0.0086828405,-0.80462694,0.08019377,0.17127272,-0.6025286,-0.03281507,0.03258896,0.10338539,0.11648764,0.027942916,0.1504427,-0.045551687,0.29817092,0.16828604,-0.6876194,0.20945387,0.23191352,0.23791471,-0.8186323,0.11876393,-0.579136
55,0.20793729,0.41944584,0.8251068,0.23037192,0.06712022,-0.39044115,-0.35317984,0.04799361,-0.030511267,-0.01641574,0.13428369,-0.3391588,0.1658669,0.31955272,-0.5512944,-0.087151825,-0.43352675,-0.33037156,0.1803038,0.3334203,0.16751382,0.6024104,0.30807683,0.02198576,0.17304148,-0.43217954,-0.53256106,0.22044517,-0.3094105,0.025516849
56,-0.015177657,-0.050891586,0.018190019,-0.037692666,-0.008519057,-0.016282342,0.030262377,0.031721182,0.041123018,0.028203502,0.0018066063,0.052524384,0.050715614,-0.03710594,0.019095656,-0.0037953516,-0.014364307,-0.031988088,-0.04953448,-0.04098055,-0.026400886,0.029162837,-0.023205254,0.041610062,-0.012139586,0.029271226,0.010044311,0.0052320245,-0.013651388,-0.0035961766
57,-0.406665,-0.19612707,-0.03000231,-0.842037,0.0605796,0.07262354,0.06308058,-0.035874136,-0.047765106,-0.042099148,-0.56557095,0.19741932,-0.34039775,-1.1157004,0.31550923,-0.03350397,0.08273742,0.15862119,-0.36371046,-0.297245,-0.72506654,-0.31950146,-0.8285844,0.0416705,-0.123162374,0.04584438,-0.40404513,-1.2132221,0.14598289,-1.012872
,0
0,0.38171935
1,0.8461801
2,-1.7018553
3,-0.70670456
4,0.931947
5,-0.36856425
6,-0.2843642
7,0.9771527
8,-0.020795409
9,0.014119175
10,0.37591138
11,-0.28771108
12,0.24019787
13,0.30021745
14,-0.9065574
15,-0.02365856
16,-0.28079697
17,-0.37786785
18,0.53138244
19,-1.4034101
20,0.15992261
21,1.8183935
22,0.38942754
23,0.9888976
24,-2.253264
25,-0.22409849
26,-1.1606424
27,0.3159115
28,-0.4212664
29,0.35252106
